{"learner":{"attributes":{"best_iteration":"145","best_score":"1.6559234933744784"},"feature_names":["total_submissions","scored_rate","code_run_rate","score_mean","score_std","active_days","submissions_per_day","excellent_rate","zero_score_rate","unique_problems","unique_assignments","avg_wrong_cases","avg_attempts","improvement_rate","problem_solving_efficiency","learning_intensity"],"feature_types":["int","float","float","float","float","float","float","float","float","int","int","float","float","float","float","float"],"gradient_booster":{"model":{"gbtree_model_param":{"num_parallel_tree":"1","num_trees":"246"},"iteration_indptr":[0,1,2,3,4,5,6,7,8,9,10,11,12,13,14,15,16,17,18,19,20,21,22,23,24,25,26,27,28,29,30,31,32,33,34,35,36,37,38,39,40,41,42,43,44,45,46,47,48,49,50,51,52,53,54,55,56,57,58,59,60,61,62,63,64,65,66,67,68,69,70,71,72,73,74,75,76,77,78,79,80,81,82,83,84,85,86,87,88,89,90,91,92,93,94,95,96,97,98,99,100,101,102,103,104,105,106,107,108,109,110,111,112,113,114,115,116,117,118,119,120,121,122,123,124,125,126,127,128,129,130,131,132,133,134,135,136,137,138,139,140,141,142,143,144,145,146,147,148,149,150,151,152,153,154,155,156,157,158,159,160,161,162,163,164,165,166,167,168,169,170,171,172,173,174,175,176,177,178,179,180,181,182,183,184,185,186,187,188,189,190,191,192,193,194,195,196,197,198,199,200,201,202,203,204,205,206,207,208,209,210,211,212,213,214,215,216,217,218,219,220,221,222,223,224,225,226,227,228,229,230,231,232,233,234,235,236,237,238,239,240,241,242,243,244,245,246],"tree_info":[0,0,0,0,0,0,0,0,0,0,0,0,0,0,0,0,0,0,0,0,0,0,0,0,0,0,0,0,0,0,0,0,0,0,0,0,0,0,0,0,0,0,0,0,0,0,0,0,0,0,0,0,0,0,0,0,0,0,0,0,0,0,0,0,0,0,0,0,0,0,0,0,0,0,0,0,0,0,0,0,0,0,0,0,0,0,0,0,0,0,0,0,0,0,0,0,0,0,0,0,0,0,0,0,0,0,0,0,0,0,0,0,0,0,0,0,0,0,0,0,0,0,0,0,0,0,0,0,0,0,0,0,0,0,0,0,0,0,0,0,0,0,0,0,0,0,0,0,0,0,0,0,0,0,0,0,0,0,0,0,0,0,0,0,0,0,0,0,0,0,0,0,0,0,0,0,0,0,0,0,0,0,0,0,0,0,0,0,0,0,0,0,0,0,0,0,0,0,0,0,0,0,0,0,0,0,0,0,0,0,0,0,0,0,0,0,0,0,0,0,0,0,0,0,0,0,0,0,0,0,0,0,0,0,0,0,0,0,0,0,0,0,0,0,0,0],"trees":[{"base_weights":[8.841304E-2,-1.0562361E0,6.103273E-1,1.6505417E-1,-1.4829806E0,8.4650147E-1,-4.7050092E-1,-1.3436979E0,1.1240534E0,-2.338407E0,-7.2945356E-1,1.1040754E0,1.4239717E-1,-9.544296E-2,7.7468064E-3,-2.8994998E-1,-2.6570952E0,-1.0132889E0,1.579418E0,-1.4710961E-1,-1.7605518E0,-1.1512973E0,-7.594666E-2,1.1709737E0,-2.4499583E0,-4.354301E-1,5.4626644E-1,-3.4359655E-1,1.3485354E0,-1.222176E0,2.6601333E-2,-1.1099875E-1,-9.499583E-1,1.8500833E-2,-4.7248747E-2,1.7467195E0,-2.6499165E-2,-2.3994999E-1,-2.144708E0,-6.2767684E-2,-6.1594665E-1,2.4608466E-1,-1.4132888E0,-1.4499583E0,1.2192262E0,-1.8999167E-2,-8.5332215E-2,-8.805023E-1,9.542153E-1,-7.221759E-1,7.274046E-1,6.957779E-2,-2.1082847E0,3.0004168E-1,1.7042153E0,-5.033222E-2,-1.724875E-2,-3.999166E-3,-3.533222E-2,5.4001577E-2,1.10008335E-2,-2.4165278E-2,1.4601333E-2,-5.2722525E-2,-1.03284284E-1,1.7376458E-2,-3.3387315E-2,-2.8498748E-2,1.4946018E-2,3.5008334E-3,-5.4748747E-2,1.10008335E-2,-6.533223E-2,3.2477267E-2,5.7768274E-2,-3.4598414E-2,1.16013335E-2,3.8144283E-2,-1.8999167E-2,-3.0398665E-2,1.10008335E-2,2.5461081E-2,-3.033222E-2,-2.0623436E-2,2.0151582E-2,-6.685571E-2,-1.8999167E-2,-3.999166E-3,1.4667777E-2,6.0834724E-2,1.4667777E-2],"categories":[],"categories_nodes":[],"categories_segments":[],"categories_sizes":[],"default_left":[0,0,0,0,0,0,0,0,0,0,0,0,0,0,0,0,0,0,0,0,0,0,0,0,0,0,0,0,0,0,0,0,0,0,0,0,0,0,0,0,0,0,0,0,0,0,0,0,0,0,0,0,0,0,0,0,0,0,0,0,0,0,0,0,0,0,0,0,0,0,0,0,0,0,0,0,0,0,0,0,0,0,0,0,0,0,0,0,0,0,0],"id":0,"left_children":[1,3,5,7,9,11,13,15,17,19,21,23,25,-1,27,29,31,33,35,-1,37,39,41,43,45,47,49,51,53,55,-1,-1,57,-1,-1,59,-1,61,63,-1,65,67,69,71,73,-1,-1,75,77,79,81,83,85,87,89,-1,-1,-1,-1,-1,-1,-1,-1,-1,-1,-1,-1,-1,-1,-1,-1,-1,-1,-1,-1,-1,-1,-1,-1,-1,-1,-1,-1,-1,-1,-1,-1,-1,-1,-1,-1],"loss_changes":[2.8799826E2,7.894278E1,8.489056E1,5.938607E1,7.048801E1,4.917241E1,7.781445E1,2.137341E1,2.5932158E1,6.844861E1,1.6728909E1,5.01828E1,1.7506994E1,0E0,2.4959366E1,1.2052857E1,8.947365E0,5.548827E0,1.0195251E1,0E0,2.5187912E1,1.7349777E1,1.1114441E1,2.6555328E1,1.064928E0,2.0013456E1,1.0634901E1,3.076989E1,3.5908737E0,8.0446625E-1,0E0,0E0,5.870769E-1,0E0,0E0,8.119507E-1,0E0,4.5017495E0,1.1545532E1,0E0,1.54934225E1,6.8056417E0,3.3621998E0,6.087077E0,1.6545258E1,0E0,0E0,8.742025E0,4.834499E0,2.273473E0,9.082195E0,1.6416058E1,7.4653625E-3,3.925864E-1,2.1547718E0,0E0,0E0,0E0,0E0,0E0,0E0,0E0,0E0,0E0,0E0,0E0,0E0,0E0,0E0,0E0,0E0,0E0,0E0,0E0,0E0,0E0,0E0,0E0,0E0,0E0,0E0,0E0,0E0,0E0,0E0,0E0,0E0,0E0,0E0,0E0,0E0],"parents":[2147483647,0,0,1,1,2,2,3,3,4,4,5,5,6,6,7,7,8,8,9,9,10,10,11,11,12,12,14,14,15,15,16,16,17,17,18,18,20,20,21,21,22,22,23,23,24,24,25,25,26,26,27,27,28,28,29,29,32,32,35,35,37,37,38,38,40,40,41,41,42,42,43,43,44,44,47,47,48,48,49,49,50,50,51,51,52,52,53,53,54,54],"right_children":[2,4,6,8,10,12,14,16,18,20,22,24,26,-1,28,30,32,34,36,-1,38,40,42,44,46,48,50,52,54,56,-1,-1,58,-1,-1,60,-1,62,64,-1,66,68,70,72,74,-1,-1,76,78,80,82,84,86,88,90,-1,-1,-1,-1,-1,-1,-1,-1,-1,-1,-1,-1,-1,-1,-1,-1,-1,-1,-1,-1,-1,-1,-1,-1,-1,-1,-1,-1,-1,-1,-1,-1,-1,-1,-1,-1],"split_conditions":[4.8E1,2.9E1,4.54E-1,3.143E-1,4.57834E1,3.866E-1,6.41E-1,4.0373E0,2.011E-1,5.55997E1,7E0,1.33805E1,2.83E2,-9.544296E-2,1.1285714E1,2E0,8E0,1.2E1,1E0,-1.4710961E-1,2.3446E0,1.045E0,6.41917E1,5.5833335E0,1.76E2,1.56605E1,4.351E-1,2.4289E0,7.731E-1,6.5686E0,2.6601333E-2,-1.1099875E-1,9E0,1.8500833E-2,-4.7248747E-2,6.33711E1,-2.6499165E-2,3.143E-1,1.6217392E1,-6.2767684E-2,4.13621E1,3.133E-1,5.3E1,3.351E-1,1.09E2,-1.8999167E-2,-8.5332215E-2,3.2896E0,4.33E-1,4.98E2,3.256E-1,1.5845E0,4.50998E1,1.19E2,9E1,-5.033222E-2,-1.724875E-2,-3.999166E-3,-3.533222E-2,5.4001577E-2,1.10008335E-2,-2.4165278E-2,1.4601333E-2,-5.2722525E-2,-1.03284284E-1,1.7376458E-2,-3.3387315E-2,-2.8498748E-2,1.4946018E-2,3.5008334E-3,-5.4748747E-2,1.10008335E-2,-6.533223E-2,3.2477267E-2,5.7768274E-2,-3.4598414E-2,1.16013335E-2,3.8144283E-2,-1.8999167E-2,-3.0398665E-2,1.10008335E-2,2.5461081E-2,-3.033222E-2,-2.0623436E-2,2.0151582E-2,-6.685571E-2,-1.8999167E-2,-3.999166E-3,1.4667777E-2,6.0834724E-2,1.4667777E-2],"split_indices":[9,0,1,11,3,8,7,15,1,5,10,15,0,0,6,0,0,0,8,0,11,15,3,6,0,14,7,15,7,3,0,0,0,0,0,3,0,7,6,0,4,1,0,1,9,0,0,11,1,0,1,15,4,0,9,0,0,0,0,0,0,0,0,0,0,0,0,0,0,0,0,0,0,0,0,0,0,0,0,0,0,0,0,0,0,0,0,0,0,0,0],"split_type":[0,0,0,0,0,0,0,0,0,0,0,0,0,0,0,0,0,0,0,0,0,0,0,0,0,0,0,0,0,0,0,0,0,0,0,0,0,0,0,0,0,0,0,0,0,0,0,0,0,0,0,0,0,0,0,0,0,0,0,0,0,0,0,0,0,0,0,0,0,0,0,0,0,0,0,0,0,0,0,0,0,0,0,0,0,0,0,0,0,0,0],"sum_hessian":[4.8E2,1.5E2,3.3E2,3.9E1,1.11E2,2.71E2,5.9E1,1.5E1,2.4E1,5.1E1,6E1,1.98E2,7.3E1,8E0,5.1E1,9E0,6E0,4E0,2E1,8E0,4.3E1,3.6E1,2.4E1,1.95E2,3E0,3E1,4.3E1,4.1E1,1E1,5E0,4E0,3E0,3E0,1E0,3E0,1.9E1,1E0,9E0,3.4E1,1.2E1,2.4E1,2E1,4E0,3E0,1.92E2,1E0,2E0,2.3E1,7E0,5E0,3.8E1,3.4E1,7E0,3E0,7E0,2E0,3E0,1E0,2E0,1.8E1,1E0,5E0,4E0,2.8E1,6E0,7E0,1.7E1,3E0,1.7E1,1E0,3E0,1E0,2E0,1.63E2,2.9E1,1.9E1,4E0,6E0,1E0,4E0,1E0,3.6E1,2E0,1.5E1,1.9E1,6E0,1E0,1E0,2E0,5E0,2E0],"tree_param":{"num_deleted":"0","num_feature":"16","num_nodes":"91","size_leaf_vector":"1"}},{"base_weights":[2.5252268E-2,-1.0821646E0,6.6221035E-1,-1.4276172E0,3.1082407E-1,-8.296195E-1,9.5792747E-1,-1.8825686E0,-1.8083513E-1,8.0090207E-1,-8.312463E-1,-1.6488901E0,-1.794963E-1,5.0297326E-1,1.3543686E0,-3.039701E0,-1.5408251E0,-1.1228658E0,4.1546884E-1,1.3035781E0,-4.3023187E-1,6.9287664E-1,-1.801156E0,-1.868875E0,-1.9173944E-1,-1.7516103E0,6.155355E-1,-6.305658E-1,6.741738E-1,5.1480013E-1,1.5535647E0,-8.3575165E-1,-4.239404E0,-1.9455327E0,-3.8543555E-1,2.9267153E-2,-1.5207464E0,7.540091E-1,-1.021786E0,2.5341757E-2,1.6685727E0,-1.0622559E0,2.9316802E-2,3.463108E-2,1.2750625E-5,-2.2637339E-1,-1.14762254E-1,2.6908063E-3,-1.9826673E0,-3.284669E-1,3.2766436E-3,-1.8770473E-1,-6.35737E-2,1.8021311E-1,1.3982465E0,4.4549234E-2,-1.0388554E0,2.2139171E-1,1.0653037E0,9.947726E-1,-7.861431E-2,-4.021918E-2,1.593516E0,3.2300707E-2,-7.74313E-2,-1.4212945E-1,-7.185104E-2,-3.6658127E-2,-8.450833E-2,3.695749E-4,-6.535234E-2,-6.048994E-2,2.409942E-2,2.7335044E-2,-3.348019E-2,-4.732381E-2,1.8013673E-2,5.360537E-2,1.0835824E-2,-3.955187E-2,3.2766436E-3,-2.5180414E-2,1.38617465E-2,-2.7691083E-2,-6.957645E-2,-1.1723356E-2,-3.0576538E-3,3.2766436E-3,-1.1723356E-2,1.65718E-2,-1.8005695E-2,1.1501641E-2,4.510475E-2,-5.395937E-2,-7.325463E-3,-3.7926164E-2,1.4972742E-2,3.8690835E-2,4.6128654E-3,3.5830025E-2,-2.6986327E-2,-1.4792207E-2,4.4018228E-2,2.8857868E-2,5.2424405E-2],"categories":[],"categories_nodes":[],"categories_segments":[],"categories_sizes":[],"default_left":[0,0,0,0,0,0,0,0,0,0,0,0,0,0,0,0,0,0,0,0,0,0,0,0,0,0,0,0,0,0,0,0,0,0,0,0,0,0,0,0,0,0,0,0,0,0,0,0,0,0,0,0,0,0,0,0,0,0,0,0,0,0,0,0,0,0,0,0,0,0,0,0,0,0,0,0,0,0,0,0,0,0,0,0,0,0,0,0,0,0,0,0,0,0,0,0,0,0,0,0,0,0,0,0,0],"id":1,"left_children":[1,3,5,7,9,11,13,15,17,19,21,23,25,27,29,31,33,35,37,39,41,43,45,47,49,51,53,55,57,59,61,63,65,67,69,-1,71,73,75,-1,77,79,-1,-1,-1,81,-1,-1,83,85,-1,87,-1,89,91,-1,93,95,97,99,101,-1,103,-1,-1,-1,-1,-1,-1,-1,-1,-1,-1,-1,-1,-1,-1,-1,-1,-1,-1,-1,-1,-1,-1,-1,-1,-1,-1,-1,-1,-1,-1,-1,-1,-1,-1,-1,-1,-1,-1,-1,-1,-1,-1],"loss_changes":[3.3224435E2,8.321208E1,1.3270148E2,7.7936676E1,2.0255371E1,2.633537E1,4.440944E1,3.5256042E1,2.1812508E1,1.603238E1,1.7508858E1,6.6937904E0,3.7324715E1,2.3324482E1,2.1442963E1,5.46268E1,3.66577E1,1.4007511E1,1.2448086E1,1.605135E0,8.154446E0,1.597316E0,2.1448334E1,4.412361E0,2.004741E-1,5.3497887E0,6.5626497E0,1.5362726E1,1.8005108E1,7.768412E0,1.4508484E1,3.28189E1,1.5184326E0,3.3760284E1,1.5716459E1,0E0,1.6592747E1,6.894665E0,5.454386E0,0E0,7.4624825E-1,1.9443688E0,0E0,0E0,0E0,2.49778E0,0E0,0E0,4.2783813E0,2.5203526E-3,0E0,2.2357523E-1,0E0,4.397848E0,1.7124176E-1,0E0,8.013794E0,2.0845898E1,1.1051476E1,6.744849E0,9.052676E0,0E0,8.626678E0,0E0,0E0,0E0,0E0,0E0,0E0,0E0,0E0,0E0,0E0,0E0,0E0,0E0,0E0,0E0,0E0,0E0,0E0,0E0,0E0,0E0,0E0,0E0,0E0,0E0,0E0,0E0,0E0,0E0,0E0,0E0,0E0,0E0,0E0,0E0,0E0,0E0,0E0,0E0,0E0,0E0,0E0],"parents":[2147483647,0,0,1,1,2,2,3,3,4,4,5,5,6,6,7,7,8,8,9,9,10,10,11,11,12,12,13,13,14,14,15,15,16,16,17,17,18,18,19,19,20,20,21,21,22,22,23,23,24,24,25,25,26,26,27,27,28,28,29,29,30,30,31,31,32,32,33,33,34,34,36,36,37,37,38,38,40,40,41,41,45,45,48,48,49,49,51,51,53,53,54,54,56,56,57,57,58,58,59,59,60,60,62,62],"right_children":[2,4,6,8,10,12,14,16,18,20,22,24,26,28,30,32,34,36,38,40,42,44,46,48,50,52,54,56,58,60,62,64,66,68,70,-1,72,74,76,-1,78,80,-1,-1,-1,82,-1,-1,84,86,-1,88,-1,90,92,-1,94,96,98,100,102,-1,104,-1,-1,-1,-1,-1,-1,-1,-1,-1,-1,-1,-1,-1,-1,-1,-1,-1,-1,-1,-1,-1,-1,-1,-1,-1,-1,-1,-1,-1,-1,-1,-1,-1,-1,-1,-1,-1,-1,-1,-1,-1,-1],"split_conditions":[2.341E-1,9.231E-1,4.8E1,8E0,6.833E-1,8.109E-1,2.745E-1,5.0468994E1,2.059E-1,3.5891336E2,1.8460648E-2,1.72052E1,9.501E-1,1.5162E0,6.1E1,6.5686E0,3.548E0,2.767E-1,2.325E-1,9.556E-1,2.2189E0,5.62884E1,9.248E-1,3.4768518E-2,4.467E-1,6.351E-1,5.9096E0,3.1811124E2,6.681E-1,3.237921E2,5.55997E1,6.279E-1,4.53926E1,2.5318E0,7E0,2.9267153E-2,6.28302E1,4.71317E1,4.86887E1,2.5341757E-2,6.29903E1,4.92103E1,2.9316802E-2,3.463108E-2,1.2750625E-5,9.423E-1,-1.14762254E-1,2.6908063E-3,2.625E-1,3.919E-1,3.2766436E-3,4.632E-1,-6.35737E-2,4.16489E1,8.245E-1,4.4549234E-2,2.7682E0,2.412E-1,8.769E-1,3.919E-1,3.5885394E2,-4.021918E-2,6.471E-1,3.2300707E-2,-7.74313E-2,-1.4212945E-1,-7.185104E-2,-3.6658127E-2,-8.450833E-2,3.695749E-4,-6.535234E-2,-6.048994E-2,2.409942E-2,2.7335044E-2,-3.348019E-2,-4.732381E-2,1.8013673E-2,5.360537E-2,1.0835824E-2,-3.955187E-2,3.2766436E-3,-2.5180414E-2,1.38617465E-2,-2.7691083E-2,-6.957645E-2,-1.1723356E-2,-3.0576538E-3,3.2766436E-3,-1.1723356E-2,1.65718E-2,-1.8005695E-2,1.1501641E-2,4.510475E-2,-5.395937E-2,-7.325463E-3,-3.7926164E-2,1.4972742E-2,3.8690835E-2,4.6128654E-3,3.5830025E-2,-2.6986327E-2,-1.4792207E-2,4.4018228E-2,2.8857868E-2,5.2424405E-2],"split_indices":[13,2,9,10,1,2,13,5,13,5,5,14,15,15,9,3,15,1,13,2,11,3,7,5,1,7,15,5,7,5,5,1,3,11,10,0,3,4,3,0,3,4,0,0,0,2,0,0,13,1,0,1,0,4,2,0,11,13,2,1,5,0,7,0,0,0,0,0,0,0,0,0,0,0,0,0,0,0,0,0,0,0,0,0,0,0,0,0,0,0,0,0,0,0,0,0,0,0,0,0,0,0,0,0,0],"split_type":[0,0,0,0,0,0,0,0,0,0,0,0,0,0,0,0,0,0,0,0,0,0,0,0,0,0,0,0,0,0,0,0,0,0,0,0,0,0,0,0,0,0,0,0,0,0,0,0,0,0,0,0,0,0,0,0,0,0,0,0,0,0,0,0,0,0,0,0,0,0,0,0,0,0,0,0,0,0,0,0,0,0,0,0,0,0,0,0,0,0,0,0,0,0,0,0,0,0,0,0,0,0,0,0,0],"sum_hessian":[4.69E2,1.71E2,2.98E2,1.37E2,3.4E1,4.9E1,2.49E2,1E2,3.7E1,2.4E1,1E1,2.1E1,2.8E1,1.17E2,1.32E2,2.1E1,7.9E1,1.4E1,2.3E1,1.7E1,7E0,4E0,6E0,1.8E1,3E0,9E0,1.9E1,1.5E1,1.02E2,2.6E1,1.06E2,8E0,1.3E1,5.8E1,2.1E1,2E0,1.2E1,1.9E1,4E0,9E0,8E0,5E0,2E0,2E0,2E0,4E0,2E0,1E0,1.7E1,2E0,1E0,2E0,7E0,1.3E1,6E0,2E0,1.3E1,4.8E1,5.4E1,1.4E1,1.2E1,1E0,1.05E2,4E0,4E0,9E0,4E0,3.3E1,2.5E1,1.8E1,3E0,1E1,2E0,1.8E1,1E0,3E0,1E0,7E0,1E0,4E0,1E0,2E0,2E0,5E0,1.2E1,1E0,1E0,1E0,1E0,9E0,4E0,1E0,5E0,6E0,7E0,7E0,4.1E1,4.3E1,1.1E1,1.3E1,1E0,1E1,2E0,2.2E1,8.3E1],"tree_param":{"num_deleted":"0","num_feature":"16","num_nodes":"105","size_leaf_vector":"1"}},{"base_weights":[1.1982331E-2,-1.1343076E0,6.2747574E-1,-1.8765218E0,-3.605425E-1,-1.6011521E0,8.2788426E-1,-2.6571712E0,-9.7394246E-1,1.0184011E0,-5.853589E-1,-1.0325124E0,-2.4077241E0,3.7480104E-1,1.2192912E0,-2.766359E0,3.2206297E-2,-2.957975E0,-4.033293E-1,1.4129496E0,-1.908682E-2,-2.3348207E0,-1.6031104E-1,-8.329515E-2,-1.318172E0,-7.930981E-2,-4.2644404E-3,-3.8249773E-1,7.0112497E-1,8.71052E-1,1.6092148E0,-9.450465E-1,-3.0290651E0,-9.3321785E-2,-2.6039429E-2,-6.120802E-1,1.2631347E0,1.443402E-2,1.7607741E0,-1.2272274E0,-3.2670958E0,-5.017318E-1,1.2187312E0,5.428455E-3,-1.7104046E-2,-4.4353944E-1,-1.6576154E0,-7.063669E-1,1.0417585E0,8.991091E-1,-2.4851555E-1,4.5981586E-1,1.3232206E0,-2.676444E-2,1.6576935E0,-4.3052793E-2,5.6014014E-3,-1.0101524E-1,-4.696411E-2,-2.8045187E-2,2.5042921E-2,4.361153E-2,1.0370786E-2,1.1236345E-2,-1.0586815E-2,9.810677E-3,5.756635E-2,-4.5670487E-2,1.2579409E-2,1.6886722E-2,-1.1997726E-1,1.2049965E-2,-4.0467717E-2,4.6650924E-2,4.7212313E-3,-1.479426E-2,-3.6769365E-3,-9.706196E-3,-5.9776794E-2,-4.535263E-2,-5.950455E-3,4.1128512E-2,-1.893877E-2,-3.4539104E-2,2.8220695E-2,4.3789363E-3,-4.701201E-2,2.077127E-2,-3.5016574E-2,2.5139868E-2,4.9802292E-2,1.4715417E-2,5.107902E-2],"categories":[],"categories_nodes":[],"categories_segments":[],"categories_sizes":[],"default_left":[0,0,0,0,0,0,0,0,0,0,0,0,0,0,0,0,0,0,0,0,0,0,0,0,0,0,0,0,0,0,0,0,0,0,0,0,0,0,0,0,0,0,0,0,0,0,0,0,0,0,0,0,0,0,0,0,0,0,0,0,0,0,0,0,0,0,0,0,0,0,0,0,0,0,0,0,0,0,0,0,0,0,0,0,0,0,0,0,0,0,0,0,0],"id":2,"left_children":[1,3,5,7,9,11,13,15,17,19,21,23,25,27,29,31,-1,33,35,37,-1,39,41,43,45,-1,-1,47,49,51,53,55,57,-1,-1,59,61,63,65,67,69,71,73,-1,-1,75,77,79,81,83,85,87,89,-1,91,-1,-1,-1,-1,-1,-1,-1,-1,-1,-1,-1,-1,-1,-1,-1,-1,-1,-1,-1,-1,-1,-1,-1,-1,-1,-1,-1,-1,-1,-1,-1,-1,-1,-1,-1,-1,-1,-1],"loss_changes":[3.372514E2,9.5231445E1,1.4022939E2,5.7302887E1,2.6326889E1,9.438858E0,5.0262222E1,2.1300507E1,4.522367E1,8.732929E0,5.316527E1,4.4998055E0,4.969528E0,3.338289E1,1.9373657E1,1.8190063E1,0E0,1.7319489E-1,1.2253042E1,4.8389683E0,0E0,1.0446671E1,2.8390663E1,7.463866E-1,3.1243286E0,0E0,0E0,1.9648045E1,1.789674E1,1.4825253E1,1.0088577E1,4.150256E0,1.3533264E1,0E0,0E0,1.4789849E1,1.9685555E-1,5.290108E-1,1.1859398E0,4.5257874E0,2.1879906E1,3.7278664E1,4.0384846E0,0E0,0E0,1.9164264E-2,3.3768978E0,1.3611301E1,5.271508E0,7.73312E0,9.071155E0,1.7835392E1,4.983452E0,0E0,2.836609E0,0E0,0E0,0E0,0E0,0E0,0E0,0E0,0E0,0E0,0E0,0E0,0E0,0E0,0E0,0E0,0E0,0E0,0E0,0E0,0E0,0E0,0E0,0E0,0E0,0E0,0E0,0E0,0E0,0E0,0E0,0E0,0E0,0E0,0E0,0E0,0E0,0E0,0E0],"parents":[2147483647,0,0,1,1,2,2,3,3,4,4,5,5,6,6,7,7,8,8,9,9,10,10,11,11,12,12,13,13,14,14,15,15,17,17,18,18,19,19,21,21,22,22,23,23,24,24,27,27,28,28,29,29,30,30,31,31,32,32,35,35,36,36,37,37,38,38,39,39,40,40,41,41,42,42,45,45,46,46,47,47,48,48,49,49,50,50,51,51,52,52,54,54],"right_children":[2,4,6,8,10,12,14,16,18,20,22,24,26,28,30,32,-1,34,36,38,-1,40,42,44,46,-1,-1,48,50,52,54,56,58,-1,-1,60,62,64,66,68,70,72,74,-1,-1,76,78,80,82,84,86,88,90,-1,92,-1,-1,-1,-1,-1,-1,-1,-1,-1,-1,-1,-1,-1,-1,-1,-1,-1,-1,-1,-1,-1,-1,-1,-1,-1,-1,-1,-1,-1,-1,-1,-1,-1,-1,-1,-1,-1,-1],"split_conditions":[2.353E-1,7.86E-1,1.0894E0,4.02524E1,4.01328E1,2.832E-1,2.32E2,8.5833E0,2.1274E0,3.581132E2,1.0074476E2,6.4E1,1.5E2,6.575E-1,8.256E-1,8.848E-1,3.2206297E-2,6.66883E1,5.46004E1,4.583E-1,-1.908682E-2,9.530614E0,1.93E2,3.599192E2,4.27199E1,-7.930981E-2,-4.2644404E-3,1.68615E1,3.5860532E2,3.2717E0,3.587E1,8.583333E0,3.502641E2,-9.3321785E-2,-2.6039429E-2,1.2E1,7.426E-1,2E0,1.154E-1,2.188E-1,3.43206E1,1.7088E0,8.657E-1,5.428455E-3,-1.7104046E-2,7.22448E1,7.86E-1,3.0198123E2,5.19899E1,3.84568E1,2.1358E0,3.1797E0,2.639E-1,-2.676444E-2,4.66187E1,-4.3052793E-2,5.6014014E-3,-1.0101524E-1,-4.696411E-2,-2.8045187E-2,2.5042921E-2,4.361153E-2,1.0370786E-2,1.1236345E-2,-1.0586815E-2,9.810677E-3,5.756635E-2,-4.5670487E-2,1.2579409E-2,1.6886722E-2,-1.1997726E-1,1.2049965E-2,-4.0467717E-2,4.6650924E-2,4.7212313E-3,-1.479426E-2,-3.6769365E-3,-9.706196E-3,-5.9776794E-2,-4.535263E-2,-5.950455E-3,4.1128512E-2,-1.893877E-2,-3.4539104E-2,2.8220695E-2,4.3789363E-3,-4.701201E-2,2.077127E-2,-3.5016574E-2,2.5139868E-2,4.9802292E-2,1.4715417E-2,5.107902E-2],"split_indices":[13,2,15,3,3,13,0,11,12,5,5,0,0,7,2,15,0,3,3,11,0,5,0,5,4,0,0,14,5,15,4,6,5,0,0,10,2,0,7,13,4,11,2,0,0,3,2,5,3,3,15,15,13,0,3,0,0,0,0,0,0,0,0,0,0,0,0,0,0,0,0,0,0,0,0,0,0,0,0,0,0,0,0,0,0,0,0,0,0,0,0,0,0],"split_type":[0,0,0,0,0,0,0,0,0,0,0,0,0,0,0,0,0,0,0,0,0,0,0,0,0,0,0,0,0,0,0,0,0,0,0,0,0,0,0,0,0,0,0,0,0,0,0,0,0,0,0,0,0,0,0,0,0,0,0,0,0,0,0,0,0,0,0,0,0,0,0,0,0,0,0,0,0,0,0,0,0,0,0,0,0,0,0,0,0,0,0,0,0],"sum_hessian":[4.76E2,1.66E2,3.1E2,8.4E1,8.2E1,2.5E1,2.85E2,4.4E1,4E1,1.1E1,7.1E1,1.6E1,9E0,1.33E2,1.52E2,4.3E1,1E0,8E0,3.2E1,9E0,2E0,1.3E1,5.8E1,4E0,1.2E1,8E0,1E0,4E1,9.3E1,8.2E1,7E1,6E0,3.7E1,7E0,1E0,2.9E1,3E0,2E0,7E0,7E0,6E0,4.7E1,1.1E1,3E0,1E0,4E0,8E0,3.3E1,7E0,7.7E1,1.6E1,4.4E1,3.8E1,1E0,6.9E1,4E0,2E0,2.9E1,8E0,2.4E1,5E0,2E0,1E0,1E0,1E0,1E0,6E0,6E0,1E0,1E0,5E0,2.3E1,2.4E1,8E0,3E0,3E0,1E0,2E0,6E0,1.2E1,2.1E1,6E0,1E0,1E0,7.6E1,1.3E1,3E0,3.9E1,5E0,1.7E1,2.1E1,3E0,6.6E1],"tree_param":{"num_deleted":"0","num_feature":"16","num_nodes":"93","size_leaf_vector":"1"}},{"base_weights":[1.4171923E-2,-1.0272346E0,5.978451E-1,-2.0950096E0,-5.8688724E-1,-6.0349494E-1,8.958077E-1,-7.156302E-1,-2.5010846E0,-8.9566696E-1,4.7681272E-1,-1.4643719E0,-7.188145E-2,4.307695E-1,1.3501306E0,-1.4640832E0,1.3505568E-1,-7.2532403E-1,-3.0096352E0,-1.8796848E0,-4.1232008E-1,7.3238766E-1,-3.910882E-2,-7.793097E-1,-7.5586565E-2,1.127447E0,-6.910932E-1,5.9446707E-2,7.466118E-1,-4.00392E-2,1.3820306E0,-5.0568003E-2,-2.0247244E-3,-3.086934E-1,5.4504085E-1,-2.2433326E0,6.6057044E-1,-3.5530136E0,-1.071218E0,-2.260495E0,-4.5469248E-1,-6.7112607E-1,1.5802646E0,9.1915566E-1,-1.005886E0,-1.4159896E0,-2.557028E-1,1.3886405E0,-3.4021016E-2,-1.2160171E0,-1.1680545E-1,-9.563881E-1,3.391575E-1,1.7677624E0,5.400727E-1,7.82981E-1,1.5081972E0,-1.8790083E-2,9.663519E-3,2.9681968E-3,1.9822834E-2,-6.525988E-3,-1.05640635E-1,-1.7555628E-2,4.289239E-2,-1.14769876E-1,-3.9045442E-2,7.5770076E-3,-5.7480067E-2,-7.094429E-2,3.6457656E-3,4.862029E-2,-4.2497844E-2,-2.4229184E-2,4.3259162E-2,5.611093E-2,1.4199314E-2,3.8242627E-2,-1.0802972E-2,3.102323E-2,-7.62881E-2,-5.5038976E-3,-5.6169227E-2,-1.4304577E-2,5.8553014E-3,3.3307313E-3,4.4575695E-2,1.9947251E-2,-4.2355515E-2,-2.937779E-2,3.2562565E-3,-3.9340522E-2,1.9918136E-2,2.7229387E-2,-5.9225545E-3,1.4291935E-2,6.005397E-2,3.5877693E-2,4.902497E-3,-3.422463E-2,2.7486762E-2,4.6375882E-2,-7.878246E-3],"categories":[],"categories_nodes":[],"categories_segments":[],"categories_sizes":[],"default_left":[0,0,0,0,0,0,0,0,0,0,0,0,0,0,0,0,0,0,0,0,0,0,0,0,0,0,0,0,0,0,0,0,0,0,0,0,0,0,0,0,0,0,0,0,0,0,0,0,0,0,0,0,0,0,0,0,0,0,0,0,0,0,0,0,0,0,0,0,0,0,0,0,0,0,0,0,0,0,0,0,0,0,0,0,0,0,0,0,0,0,0,0,0,0,0,0,0,0,0,0,0,0,0],"id":3,"left_children":[1,3,5,7,9,11,13,15,17,19,21,23,25,27,29,31,33,35,37,39,41,43,-1,45,-1,47,49,51,53,-1,55,-1,-1,57,59,61,63,65,67,69,71,73,75,77,79,81,83,85,-1,87,89,91,93,95,97,99,101,-1,-1,-1,-1,-1,-1,-1,-1,-1,-1,-1,-1,-1,-1,-1,-1,-1,-1,-1,-1,-1,-1,-1,-1,-1,-1,-1,-1,-1,-1,-1,-1,-1,-1,-1,-1,-1,-1,-1,-1,-1,-1,-1,-1,-1,-1],"loss_changes":[2.978484E2,8.152423E1,1.1293829E2,2.677684E1,4.1811634E1,2.8726929E1,5.266034E1,8.474812E0,3.303656E1,4.5835922E1,1.4150799E1,1.5385231E1,3.0484703E1,1.4732824E1,1.2721359E1,2.0518198E0,1.4417642E0,2.2519878E1,2.7792755E1,1.633702E1,3.5611973E1,9.365568E0,0E0,4.9718475E0,0E0,9.844343E0,7.9973125E0,1.7088623E1,1.3386993E1,0E0,8.342194E0,0E0,0E0,1.0032434E0,1.4111614E-1,1.2179071E1,6.5859118E0,9.139832E0,9.43042E0,6.499359E0,1.826626E1,1.8472572E1,1.6837521E0,1.1376665E1,1.2036391E1,3.5934668E0,1.0900329E0,1.4496937E0,0E0,6.095625E0,2.8272152E0,8.347675E0,1.4515946E1,2.3708496E0,1.4132311E1,7.1973133E0,7.275894E0,0E0,0E0,0E0,0E0,0E0,0E0,0E0,0E0,0E0,0E0,0E0,0E0,0E0,0E0,0E0,0E0,0E0,0E0,0E0,0E0,0E0,0E0,0E0,0E0,0E0,0E0,0E0,0E0,0E0,0E0,0E0,0E0,0E0,0E0,0E0,0E0,0E0,0E0,0E0,0E0,0E0,0E0,0E0,0E0,0E0,0E0],"parents":[2147483647,0,0,1,1,2,2,3,3,4,4,5,5,6,6,7,7,8,8,9,9,10,10,11,11,12,12,13,13,14,14,15,15,16,16,17,17,18,18,19,19,20,20,21,21,23,23,25,25,26,26,27,27,28,28,30,30,33,33,34,34,35,35,36,36,37,37,38,38,39,39,40,40,41,41,42,42,43,43,44,44,45,45,46,46,47,47,49,49,50,50,51,51,52,52,53,53,54,54,55,55,56,56],"right_children":[2,4,6,8,10,12,14,16,18,20,22,24,26,28,30,32,34,36,38,40,42,44,-1,46,-1,48,50,52,54,-1,56,-1,-1,58,60,62,64,66,68,70,72,74,76,78,80,82,84,86,-1,88,90,92,94,96,98,100,102,-1,-1,-1,-1,-1,-1,-1,-1,-1,-1,-1,-1,-1,-1,-1,-1,-1,-1,-1,-1,-1,-1,-1,-1,-1,-1,-1,-1,-1,-1,-1,-1,-1,-1,-1,-1,-1,-1,-1,-1,-1,-1,-1,-1,-1,-1],"split_conditions":[2.33E-1,4.583E-1,4.9E1,8.848E-1,9.231E-1,1.4766E0,2.745E-1,3.4146E0,4.4365E0,2E-1,3.5941736E2,2.832E-1,2.7568E0,6.712E-1,5.55997E1,8.583333E0,2.93694E1,4.6296297E-3,3.502641E2,1.3354838E1,1.03E2,9.3594E0,-3.910882E-2,2.672E-1,-7.5586565E-2,9.248E-1,3.193088E2,2.412E-1,5.18819E1,-4.00392E-2,6.4E1,-5.0568003E-2,-2.0247244E-3,9.545E-1,3.1441E1,3E0,1.4267E0,7.5123E0,3.525686E2,4.79194E1,1.421875E1,3.02274E1,8.737E-1,8.2E1,9.2308E0,7.944E-1,4.48551E1,2.28033E1,-3.4021016E-2,1.70213E1,1.1344828E1,1.3354838E1,7.442E-1,5.857143E0,2.483E-1,7.344E-1,6.68074E1,-1.8790083E-2,9.663519E-3,2.9681968E-3,1.9822834E-2,-6.525988E-3,-1.05640635E-1,-1.7555628E-2,4.289239E-2,-1.14769876E-1,-3.9045442E-2,7.5770076E-3,-5.7480067E-2,-7.094429E-2,3.6457656E-3,4.862029E-2,-4.2497844E-2,-2.4229184E-2,4.3259162E-2,5.611093E-2,1.4199314E-2,3.8242627E-2,-1.0802972E-2,3.102323E-2,-7.62881E-2,-5.5038976E-3,-5.6169227E-2,-1.4304577E-2,5.8553014E-3,3.3307313E-3,4.4575695E-2,1.9947251E-2,-4.2355515E-2,-2.937779E-2,3.2562565E-3,-3.9340522E-2,1.9918136E-2,2.7229387E-2,-5.9225545E-3,1.4291935E-2,6.005397E-2,3.5877693E-2,4.902497E-3,-3.422463E-2,2.7486762E-2,4.6375882E-2,-7.878246E-3],"split_indices":[13,7,9,15,2,15,13,12,4,13,5,13,12,7,5,6,3,5,5,6,9,11,0,13,0,7,5,13,3,0,9,0,0,2,3,6,12,12,5,4,6,14,2,3,3,2,4,3,0,3,6,6,2,6,13,2,3,0,0,0,0,0,0,0,0,0,0,0,0,0,0,0,0,0,0,0,0,0,0,0,0,0,0,0,0,0,0,0,0,0,0,0,0,0,0,0,0,0,0,0,0,0,0],"split_type":[0,0,0,0,0,0,0,0,0,0,0,0,0,0,0,0,0,0,0,0,0,0,0,0,0,0,0,0,0,0,0,0,0,0,0,0,0,0,0,0,0,0,0,0,0,0,0,0,0,0,0,0,0,0,0,0,0,0,0,0,0,0,0,0,0,0,0,0,0,0,0,0,0,0,0,0,0,0,0,0,0,0,0,0,0,0,0,0,0,0,0,0,0,0,0,0,0,0,0,0,0,0,0],"sum_hessian":[4.88E2,1.75E2,3.13E2,5E1,1.25E2,6.2E1,2.51E2,1.2E1,3.8E1,9.7E1,2.8E1,2.3E1,3.9E1,1.25E2,1.26E2,6E0,6E0,9E0,2.9E1,3.1E1,6.6E1,2.5E1,3E0,1.5E1,8E0,1.3E1,2.6E1,5.8E1,6.7E1,1E0,1.25E2,5E0,1E0,3E0,3E0,4E0,5E0,2.2E1,7E0,2.4E1,7E0,5.9E1,7E0,2.3E1,2E0,6E0,9E0,1.2E1,1E0,1.3E1,1.3E1,1.2E1,4.6E1,1E1,5.7E1,2.3E1,1.02E2,2E0,1E0,1E0,2E0,2E0,2E0,2E0,3E0,1.9E1,3E0,3E0,4E0,2.3E1,1E0,2E0,5E0,5.6E1,3E0,5E0,2E0,1.8E1,5E0,1E0,1E0,2E0,4E0,6E0,3E0,1E0,1.1E1,1E0,1.2E1,2E0,1.1E1,1E1,2E0,2.2E1,2.4E1,2E0,8E0,2E1,3.7E1,1E0,2.2E1,1E2,2E0],"tree_param":{"num_deleted":"0","num_feature":"16","num_nodes":"103","size_leaf_vector":"1"}},{"base_weights":[3.366469E-2,-1.0042322E0,5.946725E-1,-1.6508528E0,-2.9946938E-1,-9.1159946E-1,8.508773E-1,-2.0030172E0,-5.378944E-1,-6.4809334E-1,5.9909445E-1,-1.7247456E0,-3.933251E-1,4.2099828E-1,1.2593257E0,-1.3259224E0,-2.4438357E0,-6.3636184E-2,-1.4191741E0,-9.4660693E-1,5.2692664E-1,-6.8588006E-1,1.0655237E0,-1.9373746E0,-1.5809217E-2,-5.733046E-1,4.252776E-2,5.399581E-1,-1.5349836E0,9.0248793E-1,1.5934007E0,-7.6568127E-1,-2.485827E0,-2.7387238E0,-3.1634942E-1,-1.1973655E0,5.6054676E-1,-5.1516376E-2,1.0006434E-2,-2.257403E-1,-1.4791948E0,-7.393513E-1,1.4107692E0,-4.7465198E-2,3.8188326E-1,-2.57242E-2,1.2290808E0,3.2286285E-3,-2.0808823E0,4.232676E-3,-4.9440907E-3,3.483478E-1,-8.404983E-1,1.8620908E-1,9.6368605E-1,-5.204887E-2,-2.0269847E-3,9.9380493E-1,-8.526943E-1,7.009188E-2,1.6365387E0,-4.1206356E-2,1.2097091E-3,-1.07064895E-1,2.6093688E-2,-8.570654E-2,1.918127E-2,4.021745E-2,-4.439881E-2,-8.72303E-3,-4.7339175E-2,3.674133E-2,-4.856385E-2,-4.198534E-2,2.0835755E-2,-5.9411205E-2,6.389576E-4,-4.2529747E-2,3.978275E-2,2.3942925E-2,5.4717496E-2,-5.179906E-3,3.0682854E-2,4.628346E-2,2.049957E-2,-4.5543175E-2,-8.708441E-2,-1.1476972E-2,2.9765232E-2,-7.546507E-3,-4.566243E-2,-1.5200536E-2,1.9475369E-2,2.0505365E-2,5.163851E-2,3.323369E-2,-1.0490158E-2,9.150875E-3,-4.0208355E-2,9.343192E-3,-6.1890576E-3,1.1961379E-2,5.0026137E-2],"categories":[],"categories_nodes":[],"categories_segments":[],"categories_sizes":[],"default_left":[0,0,0,0,0,0,0,0,0,0,0,0,0,0,0,0,0,0,0,0,0,0,0,0,0,0,0,0,0,0,0,0,0,0,0,0,0,0,0,0,0,0,0,0,0,0,0,0,0,0,0,0,0,0,0,0,0,0,0,0,0,0,0,0,0,0,0,0,0,0,0,0,0,0,0,0,0,0,0,0,0,0,0,0,0,0,0,0,0,0,0,0,0,0,0,0,0,0,0,0,0,0,0],"id":4,"left_children":[1,3,5,7,9,11,13,15,17,19,21,23,25,27,29,31,33,35,37,39,41,43,45,47,49,51,-1,53,55,57,59,61,63,65,67,69,71,-1,-1,73,75,77,79,-1,81,-1,83,-1,85,-1,-1,87,89,91,93,-1,-1,95,97,99,101,-1,-1,-1,-1,-1,-1,-1,-1,-1,-1,-1,-1,-1,-1,-1,-1,-1,-1,-1,-1,-1,-1,-1,-1,-1,-1,-1,-1,-1,-1,-1,-1,-1,-1,-1,-1,-1,-1,-1,-1,-1,-1],"loss_changes":[2.8707318E2,7.834415E1,1.2426816E2,3.41976E1,2.6702187E1,1.9128956E1,4.757968E1,1.705603E1,9.522634E0,2.1895119E1,1.5115215E1,6.510021E0,1.0590551E1,3.2241066E1,1.525148E1,1.6941608E1,2.4228424E1,1.1993651E1,4.7518024E0,1.8478401E1,1.5592527E1,7.3034096E0,6.7152596E0,4.9195137E0,9.3382604E-2,7.18806E0,0E0,1.90069E1,2.2303944E0,1.2066875E1,4.550888E0,1.0344155E1,3.581142E1,1.5797211E1,1.3552147E1,1.6115217E0,1.7904408E1,0E0,0E0,2.4735977E1,2.1098606E1,1.0285972E1,5.6932735E-1,0E0,1.5981821E0,0E0,1.8562946E0,0E0,2.5316772E0,0E0,0E0,3.6736426E0,8.448289E0,2.3104942E1,1.1134514E1,0E0,0E0,1.0647461E1,2.6667752E0,2.6437178E-1,1.9827576E0,0E0,0E0,0E0,0E0,0E0,0E0,0E0,0E0,0E0,0E0,0E0,0E0,0E0,0E0,0E0,0E0,0E0,0E0,0E0,0E0,0E0,0E0,0E0,0E0,0E0,0E0,0E0,0E0,0E0,0E0,0E0,0E0,0E0,0E0,0E0,0E0,0E0,0E0,0E0,0E0,0E0,0E0],"parents":[2147483647,0,0,1,1,2,2,3,3,4,4,5,5,6,6,7,7,8,8,9,9,10,10,11,11,12,12,13,13,14,14,15,15,16,16,17,17,18,18,19,19,20,20,21,21,22,22,23,23,24,24,25,25,27,27,28,28,29,29,30,30,31,31,32,32,33,33,34,34,35,35,36,36,39,39,40,40,41,41,42,42,44,44,46,46,48,48,51,51,52,52,53,53,54,54,57,57,58,58,59,59,60,60],"right_children":[2,4,6,8,10,12,14,16,18,20,22,24,26,28,30,32,34,36,38,40,42,44,46,48,50,52,-1,54,56,58,60,62,64,66,68,70,72,-1,-1,74,76,78,80,-1,82,-1,84,-1,86,-1,-1,88,90,92,94,-1,-1,96,98,100,102,-1,-1,-1,-1,-1,-1,-1,-1,-1,-1,-1,-1,-1,-1,-1,-1,-1,-1,-1,-1,-1,-1,-1,-1,-1,-1,-1,-1,-1,-1,-1,-1,-1,-1,-1,-1,-1,-1,-1,-1,-1,-1],"split_conditions":[2.33E-1,7.86E-1,1.5162E0,7.9E1,8E0,4.4E1,8.19E-1,2.4841E0,4.68623E1,9.545E-1,8.163E-1,8E0,3.333E-1,1.08712E1,2.32E2,4.0373E0,5.689E-1,6.329E-1,1.2E1,1.5038E0,6E0,7.7058825E0,4.3E1,2.388E-1,5.3E1,5.18819E1,4.252776E-2,2.743E-1,4.36982E1,1.03E2,4.66187E1,1.5099E0,3.44208E1,4.98E2,1.29E2,3.14E2,2.325E-1,-5.1516376E-2,1.0006434E-2,8E0,7.1E1,4.16974E1,4.6E0,-4.7465198E-2,1.42E2,-2.57242E-2,2.174E-1,3.2286285E-3,2.955E-1,4.232676E-3,-4.9440907E-3,4.67761E1,1.58E2,8E0,1E2,-5.204887E-2,-2.0269847E-3,5.03E0,4.586E-1,2.69E2,1.916E-1,-4.1206356E-2,1.2097091E-3,-1.07064895E-1,2.6093688E-2,-8.570654E-2,1.918127E-2,4.021745E-2,-4.439881E-2,-8.72303E-3,-4.7339175E-2,3.674133E-2,-4.856385E-2,-4.198534E-2,2.0835755E-2,-5.9411205E-2,6.389576E-4,-4.2529747E-2,3.978275E-2,2.3942925E-2,5.4717496E-2,-5.179906E-3,3.0682854E-2,4.628346E-2,2.049957E-2,-4.5543175E-2,-8.708441E-2,-1.1476972E-2,2.9765232E-2,-7.546507E-3,-4.566243E-2,-1.5200536E-2,1.9475369E-2,2.0505365E-2,5.163851E-2,3.323369E-2,-1.0490158E-2,9.150875E-3,-4.0208355E-2,9.343192E-3,-6.1890576E-3,1.1961379E-2,5.0026137E-2],"split_indices":[13,2,15,9,10,9,2,11,4,2,2,10,13,15,0,15,7,2,10,11,0,6,0,13,0,3,0,13,4,9,3,15,15,0,0,0,13,0,0,6,9,4,6,0,0,0,13,0,13,0,0,3,0,10,9,0,0,12,1,0,1,0,0,0,0,0,0,0,0,0,0,0,0,0,0,0,0,0,0,0,0,0,0,0,0,0,0,0,0,0,0,0,0,0,0,0,0,0,0,0,0,0,0],"split_type":[0,0,0,0,0,0,0,0,0,0,0,0,0,0,0,0,0,0,0,0,0,0,0,0,0,0,0,0,0,0,0,0,0,0,0,0,0,0,0,0,0,0,0,0,0,0,0,0,0,0,0,0,0,0,0,0,0,0,0,0,0,0,0,0,0,0,0,0,0,0,0,0,0,0,0,0,0,0,0,0,0,0,0,0,0,0,0,0,0,0,0,0,0,0,0,0,0,0,0,0,0,0,0],"sum_hessian":[4.91E2,1.72E2,3.19E2,8.9E1,8.3E1,4.6E1,2.73E2,6.7E1,2.2E1,6E1,2.3E1,1.7E1,2.9E1,1.34E2,1.39E2,2.8E1,3.9E1,1.5E1,7E0,4.8E1,1.2E1,6E0,1.7E1,1.5E1,2E0,2.7E1,2E0,1.27E2,7E0,6.9E1,7E1,2E1,8E0,3.4E1,5E0,5E0,1E1,6E0,1E0,2.1E1,2.7E1,5E0,7E0,3E0,3E0,1E0,1.6E1,1E0,1.4E1,1E0,1E0,6E0,2.1E1,7E1,5.7E1,6E0,1E0,6.6E1,3E0,2E0,6.8E1,1.1E1,9E0,6E0,2E0,3.3E1,1E0,2E0,3E0,2E0,3E0,8E0,2E0,9E0,1.2E1,2E1,7E0,4E0,1E0,4E0,3E0,2E0,1E0,9E0,7E0,1E1,4E0,3E0,3E0,1.2E1,9E0,2.8E1,4.2E1,4.3E1,1.4E1,6.1E1,5E0,1E0,2E0,1E0,1E0,2E0,6.6E1],"tree_param":{"num_deleted":"0","num_feature":"16","num_nodes":"103","size_leaf_vector":"1"}},{"base_weights":[-1.2182453E-2,-9.479048E-1,5.242577E-1,-1.6991386E0,-5.387893E-1,-6.477142E-1,7.9795986E-1,-2.4013817E0,-8.9677864E-1,-6.8780077E-1,1.3423274E0,-8.301633E-1,1.132688E0,3.9959922E-1,1.1839586E0,-2.7419903E0,5.4424096E-2,2.3196173E-1,-1.3690798E0,-1.5552865E0,-8.591191E-2,1.1188992E-2,5.2945398E-2,-9.805586E-1,3.4119865E-1,9.499526E-3,4.3846317E-2,-4.331928E-3,7.391983E-1,5.061694E-1,1.3668491E0,-1.4641751E0,-3.688704E0,6.281376E-1,-3.3606447E-2,-3.142202E-1,8.409877E-1,6.6533566E-2,-1.6918013E0,3.3443537E-1,-1.7998626E0,6.568898E-1,-6.170026E-1,-6.631479E-1,-1.7267176E0,4.9527994E-1,-8.749337E-3,2.580089E-1,-1.4904486E0,3.5118315E-1,1.3674088E0,-4.845115E-2,7.231121E-1,1.0927525E0,1.6708179E0,-5.7310708E-2,2.4258327E-2,-1.180389E-1,-3.934444E-2,2.206755E-2,4.5869276E-3,1.0059175E-2,-2.1684289E-2,1.6523337E-3,3.071087E-2,-2.099312E-2,2.4319796E-2,6.7446707E-3,-5.8362916E-2,-1.4633381E-2,3.9577298E-2,-9.313251E-2,-3.7845917E-2,1.0237678E-2,4.2099524E-2,-2.9877525E-2,3.772361E-2,-3.1061811E-2,-3.993855E-3,-1.0258312E-2,-6.739298E-2,5.951335E-3,2.1781683E-2,-1.3568253E-2,2.1925384E-2,7.468457E-3,-6.0689498E-2,1.6109824E-2,-2.7453573E-2,4.5869727E-2,2.8937708E-3,-1.7726412E-2,2.7359433E-2,2.1171615E-2,4.852127E-2,5.3523242E-2,1.0572731E-3],"categories":[],"categories_nodes":[],"categories_segments":[],"categories_sizes":[],"default_left":[0,0,0,0,0,0,0,0,0,0,0,0,0,0,0,0,0,0,0,0,0,0,0,0,0,0,0,0,0,0,0,0,0,0,0,0,0,0,0,0,0,0,0,0,0,0,0,0,0,0,0,0,0,0,0,0,0,0,0,0,0,0,0,0,0,0,0,0,0,0,0,0,0,0,0,0,0,0,0,0,0,0,0,0,0,0,0,0,0,0,0,0,0,0,0,0,0],"id":5,"left_children":[1,3,5,7,9,11,13,15,17,19,21,23,25,27,29,31,33,35,37,39,41,-1,-1,43,45,-1,-1,47,49,51,53,55,57,59,-1,61,63,65,67,69,71,73,75,77,79,81,-1,83,85,87,89,-1,91,93,95,-1,-1,-1,-1,-1,-1,-1,-1,-1,-1,-1,-1,-1,-1,-1,-1,-1,-1,-1,-1,-1,-1,-1,-1,-1,-1,-1,-1,-1,-1,-1,-1,-1,-1,-1,-1,-1,-1,-1,-1,-1,-1],"loss_changes":[2.4796275E2,5.440599E1,1.0123904E2,3.3343964E1,3.3999588E1,2.043028E1,3.873741E1,2.7752686E1,1.6843843E1,5.730069E1,3.027937E0,1.0023769E1,1.1473522E0,1.7424383E1,1.5299103E1,2.9681122E1,4.07318E0,3.5906448E0,1.0305233E1,2.1400078E1,2.6441977E1,0E0,0E0,1.0460033E1,8.2701075E-1,0E0,0E0,2.3386826E1,1.6338898E1,1.4513092E1,6.589218E0,1.5741798E1,4.193741E0,9.178412E-2,0E0,1.8346994E0,6.6157746E-1,3.4184115E0,9.187389E0,5.5018415E0,2.4175018E1,6.1178503E0,2.8952438E1,6.9648685E0,9.30748E0,2.670741E-1,0E0,1.745883E1,8.840225E0,1.0844303E1,5.191948E0,0E0,7.2395315E0,1.02291565E1,8.460693E0,0E0,0E0,0E0,0E0,0E0,0E0,0E0,0E0,0E0,0E0,0E0,0E0,0E0,0E0,0E0,0E0,0E0,0E0,0E0,0E0,0E0,0E0,0E0,0E0,0E0,0E0,0E0,0E0,0E0,0E0,0E0,0E0,0E0,0E0,0E0,0E0,0E0,0E0,0E0,0E0,0E0,0E0],"parents":[2147483647,0,0,1,1,2,2,3,3,4,4,5,5,6,6,7,7,8,8,9,9,10,10,11,11,12,12,13,13,14,14,15,15,16,16,17,17,18,18,19,19,20,20,23,23,24,24,27,27,28,28,29,29,30,30,31,31,32,32,33,33,35,35,36,36,37,37,38,38,39,39,40,40,41,41,42,42,43,43,44,44,45,45,47,47,48,48,49,49,50,50,52,52,53,53,54,54],"right_children":[2,4,6,8,10,12,14,16,18,20,22,24,26,28,30,32,34,36,38,40,42,-1,-1,44,46,-1,-1,48,50,52,54,56,58,60,-1,62,64,66,68,70,72,74,76,78,80,82,-1,84,86,88,90,-1,92,94,96,-1,-1,-1,-1,-1,-1,-1,-1,-1,-1,-1,-1,-1,-1,-1,-1,-1,-1,-1,-1,-1,-1,-1,-1,-1,-1,-1,-1,-1,-1,-1,-1,-1,-1,-1,-1,-1,-1,-1,-1,-1,-1],"split_conditions":[2.326E-1,4.955E-1,5E1,5E0,4.92103E1,6.8582E1,2.745E-1,6.5831E0,6.829E-1,1.981E-1,5.489E-1,4.60178E1,5.825E0,2.44E2,6E0,8.025E0,3.525686E2,3.1441E1,5.294E-1,3.4768518E-2,2.837E-1,1.1188992E-2,5.2945398E-2,4.40878E1,2.9928E0,9.499526E-3,4.3846317E-2,8.8E1,6.681E-1,3.1354285E2,7.333E-1,7.090909E0,2.38E2,3.5120557E2,-3.3606447E-2,4.8E1,5.1E1,3.5222842E2,8.892353E1,2E0,1.389E-1,4.35893E1,1.66E1,4.3E1,2.507E-1,4.632E-1,-8.749337E-3,8.173913E0,1.96E2,3.6390173E2,2.725E-1,-4.845115E-2,5.8E1,1.3E1,3.455E-1,-5.7310708E-2,2.4258327E-2,-1.180389E-1,-3.934444E-2,2.206755E-2,4.5869276E-3,1.0059175E-2,-2.1684289E-2,1.6523337E-3,3.071087E-2,-2.099312E-2,2.4319796E-2,6.7446707E-3,-5.8362916E-2,-1.4633381E-2,3.9577298E-2,-9.313251E-2,-3.7845917E-2,1.0237678E-2,4.2099524E-2,-2.9877525E-2,3.772361E-2,-3.1061811E-2,-3.993855E-3,-1.0258312E-2,-6.739298E-2,5.951335E-3,2.1781683E-2,-1.3568253E-2,2.1925384E-2,7.468457E-3,-6.0689498E-2,1.6109824E-2,-2.7453573E-2,4.5869727E-2,2.8937708E-3,-1.7726412E-2,2.7359433E-2,2.1171615E-2,4.852127E-2,5.3523242E-2,1.0572731E-3],"split_indices":[13,7,9,10,4,3,13,12,11,13,1,4,6,0,10,6,5,3,8,5,8,0,0,4,11,0,0,9,7,5,7,6,0,5,0,0,0,5,5,0,13,4,6,9,13,1,0,6,0,5,13,0,9,6,13,0,0,0,0,0,0,0,0,0,0,0,0,0,0,0,0,0,0,0,0,0,0,0,0,0,0,0,0,0,0,0,0,0,0,0,0,0,0,0,0,0,0],"split_type":[0,0,0,0,0,0,0,0,0,0,0,0,0,0,0,0,0,0,0,0,0,0,0,0,0,0,0,0,0,0,0,0,0,0,0,0,0,0,0,0,0,0,0,0,0,0,0,0,0,0,0,0,0,0,0,0,0,0,0,0,0,0,0,0,0,0,0,0,0,0,0,0,0,0,0,0,0,0,0,0,0,0,0,0,0,0,0,0,0,0,0,0,0,0,0,0,0],"sum_hessian":[4.92E2,1.79E2,3.13E2,6.2E1,1.17E2,5.9E1,2.54E2,3.2E1,3E1,1.09E2,8E0,5.4E1,5E0,1.26E2,1.28E2,2.8E1,4E0,9E0,2.1E1,4.4E1,6.5E1,3E0,5E0,4.8E1,6E0,2E0,3E0,5.8E1,6.8E1,2.8E1,1E2,1.3E1,1.5E1,3E0,1E0,5E0,4E0,4E0,1.7E1,5E0,3.9E1,2.7E1,3.8E1,3.5E1,1.3E1,5E0,1E0,5E1,8E0,4.3E1,2.5E1,2E0,2.6E1,5.5E1,4.5E1,1.1E1,2E0,1.3E1,2E0,2E0,1E0,2E0,3E0,1E0,3E0,2E0,2E0,2E0,1.5E1,3E0,2E0,1E1,2.9E1,2E1,7E0,3.2E1,6E0,2E1,1.5E1,4E0,9E0,3E0,2E0,2E1,3E1,2E0,6E0,3.8E1,5E0,2.2E1,3E0,3E0,2.3E1,3.3E1,2.2E1,4.2E1,3E0],"tree_param":{"num_deleted":"0","num_feature":"16","num_nodes":"97","size_leaf_vector":"1"}},{"base_weights":[5.526429E-2,-1.013205E0,5.3351843E-1,-1.418535E0,-3.4581047E-1,-6.9827956E-1,8.7939453E-1,2.5266057E-2,-1.814443E0,-5.9920126E-1,1.312782E0,7.176419E-1,-9.568951E-1,5.624275E-1,1.217054E0,4.1057408E-1,-1.7149366E0,-1.9396259E0,2.7596825E-1,1.0999252E0,-8.501942E-1,1.7642919E-2,4.88992E-2,1.3349202E0,-4.7374986E-2,4.084179E-2,-1.0552225E0,1.8055792E-1,8.6655235E-1,-3.793112E-2,1.2470204E0,9.390618E-2,4.4863056E-2,-1.9490805E-2,-7.3659986E-2,-2.9648316E0,-1.5741895E0,5.227843E-2,-3.8480017E-2,-2.7147864E-3,4.7825728E-2,-1.1138188E0,1.0490018E0,-1.4684515E-2,1.5920188E0,-1.1874776E0,3.5502848E-1,4.1607484E-1,-5.1881146E-2,4.3602493E-1,1.1697536E0,7.135833E-1,1.4079627E0,-6.485145E-3,3.001988E-2,-4.201906E-2,-1.2598807E-1,-6.169373E-2,-1.5665948E-2,-3.872495E-2,2.4060166E-2,9.101997E-3,5.080411E-2,4.527426E-3,5.2598774E-2,-4.3860305E-2,-1.4149998E-2,-2.8159082E-2,2.4044657E-2,-5.147614E-3,3.0295948E-2,1.9289609E-2,-2.5546806E-2,1.5479709E-2,4.937922E-2,-1.4087625E-2,2.7187798E-2,-3.583087E-2,4.345059E-2],"categories":[],"categories_nodes":[],"categories_segments":[],"categories_sizes":[],"default_left":[0,0,0,0,0,0,0,0,0,0,0,0,0,0,0,0,0,0,0,0,0,0,0,0,0,0,0,0,0,0,0,0,0,0,0,0,0,0,0,0,0,0,0,0,0,0,0,0,0,0,0,0,0,0,0,0,0,0,0,0,0,0,0,0,0,0,0,0,0,0,0,0,0,0,0,0,0,0,0],"id":6,"left_children":[1,3,5,7,9,11,13,15,17,19,21,23,25,27,29,31,33,35,37,39,41,-1,-1,43,-1,-1,45,47,49,-1,51,53,-1,-1,-1,55,57,-1,-1,-1,-1,59,61,-1,63,65,67,69,-1,71,73,75,77,-1,-1,-1,-1,-1,-1,-1,-1,-1,-1,-1,-1,-1,-1,-1,-1,-1,-1,-1,-1,-1,-1,-1,-1,-1,-1],"loss_changes":[2.4786453E2,4.00867E1,1.4334064E2,5.320581E1,2.51624E1,2.7783974E1,2.7356552E1,1.47849045E1,1.9638168E1,2.2685059E1,8.803282E-1,1.9121298E1,1.5797497E1,1.5754169E1,1.0945953E1,6.0433016E0,1.5595951E0,2.1183502E1,1.366503E1,4.2629433E0,2.3698761E1,0E0,0E0,5.4697857E0,0E0,0E0,1.1798866E1,2.8608435E1,9.410725E0,0E0,9.726898E0,4.4337893E0,0E0,0E0,0E0,2.6952087E1,2.5815231E1,0E0,0E0,0E0,0E0,1.4600285E1,2.3693027E0,0E0,1.8271141E0,1.0315178E1,4.217724E0,1.9714361E1,0E0,9.341427E0,1.2849453E1,7.4926205E0,1.1715179E1,0E0,0E0,0E0,0E0,0E0,0E0,0E0,0E0,0E0,0E0,0E0,0E0,0E0,0E0,0E0,0E0,0E0,0E0,0E0,0E0,0E0,0E0,0E0,0E0,0E0,0E0],"parents":[2147483647,0,0,1,1,2,2,3,3,4,4,5,5,6,6,7,7,8,8,9,9,10,10,11,11,12,12,13,13,14,14,15,15,16,16,17,17,18,18,19,19,20,20,23,23,26,26,27,27,28,28,30,30,31,31,35,35,36,36,41,41,42,42,44,44,45,45,46,46,47,47,49,49,50,50,51,51,52,52],"right_children":[2,4,6,8,10,12,14,16,18,20,22,24,26,28,30,32,34,36,38,40,42,-1,-1,44,-1,-1,46,48,50,-1,52,54,-1,-1,-1,56,58,-1,-1,-1,-1,60,62,-1,64,66,68,70,-1,72,74,76,78,-1,-1,-1,-1,-1,-1,-1,-1,-1,-1,-1,-1,-1,-1,-1,-1,-1,-1,-1,-1,-1,-1,-1,-1,-1,-1],"split_conditions":[2.268E-1,6.424E-1,4.9E1,6.58E-1,1.1E1,3.4E1,2.767E-1,1.7088E0,4.922E0,3.4768518E-2,9.9E1,8.9254E0,2.27E-1,2.32E2,5.55997E1,5.489E-1,4.3E1,4E0,3.261E-1,2E0,1.2764706E1,1.7642919E-2,4.88992E-2,2.011E-1,-4.7374986E-2,4.084179E-2,5.0202E0,9.9E1,3.5796716E2,-3.793112E-2,6.4E1,6.4E1,4.4863056E-2,-1.9490805E-2,-7.3659986E-2,4.4365E0,3.7405E0,5.227843E-2,-3.8480017E-2,-2.7147864E-3,4.7825728E-2,2.258E-1,1.4833E0,-1.4684515E-2,1.00601E1,7E0,1.036E-1,4.138E-1,-5.1881146E-2,2.725E-1,6.667E-1,3.1523727E2,3.64471E1,-6.485145E-3,3.001988E-2,-4.201906E-2,-1.2598807E-1,-6.169373E-2,-1.5665948E-2,-3.872495E-2,2.4060166E-2,9.101997E-3,5.080411E-2,4.527426E-3,5.2598774E-2,-4.3860305E-2,-1.4149998E-2,-2.8159082E-2,2.4044657E-2,-5.147614E-3,3.0295948E-2,1.9289609E-2,-2.5546806E-2,1.5479709E-2,4.937922E-2,-1.4087625E-2,2.7187798E-2,-3.583087E-2,4.345059E-2],"split_indices":[13,7,9,15,10,0,13,11,11,5,9,11,13,0,5,1,0,10,1,0,6,0,0,1,0,0,11,9,5,0,9,0,0,0,0,4,15,0,0,0,0,13,11,0,14,10,1,1,0,13,7,5,4,0,0,0,0,0,0,0,0,0,0,0,0,0,0,0,0,0,0,0,0,0,0,0,0,0,0],"split_type":[0,0,0,0,0,0,0,0,0,0,0,0,0,0,0,0,0,0,0,0,0,0,0,0,0,0,0,0,0,0,0,0,0,0,0,0,0,0,0,0,0,0,0,0,0,0,0,0,0,0,0,0,0,0,0,0,0,0,0,0,0,0,0,0,0,0,0,0,0,0,0,0,0,0,0,0,0,0,0],"sum_hessian":[4.83E2,1.49E2,3.34E2,9.2E1,5.7E1,7.3E1,2.61E2,2E1,7.2E1,5E1,7E0,1.1E1,6.2E1,1.36E2,1.25E2,1.7E1,3E0,6.8E1,4E0,6E0,4.4E1,3E0,4E0,9E0,2E0,2E0,6E1,6.1E1,7.5E1,1E0,1.24E2,1.4E1,3E0,2E0,1E0,1.6E1,5.2E1,2E0,2E0,2E0,4E0,3.9E1,5E0,1E0,8E0,5.5E1,5E0,5.5E1,6E0,3.2E1,4.3E1,3E1,9.4E1,1.1E1,3E0,8E0,8E0,3.5E1,1.7E1,3.6E1,3E0,3E0,2E0,1E0,7E0,3.9E1,1.6E1,1E0,4E0,2.8E1,2.7E1,2.8E1,4E0,1.9E1,2.4E1,4E0,2.6E1,1E0,9.3E1],"tree_param":{"num_deleted":"0","num_feature":"16","num_nodes":"79","size_leaf_vector":"1"}},{"base_weights":[1.04950685E-2,-4.6821904E-1,9.533532E-1,-1.6778103E0,-1.4164309E-1,1.1147268E0,-2.7234152E-1,-1.9346526E0,2.4943209E-1,-4.4595253E-1,4.3779442E-1,9.173624E-1,1.6923023E0,1.7459358E-1,-1.344289E0,-2.1012013E0,9.639667E-1,-1.4616148E-1,3.268019E-2,1.3515184E0,-5.319637E-1,-1.110757E-1,9.7693574E-1,6.6119295E-1,1.3733369E0,1.2447507E0,5.7615846E-2,5.036256E-1,-3.928229E-2,-5.0174218E-2,-1.3758383E-2,-3.15013E0,-1.509412E0,4.459512E-3,3.558566E-2,-2.0240856E-2,4.1891265E-1,-2.449537E-2,5.3336453E-2,-1.0115618E0,-1.3704571E-1,6.0881937E-1,-4.2255867E-1,1.5019575E0,5.712932E-1,8.190069E-1,-7.234212E-1,-2.4519553E-2,1.4524941E0,1.6747246E0,4.9857903E-2,-3.5392916E-1,7.962849E-1,-1.0267188E-1,3.0343808E-2,1.611797E-3,-5.743607E-2,1.5606622E-2,1.7248249E-3,-3.8235713E-2,5.6301733E-3,4.4540986E-3,-2.7852E-2,2.9523885E-2,-7.90694E-3,9.79835E-3,-2.857017E-2,4.863921E-2,-9.695027E-3,2.7803067E-2,-7.2789765E-3,3.11854E-2,3.668455E-3,-4.8709616E-2,3.9545532E-2,2.2759344E-2,4.836697E-2,5.3869244E-2,6.9833347E-3,-4.1926537E-2,2.283294E-2,-1.0983658E-3,-1.95882E-2,2.7308632E-2,-3.4461091E-3],"categories":[],"categories_nodes":[],"categories_segments":[],"categories_sizes":[],"default_left":[0,0,0,0,0,0,0,0,0,0,0,0,0,0,0,0,0,0,0,0,0,0,0,0,0,0,0,0,0,0,0,0,0,0,0,0,0,0,0,0,0,0,0,0,0,0,0,0,0,0,0,0,0,0,0,0,0,0,0,0,0,0,0,0,0,0,0,0,0,0,0,0,0,0,0,0,0,0,0,0,0,0,0,0,0],"id":7,"left_children":[1,3,5,7,9,11,13,15,17,19,21,23,25,27,29,31,33,35,-1,37,39,41,43,45,47,49,-1,51,-1,-1,-1,53,55,-1,-1,-1,57,-1,-1,59,61,63,65,67,69,71,73,-1,75,77,79,81,83,-1,-1,-1,-1,-1,-1,-1,-1,-1,-1,-1,-1,-1,-1,-1,-1,-1,-1,-1,-1,-1,-1,-1,-1,-1,-1,-1,-1,-1,-1,-1,-1],"loss_changes":[2.2116118E2,1.2814496E2,3.2939713E1,3.4637375E1,4.551161E1,1.50905E1,9.816523E0,3.1473907E1,3.1495783E0,2.6846806E1,2.6445267E1,1.2057503E1,1.2865677E0,7.98372E0,9.7697544E-1,3.1248352E1,5.483973E-1,2.3732636E0,0E0,8.846612E0,3.0544483E1,1.034784E1,8.725647E0,1.6543821E1,7.949997E0,7.6230927E0,0E0,3.5444567E0,0E0,0E0,0E0,2.6122787E1,2.4800179E1,0E0,0E0,0E0,1.16548896E-1,0E0,0E0,2.3259956E1,2.0472803E1,4.8431854E0,1.3011705E1,4.6626816E0,8.036797E0,1.0012623E1,1.6843636E1,0E0,2.9885864E0,1.4999256E0,6.210951E0,3.556193E-1,1.1433082E0,0E0,0E0,0E0,0E0,0E0,0E0,0E0,0E0,0E0,0E0,0E0,0E0,0E0,0E0,0E0,0E0,0E0,0E0,0E0,0E0,0E0,0E0,0E0,0E0,0E0,0E0,0E0,0E0,0E0,0E0,0E0,0E0],"parents":[2147483647,0,0,1,1,2,2,3,3,4,4,5,5,6,6,7,7,8,8,9,9,10,10,11,11,12,12,13,13,14,14,15,15,16,16,17,17,19,19,20,20,21,21,22,22,23,23,24,24,25,25,27,27,31,31,32,32,36,36,39,39,40,40,41,41,42,42,43,43,44,44,45,45,46,46,48,48,49,49,50,50,51,51,52,52],"right_children":[2,4,6,8,10,12,14,16,18,20,22,24,26,28,30,32,34,36,-1,38,40,42,44,46,48,50,-1,52,-1,-1,-1,54,56,-1,-1,-1,58,-1,-1,60,62,64,66,68,70,72,74,-1,76,78,80,82,84,-1,-1,-1,-1,-1,-1,-1,-1,-1,-1,-1,-1,-1,-1,-1,-1,-1,-1,-1,-1,-1,-1,-1,-1,-1,-1,-1,-1,-1,-1,-1,-1],"split_conditions":[2.46E2,5.437E-1,4.643E-1,8.957E-1,8E0,1.09E2,6.579E-1,5.6533E0,2.2E1,5.9594907E-2,7.163E-1,6.985E-1,3.4884E0,3.255E-1,1E1,5.55997E1,7E0,9.545E-1,3.268019E-2,2E0,3.230021E2,5.17641E1,1E1,3.6422314E2,3.587E1,3.2274E0,5.7615846E-2,3.211323E2,-3.928229E-2,-5.0174218E-2,-1.3758383E-2,4.67761E1,2.3446E0,4.459512E-3,3.558566E-2,-2.0240856E-2,2.5E1,-2.449537E-2,5.3336453E-2,3.31148E1,8.7E1,3.8182E0,6.2E1,3.6163342E2,3.1529E0,5.06215E1,3.645169E2,-2.4519553E-2,8.5289E0,4.34005E1,3.5727087E2,3.36E2,4.65981E1,-1.0267188E-1,3.0343808E-2,1.611797E-3,-5.743607E-2,1.5606622E-2,1.7248249E-3,-3.8235713E-2,5.6301733E-3,4.4540986E-3,-2.7852E-2,2.9523885E-2,-7.90694E-3,9.79835E-3,-2.857017E-2,4.863921E-2,-9.695027E-3,2.7803067E-2,-7.2789765E-3,3.11854E-2,3.668455E-3,-4.8709616E-2,3.9545532E-2,2.2759344E-2,4.836697E-2,5.3869244E-2,6.9833347E-3,-4.1926537E-2,2.283294E-2,-1.0983658E-3,-1.95882E-2,2.7308632E-2,-3.4461091E-3],"split_indices":[0,7,8,2,10,9,2,11,9,5,7,7,15,1,10,5,0,2,0,0,5,3,10,5,4,15,0,5,0,0,0,3,11,0,0,0,0,0,0,14,9,12,9,5,12,3,5,0,14,4,5,0,4,0,0,0,0,0,0,0,0,0,0,0,0,0,0,0,0,0,0,0,0,0,0,0,0,0,0,0,0,0,0,0,0],"split_type":[0,0,0,0,0,0,0,0,0,0,0,0,0,0,0,0,0,0,0,0,0,0,0,0,0,0,0,0,0,0,0,0,0,0,0,0,0,0,0,0,0,0,0,0,0,0,0,0,0,0,0,0,0,0,0,0,0,0,0,0,0,0,0,0,0,0,0,0,0,0,0,0,0,0,0,0,0,0,0,0,0,0,0,0,0],"sum_hessian":[4.88E2,3.24E2,1.64E2,6.8E1,2.56E2,1.45E2,1.9E1,6E1,8E0,1.68E2,8.8E1,1.1E2,3.5E1,1.4E1,5E0,5.7E1,3E0,6E0,2E0,7E0,1.61E2,4.4E1,4.4E1,7.2E1,3.8E1,1.4E1,2.1E1,1.2E1,2E0,3E0,2E0,1.9E1,3.8E1,1E0,2E0,3E0,3E0,1E0,6E0,7.2E1,8.9E1,1.3E1,3.1E1,1.8E1,2.6E1,6.5E1,7E0,1E0,3.7E1,1E1,4E0,3E0,9E0,1.8E1,1E0,8E0,3E1,2E0,1E0,5.9E1,1.3E1,6.6E1,2.3E1,9E0,4E0,1.3E1,1.8E1,1.7E1,1E0,1.8E1,8E0,4.9E1,1.6E1,5E0,2E0,8E0,2.9E1,9E0,1E0,1E0,3E0,2E0,1E0,8E0,1E0],"tree_param":{"num_deleted":"0","num_feature":"16","num_nodes":"85","size_leaf_vector":"1"}},{"base_weights":[5.1126417E-2,-1.0182903E0,5.088499E-1,-1.3943919E0,3.6514646E-1,-7.896528E-1,7.9455817E-1,-2.6387093E0,-1.1666365E0,6.9681317E-1,-9.189221E-1,-1.004391E0,7.8537875E-1,4.4438624E-1,1.1894531E0,-9.862194E-1,-3.2450619E0,-9.0397024E-1,-2.225022E0,1.3525918E-1,1.4502723E0,1.1326969E-2,-1.197931E0,-1.1664847E0,4.0617757E-2,1.3994454E0,-7.045474E-1,-7.2577375E-1,5.067421E-1,1.0585495E0,5.857284E-2,-6.5761976E-2,1.647203E-1,-1.1962457E-1,-7.6334274E-1,5.2102163E-2,-9.928077E-1,1.3800399E-1,-2.511143E0,-1.3525288E0,7.438992E-1,4.963987E-2,-8.904419E-3,-4.6738677E-2,9.032907E-3,-1.7494323E0,-7.474727E-1,9.492495E-3,4.6583034E-2,-3.3967387E-2,2.2627544E-3,-6.045696E-2,3.9917707E-2,5.6344926E-1,-8.819786E-1,-3.678862E-2,1.0896214E0,2.0259533E-2,-2.050608E-2,-3.342937E-2,4.3434906E-3,-4.1740976E-2,-6.515118E-3,-8.763113E-3,1.4973292E-2,-1.6753217E-2,-9.207053E-2,9.882259E-3,-5.5660956E-2,2.600169E-3,3.602896E-2,-3.2240981E-3,-6.388364E-2,-4.0492084E-2,3.6982766E-3,-1.4153906E-2,2.1266935E-2,8.187977E-3,2.3905756E-2,-5.716495E-2,2.3301214E-2,-1.9377373E-2,3.380134E-2],"categories":[],"categories_nodes":[],"categories_segments":[],"categories_sizes":[],"default_left":[0,0,0,0,0,0,0,0,0,0,0,0,0,0,0,0,0,0,0,0,0,0,0,0,0,0,0,0,0,0,0,0,0,0,0,0,0,0,0,0,0,0,0,0,0,0,0,0,0,0,0,0,0,0,0,0,0,0,0,0,0,0,0,0,0,0,0,0,0,0,0,0,0,0,0,0,0,0,0,0,0,0,0],"id":8,"left_children":[1,3,5,7,9,11,13,15,17,19,21,23,25,27,29,31,33,35,37,39,41,-1,43,45,-1,47,49,51,53,55,-1,-1,57,-1,59,-1,61,63,65,67,69,-1,-1,-1,-1,71,73,-1,-1,-1,-1,-1,75,77,79,-1,81,-1,-1,-1,-1,-1,-1,-1,-1,-1,-1,-1,-1,-1,-1,-1,-1,-1,-1,-1,-1,-1,-1,-1,-1,-1,-1],"loss_changes":[2.3841377E2,7.647482E1,1.2713602E2,2.9512589E1,1.4268566E1,2.1758434E1,3.819014E1,1.3833511E1,2.5510849E1,1.0804645E1,2.9844184E0,2.2604088E1,8.305286E0,1.131274E1,1.1017029E1,8.688217E0,1.906604E1,2.0726349E1,1.3192665E1,1.5494582E1,4.4190845E0,0E0,3.707221E0,1.1393967E1,0E0,5.0499535E-1,1.0861799E0,7.9790606E0,1.1758247E1,9.429543E0,0E0,0E0,2.1940744E0,0E0,1.4362316E0,0E0,2.4119621E1,6.11735E-1,1.6805313E1,4.8398705E0,3.5006628E0,0E0,0E0,0E0,0E0,1.2874779E1,1.6947834E1,0E0,0E0,0E0,0E0,0E0,2.3884172E0,9.140194E0,1.16662E1,0E0,8.001648E0,0E0,0E0,0E0,0E0,0E0,0E0,0E0,0E0,0E0,0E0,0E0,0E0,0E0,0E0,0E0,0E0,0E0,0E0,0E0,0E0,0E0,0E0,0E0,0E0,0E0,0E0],"parents":[2147483647,0,0,1,1,2,2,3,3,4,4,5,5,6,6,7,7,8,8,9,9,10,10,11,11,12,12,13,13,14,14,15,15,16,16,17,17,18,18,19,19,20,20,22,22,23,23,25,25,26,26,27,27,28,28,29,29,32,32,34,34,36,36,37,37,38,38,39,39,40,40,45,45,46,46,52,52,53,53,54,54,56,56],"right_children":[2,4,6,8,10,12,14,16,18,20,22,24,26,28,30,32,34,36,38,40,42,-1,44,46,-1,48,50,52,54,56,-1,-1,58,-1,60,-1,62,64,66,68,70,-1,-1,-1,-1,72,74,-1,-1,-1,-1,-1,76,78,80,-1,82,-1,-1,-1,-1,-1,-1,-1,-1,-1,-1,-1,-1,-1,-1,-1,-1,-1,-1,-1,-1,-1,-1,-1,-1,-1,-1],"split_conditions":[2.258E-1,8.977E-1,4.8E1,5.882E-1,2.9E1,8.07E-1,2.745E-1,4E0,4.71317E1,4.7083335E0,9.014E-1,3.55E-1,2.965E-1,5.5833335E0,1.09E2,2E0,1.7538462E1,6.5686E0,1.29554E1,5.20998E1,8.1E1,1.1326969E-2,9.423E-1,8.828571E0,4.0617757E-2,4.5E0,4E0,3.590464E2,3.643198E2,5.55997E1,5.857284E-2,-6.5761976E-2,3.333E-1,-1.1962457E-1,1.74E-1,5.2102163E-2,6.4E1,1.09E2,1.7222E0,3.655E-1,4.043E-1,4.963987E-2,-8.904419E-3,-4.6738677E-2,9.032907E-3,1.7969E0,3.133E-1,9.492495E-3,4.6583034E-2,-3.3967387E-2,2.2627544E-3,-6.045696E-2,1.58E2,2.3E2,7.944E-1,-3.678862E-2,5E1,2.0259533E-2,-2.050608E-2,-3.342937E-2,4.3434906E-3,-4.1740976E-2,-6.515118E-3,-8.763113E-3,1.4973292E-2,-1.6753217E-2,-9.207053E-2,9.882259E-3,-5.5660956E-2,2.600169E-3,3.602896E-2,-3.2240981E-3,-6.388364E-2,-4.0492084E-2,3.6982766E-3,-1.4153906E-2,2.1266935E-2,8.187977E-3,2.3905756E-2,-5.716495E-2,2.3301214E-2,-1.9377373E-2,3.380134E-2],"split_indices":[13,2,9,2,9,7,13,0,4,6,2,13,13,6,9,0,6,3,14,3,0,0,2,6,0,6,0,5,5,5,0,0,2,0,1,0,9,0,11,1,11,0,0,0,0,11,1,0,0,0,0,0,0,0,2,0,9,0,0,0,0,0,0,0,0,0,0,0,0,0,0,0,0,0,0,0,0,0,0,0,0,0,0],"split_type":[0,0,0,0,0,0,0,0,0,0,0,0,0,0,0,0,0,0,0,0,0,0,0,0,0,0,0,0,0,0,0,0,0,0,0,0,0,0,0,0,0,0,0,0,0,0,0,0,0,0,0,0,0,0,0,0,0,0,0,0,0,0,0,0,0,0,0,0,0,0,0,0,0,0,0,0,0,0,0,0,0,0,0],"sum_hessian":[4.85E2,1.45E2,3.4E2,1.14E2,3.1E1,6.1E1,2.79E2,1.6E1,9.8E1,2.5E1,6E0,5.4E1,7E0,1.49E2,1.3E2,5E0,1.1E1,8E1,1.8E1,1.5E1,1E1,1E0,5E0,5.1E1,3E0,5E0,2E0,7E0,1.42E2,1.13E2,1.7E1,2E0,3E0,8E0,3E0,2E0,7.8E1,2E0,1.6E1,4E0,1.1E1,9E0,1E0,4E0,1E0,2E1,3.1E1,1E0,4E0,1E0,1E0,2E0,5E0,1.37E2,5E0,1E0,1.12E2,2E0,1E0,2E0,1E0,5.1E1,2.7E1,1E0,1E0,4E0,1.2E1,1E0,3E0,5E0,6E0,4E0,1.6E1,1.8E1,1.3E1,3E0,2E0,6.2E1,7.5E1,3E0,2E0,2E0,1.1E2],"tree_param":{"num_deleted":"0","num_feature":"16","num_nodes":"83","size_leaf_vector":"1"}},{"base_weights":[-2.3982083E-2,-9.2017263E-1,4.7302097E-1,-1.3262722E0,-2.5789165E-1,-6.651638E-1,7.5795144E-1,1.7826077E-1,-1.5735141E0,-3.582018E-2,-2.1562443E0,4.3342927E-1,-1.0175039E0,3.9463377E-1,1.0695202E0,-2.218195E-1,4.3018695E-2,-1.8957782E0,2.071599E-1,1.0452503E0,-3.5038617E-1,-2.425735E0,-8.089485E-3,-7.208909E-1,1.1981105E0,-1.9567664E0,-5.312705E-1,-8.0610335E-1,5.7911575E-1,9.500593E-1,1.7865982E0,4.319905E-1,-4.6116155E-1,-2.0774345E0,1.1718917E0,8.5702246E-1,-5.382653E-2,-2.9641727E-2,1.2776631E0,-1.18192166E-1,-8.624916E-2,-3.8961843E-2,-9.359498E-2,2.0100253E-2,-1.0643755E0,1.3361726E0,-6.6673994E-4,-8.428551E-2,-1.1641643E0,-1.185735E0,-4.6581794E-2,1.4073348E-1,-1.2492777E0,9.2152774E-2,8.433356E-1,7.7495223E-1,1.4546962E0,5.5348586E-2,1.19185345E-2,1.5173315E-2,3.1594562E-3,-2.3374524E-2,1.6215911E-2,-6.4704455E-2,1.5605384E-2,-2.0198492E-2,5.4045185E-2,-1.3703803E-2,4.0371474E-2,4.4784825E-2,1.9045034E-2,1.0874647E-2,-3.0362427E-2,-3.9830856E-2,3.7833522E-3,4.2758297E-2,9.350109E-3,-4.444747E-2,2.1101618E-3,-4.4222124E-2,-2.891332E-3,-1.6961247E-2,1.0391845E-2,2.6023792E-2,-5.3431117E-3,-4.896456E-2,9.473143E-3,1.4295897E-2,-4.8697606E-2,6.7256074E-3,3.507884E-2,-1.4515261E-2,2.5669213E-2,1.4511733E-2,4.526113E-2],"categories":[],"categories_nodes":[],"categories_segments":[],"categories_sizes":[],"default_left":[0,0,0,0,0,0,0,0,0,0,0,0,0,0,0,0,0,0,0,0,0,0,0,0,0,0,0,0,0,0,0,0,0,0,0,0,0,0,0,0,0,0,0,0,0,0,0,0,0,0,0,0,0,0,0,0,0,0,0,0,0,0,0,0,0,0,0,0,0,0,0,0,0,0,0,0,0,0,0,0,0,0,0,0,0,0,0,0,0,0,0,0,0,0,0],"id":9,"left_children":[1,3,5,7,9,11,13,15,17,19,21,23,25,27,29,31,-1,33,35,37,39,41,-1,43,45,47,49,51,53,55,57,59,61,63,65,67,-1,-1,69,71,-1,-1,-1,-1,73,75,-1,-1,77,79,81,83,85,87,89,91,93,-1,-1,-1,-1,-1,-1,-1,-1,-1,-1,-1,-1,-1,-1,-1,-1,-1,-1,-1,-1,-1,-1,-1,-1,-1,-1,-1,-1,-1,-1,-1,-1,-1,-1,-1,-1,-1,-1],"loss_changes":[2.1601343E2,4.618666E1,1.0168686E2,4.008275E1,2.816795E1,2.4826958E1,2.7877548E1,8.356145E0,5.318669E1,2.1110392E1,2.9048386E0,1.4986696E1,2.0882065E1,2.6384007E1,9.781433E0,2.2335126E0,0E0,4.590094E1,2.104699E1,7.878339E0,2.77975E1,6.4170456E-1,0E0,4.057408E0,1.7145166E0,7.5435333E0,1.0412748E1,6.889634E0,1.3046146E1,9.211441E0,7.2634125E-1,4.315114E-2,3.6064277E0,1.6380737E1,7.0216675E0,8.319352E0,0E0,0E0,8.5038185E-1,1.9702236E1,0E0,0E0,0E0,0E0,2.0483112E0,3.7737083E-1,0E0,0E0,4.022748E0,4.2553444E0,4.2733145E0,1.5447422E0,7.106779E0,2.516996E1,1.3057781E1,9.453712E0,7.909775E-1,0E0,0E0,0E0,0E0,0E0,0E0,0E0,0E0,0E0,0E0,0E0,0E0,0E0,0E0,0E0,0E0,0E0,0E0,0E0,0E0,0E0,0E0,0E0,0E0,0E0,0E0,0E0,0E0,0E0,0E0,0E0,0E0,0E0,0E0,0E0,0E0,0E0,0E0],"parents":[2147483647,0,0,1,1,2,2,3,3,4,4,5,5,6,6,7,7,8,8,9,9,10,10,11,11,12,12,13,13,14,14,15,15,17,17,18,18,19,19,20,20,21,21,23,23,24,24,25,25,26,26,27,27,28,28,29,29,30,30,31,31,32,32,33,33,34,34,35,35,38,38,39,39,44,44,45,45,48,48,49,49,50,50,51,51,52,52,53,53,54,54,55,55,56,56],"right_children":[2,4,6,8,10,12,14,16,18,20,22,24,26,28,30,32,-1,34,36,38,40,42,-1,44,46,48,50,52,54,56,58,60,62,64,66,68,-1,-1,70,72,-1,-1,-1,-1,74,76,-1,-1,78,80,82,84,86,88,90,92,94,-1,-1,-1,-1,-1,-1,-1,-1,-1,-1,-1,-1,-1,-1,-1,-1,-1,-1,-1,-1,-1,-1,-1,-1,-1,-1,-1,-1,-1,-1,-1,-1,-1,-1,-1,-1,-1,-1],"split_conditions":[2.341E-1,6.424E-1,5E1,4.649E-1,5.1774E1,3.446089E1,2.743E-1,5.489E-1,2.83E2,4.07287E1,8.5074E0,3.87037E1,6E0,1.5162E0,1.09E2,1.2E1,4.3018695E-2,4.922E0,3.6163342E2,1.036E-1,6.3043E0,3.2E0,-8.089485E-3,1.70213E1,6.1E1,7.2E0,4.3E1,1.57E2,2.28E2,3.7319E0,6.08E2,1.90789E1,2.3E1,5.82485E1,4E0,3.1687454E2,-5.382653E-2,-2.9641727E-2,6.58121E1,2.5467E0,-8.624916E-2,-3.8961843E-2,-9.359498E-2,2.0100253E-2,3.346E-1,2.856588E1,-6.6673994E-4,-8.428551E-2,3.604E-1,4.412E-1,1.4766E0,3.1598547E2,2.627E-1,8.5E1,4.64961E1,3.1523727E2,5.4E1,5.5348586E-2,1.19185345E-2,1.5173315E-2,3.1594562E-3,-2.3374524E-2,1.6215911E-2,-6.4704455E-2,1.5605384E-2,-2.0198492E-2,5.4045185E-2,-1.3703803E-2,4.0371474E-2,4.4784825E-2,1.9045034E-2,1.0874647E-2,-3.0362427E-2,-3.9830856E-2,3.7833522E-3,4.2758297E-2,9.350109E-3,-4.444747E-2,2.1101618E-3,-4.4222124E-2,-2.891332E-3,-1.6961247E-2,1.0391845E-2,2.6023792E-2,-5.3431117E-3,-4.896456E-2,9.473143E-3,1.4295897E-2,-4.8697606E-2,6.7256074E-3,3.507884E-2,-1.4515261E-2,2.5669213E-2,1.4511733E-2,4.526113E-2],"split_indices":[13,7,9,15,14,5,13,1,0,4,15,3,10,15,9,9,0,11,5,1,15,15,0,3,0,6,9,0,0,11,0,3,9,15,0,5,0,0,3,11,0,0,0,0,13,5,0,0,1,1,15,5,13,9,3,5,9,0,0,0,0,0,0,0,0,0,0,0,0,0,0,0,0,0,0,0,0,0,0,0,0,0,0,0,0,0,0,0,0,0,0,0,0,0,0],"split_type":[0,0,0,0,0,0,0,0,0,0,0,0,0,0,0,0,0,0,0,0,0,0,0,0,0,0,0,0,0,0,0,0,0,0,0,0,0,0,0,0,0,0,0,0,0,0,0,0,0,0,0,0,0,0,0,0,0,0,0,0,0,0,0,0,0,0,0,0,0,0,0,0,0,0,0,0,0,0,0,0,0,0,0,0,0,0,0,0,0,0,0,0,0,0,0],"sum_hessian":[4.83E2,1.72E2,3.11E2,1.06E2,6.6E1,6.2E1,2.49E2,1.5E1,9.1E1,6E1,6E0,1.5E1,4.7E1,1.16E2,1.33E2,1.2E1,3E0,7.7E1,1.4E1,1.3E1,4.7E1,5E0,1E0,6E0,9E0,1.5E1,3.2E1,1.5E1,1.01E2,1.16E2,1.7E1,3E0,9E0,7.3E1,4E0,1.1E1,3E0,1E0,1.2E1,4.4E1,3E0,3E0,2E0,1E0,5E0,8E0,1E0,6E0,9E0,1.3E1,1.9E1,5E0,1E1,3.6E1,6.5E1,8.8E1,2.8E1,1.6E1,1E0,2E0,1E0,7E0,2E0,7.1E1,2E0,1E0,3E0,3E0,8E0,8E0,4E0,2.9E1,1.5E1,4E0,1E0,7E0,1E0,7E0,2E0,1E1,3E0,8E0,1.1E1,1E0,4E0,8E0,2E0,3E1,6E0,2.3E1,4.2E1,5E0,8.3E1,2E0,2.6E1],"tree_param":{"num_deleted":"0","num_feature":"16","num_nodes":"95","size_leaf_vector":"1"}},{"base_weights":[-5.2670734E-3,-8.74158E-1,5.290195E-1,-1.5447514E0,-2.0144412E-1,-6.5095466E-1,8.042763E-1,-2.3662944E0,-9.555422E-1,8.3367157E-1,-4.3474334E-1,-8.2822615E-1,4.2876683E-2,-2.6363274E-1,9.131602E-1,-8.8673574E-1,-2.84591E0,-2.6869063E0,-7.373936E-1,-4.606316E-2,1.5420657E0,-1.2935948E-1,-1.975203E0,-2.3129103E-1,-1.3955817E0,8.642499E-1,-9.97979E-1,7.807744E-1,1.6717803E0,-2.4240434E0,7.9836124E-1,-3.3173099E0,-4.859922E-1,-3.4298714E-2,-9.518675E-2,-1.0938892E0,2.1488813E-1,4.056433E-1,-3.2540716E-2,4.9161363E-2,1.0083718E-2,-8.6522543E-1,4.2113978E-1,-3.1137104E0,-5.545238E-1,8.5919106E-1,-7.104434E-1,-2.3314488E0,-4.2906716E-1,-7.6148305E-3,1.3796871E0,-1.6994544E0,-3.4150043E-1,3.6350363E-1,1.0148761E0,5.993814E-3,1.7115364E0,-3.883701E-2,-9.365992E-2,-1.8464577E-3,5.0363615E-2,-1.0882692E-1,-4.2384926E-2,1.4765543E-2,-3.2943808E-2,1.0543187E-2,-3.822793E-2,2.2706807E-2,-4.394551E-2,-1.8741903E-3,3.1518683E-2,6.1680446E-3,-4.5931257E-2,2.4562761E-2,-1.9962411E-2,-1.134442E-1,-5.0025593E-2,-6.76007E-2,1.7270418E-2,3.7195288E-2,9.2010265E-3,-3.2200933E-2,-4.4283136E-3,-9.2153706E-2,-4.1766565E-2,-3.1282295E-2,1.2637205E-2,-2.7705217E-3,4.9212556E-2,-1.2356472E-2,-6.3963205E-2,-2.9856827E-2,4.5370315E-3,-4.1352708E-2,1.4587225E-2,-3.7550837E-2,3.185722E-2,5.2433975E-2,8.810878E-3],"categories":[],"categories_nodes":[],"categories_segments":[],"categories_sizes":[],"default_left":[0,0,0,0,0,0,0,0,0,0,0,0,0,0,0,0,0,0,0,0,0,0,0,0,0,0,0,0,0,0,0,0,0,0,0,0,0,0,0,0,0,0,0,0,0,0,0,0,0,0,0,0,0,0,0,0,0,0,0,0,0,0,0,0,0,0,0,0,0,0,0,0,0,0,0,0,0,0,0,0,0,0,0,0,0,0,0,0,0,0,0,0,0,0,0,0,0,0,0],"id":10,"left_children":[1,3,5,7,9,11,13,15,17,19,21,23,-1,25,27,29,31,33,35,37,39,41,43,45,47,49,51,53,55,57,59,61,63,-1,-1,65,67,69,-1,-1,-1,71,73,75,77,79,81,83,85,-1,87,89,91,93,95,-1,97,-1,-1,-1,-1,-1,-1,-1,-1,-1,-1,-1,-1,-1,-1,-1,-1,-1,-1,-1,-1,-1,-1,-1,-1,-1,-1,-1,-1,-1,-1,-1,-1,-1,-1,-1,-1,-1,-1,-1,-1,-1,-1],"loss_changes":[2.3165236E2,8.540115E1,1.00885475E2,4.372467E1,2.3545635E1,2.2940332E1,2.942656E1,2.5151596E1,1.9547295E1,1.1288613E1,3.690858E1,1.830431E1,0E0,2.0740658E1,2.1592896E1,3.0430897E1,3.0649307E1,8.7350845E-1,1.7888243E1,4.66239E0,6.146889E-1,2.7505655E1,1.930027E1,1.5240604E1,2.4326462E1,6.113191E0,6.3271875E0,1.8777122E1,1.5892181E0,6.883049E-1,4.645849E0,9.055817E0,4.1331377E0,0E0,0E0,1.0354481E1,1.4765147E1,2.1791134E0,0E0,0E0,0E0,2.099104E1,1.7394148E1,4.5430756E-1,1.4737412E1,1.5124974E0,3.9268389E0,5.458313E0,8.266445E0,0E0,2.8381395E0,3.0213203E0,3.0495396E0,1.6063799E1,1.4654114E1,0E0,1.131958E0,0E0,0E0,0E0,0E0,0E0,0E0,0E0,0E0,0E0,0E0,0E0,0E0,0E0,0E0,0E0,0E0,0E0,0E0,0E0,0E0,0E0,0E0,0E0,0E0,0E0,0E0,0E0,0E0,0E0,0E0,0E0,0E0,0E0,0E0,0E0,0E0,0E0,0E0,0E0,0E0,0E0,0E0],"parents":[2147483647,0,0,1,1,2,2,3,3,4,4,5,5,6,6,7,7,8,8,9,9,10,10,11,11,13,13,14,14,15,15,16,16,17,17,18,18,19,19,20,20,21,21,22,22,23,23,24,24,25,25,26,26,27,27,28,28,29,29,30,30,31,31,32,32,35,35,36,36,37,37,41,41,42,42,43,43,44,44,45,45,46,46,47,47,48,48,50,50,51,51,52,52,53,53,54,54,56,56],"right_children":[2,4,6,8,10,12,14,16,18,20,22,24,-1,26,28,30,32,34,36,38,40,42,44,46,48,50,52,54,56,58,60,62,64,-1,-1,66,68,70,-1,-1,-1,72,74,76,78,80,82,84,86,-1,88,90,92,94,96,-1,98,-1,-1,-1,-1,-1,-1,-1,-1,-1,-1,-1,-1,-1,-1,-1,-1,-1,-1,-1,-1,-1,-1,-1,-1,-1,-1,-1,-1,-1,-1,-1,-1,-1,-1,-1,-1,-1,-1,-1,-1,-1,-1],"split_conditions":[2.341E-1,7.86E-1,4.8E1,5E0,4.49102E1,3.55E-1,1.5162E0,4.4365E0,1.339E-1,8.512E-1,4.2997E0,2.772E-1,4.2876683E-2,1.55E2,1.09E2,4.6296297E-3,3.502641E2,6.4E1,1.40973E1,3.27193E1,4.46166E1,8.613E-1,1.613E-1,6.4E1,3.1593E0,1.69273E1,2.7682E0,6.681E-1,2.395E-1,3E0,9E0,5.405E-1,2.88813E1,-3.4298714E-2,-9.518675E-2,1.7154E0,4.71317E1,3.1441E1,-3.2540716E-2,4.9161363E-2,1.0083718E-2,2.0212E0,7.16105E1,4E0,6.27778E1,2.856588E1,1.1545455E1,5.42731E1,5.23149E1,-7.6148305E-3,1.25E2,1.58E2,1.40107E1,2.412E-1,5.6125336E1,5.993814E-3,4.56675E1,-3.883701E-2,-9.365992E-2,-1.8464577E-3,5.0363615E-2,-1.0882692E-1,-4.2384926E-2,1.4765543E-2,-3.2943808E-2,1.0543187E-2,-3.822793E-2,2.2706807E-2,-4.394551E-2,-1.8741903E-3,3.1518683E-2,6.1680446E-3,-4.5931257E-2,2.4562761E-2,-1.9962411E-2,-1.134442E-1,-5.0025593E-2,-6.76007E-2,1.7270418E-2,3.7195288E-2,9.2010265E-3,-3.2200933E-2,-4.4283136E-3,-9.2153706E-2,-4.1766565E-2,-3.1282295E-2,1.2637205E-2,-2.7705217E-3,4.9212556E-2,-1.2356472E-2,-6.3963205E-2,-2.9856827E-2,4.5370315E-3,-4.1352708E-2,1.4587225E-2,-3.7550837E-2,3.185722E-2,5.2433975E-2,8.810878E-3],"split_indices":[13,2,9,10,3,13,15,4,13,15,15,13,0,0,9,5,5,0,14,3,3,2,13,0,11,14,11,7,13,0,0,7,3,0,0,11,4,3,0,0,0,11,3,10,3,5,6,3,3,0,0,0,14,13,5,0,4,0,0,0,0,0,0,0,0,0,0,0,0,0,0,0,0,0,0,0,0,0,0,0,0,0,0,0,0,0,0,0,0,0,0,0,0,0,0,0,0,0,0],"split_type":[0,0,0,0,0,0,0,0,0,0,0,0,0,0,0,0,0,0,0,0,0,0,0,0,0,0,0,0,0,0,0,0,0,0,0,0,0,0,0,0,0,0,0,0,0,0,0,0,0,0,0,0,0,0,0,0,0,0,0,0,0,0,0,0,0,0,0,0,0,0,0,0,0,0,0,0,0,0,0,0,0,0,0,0,0,0,0,0,0,0,0,0,0,0,0,0,0,0,0],"sum_hessian":[4.97E2,1.89E2,3.08E2,9.4E1,9.5E1,5.8E1,2.5E2,3.8E1,5.6E1,1.7E1,7.8E1,5.4E1,4E0,2.3E1,2.27E2,1E1,2.8E1,5E0,5.1E1,8E0,9E0,6.6E1,1.2E1,2.7E1,2.7E1,9E0,1.4E1,1.95E2,3.2E1,5E0,5E0,2.3E1,5E0,2E0,3E0,3.7E1,1.4E1,6E0,2E0,8E0,1E0,2.8E1,3.8E1,6E0,6E0,8E0,1.9E1,1.3E1,1.4E1,3E0,6E0,6E0,8E0,7.1E1,1.24E2,1E0,3.1E1,3E0,2E0,3E0,2E0,1.9E1,4E0,2E0,3E0,4E0,3.3E1,1.1E1,3E0,4E0,2E0,1.1E1,1.7E1,2.8E1,1E1,3E0,3E0,2E0,4E0,4E0,4E0,1.1E1,8E0,6E0,7E0,8E0,6E0,1E0,5E0,2E0,4E0,3E0,5E0,4E0,6.7E1,2E0,1.22E2,3E1,1E0],"tree_param":{"num_deleted":"0","num_feature":"16","num_nodes":"99","size_leaf_vector":"1"}},{"base_weights":[2.009342E-2,-1.0684774E0,3.989467E-1,-1.6736792E0,-4.951269E-2,-7.1972436E-1,6.8230224E-1,-8.7936634E-1,-2.225873E0,4.9047983E-1,-1.5753654E0,9.954262E-1,-9.935873E-1,3.4687498E-1,1.0598979E0,-1.2436022E0,3.6879122E-1,-3.4294887E0,-1.5265589E0,-2.4010961E-1,1.0138979E0,-2.345643E0,1.654802E-2,1.3459637E0,-3.239118E-2,-1.9683961E0,-3.7742448E-1,-7.787339E-1,4.636299E-1,2.5697482E-1,1.1651379E0,-1.4063789E0,1.2566595E-2,8.6736673E-1,-7.5129014E-1,-3.8518946E0,-4.5589972E-1,-1.7898321E-1,-1.7998462E0,-1.771287E0,2.90292E-1,1.2921226E0,-9.934165E-1,-1.0441017E-3,-3.000911E0,1.60796E0,-1.1250085E-2,-3.182408E0,-5.90351E-1,-1.1775218E0,1.383624E-1,-2.9806337E-1,-5.7176832E-2,-6.876312E-2,6.490393E-1,-6.786618E-1,7.4396074E-1,-3.5455797E-2,1.1969293E0,-5.6852482E-2,-2.1029005E-2,3.0600164E-2,1.5625977E-3,-3.07436E-2,-3.064456E-3,-1.2345229E-1,-4.8087873E-2,1.7351668E-2,-3.7867155E-2,1.096528E-2,-1.6278205E-2,-5.912358E-2,1.6098403E-3,1.4127538E-2,-8.0269836E-2,2.129376E-2,-7.4252007E-3,4.586922E-2,2.426977E-3,-7.017597E-2,2.5472231E-2,-1.02865785E-1,-3.8620792E-2,5.1395003E-2,1.3072679E-2,-1.784563E-2,-1.0090688E-1,3.5068337E-2,-2.5696639E-2,5.6259693E-3,-4.603239E-2,2.9464033E-2,-5.9237396E-3,3.353548E-3,-1.9747032E-2,4.882597E-3,-5.7111096E-2,2.2809817E-2,-2.1899147E-3,2.505808E-3,-3.2419138E-2,2.906764E-2,-2.2584679E-2,3.2872096E-2,5.0760336E-2],"categories":[],"categories_nodes":[],"categories_segments":[],"categories_sizes":[],"default_left":[0,0,0,0,0,0,0,0,0,0,0,0,0,0,0,0,0,0,0,0,0,0,0,0,0,0,0,0,0,0,0,0,0,0,0,0,0,0,0,0,0,0,0,0,0,0,0,0,0,0,0,0,0,0,0,0,0,0,0,0,0,0,0,0,0,0,0,0,0,0,0,0,0,0,0,0,0,0,0,0,0,0,0,0,0,0,0,0,0,0,0,0,0,0,0,0,0,0,0,0,0,0,0,0,0],"id":11,"left_children":[1,3,5,7,9,11,13,15,17,19,21,23,25,27,29,31,33,35,37,39,41,43,-1,45,-1,47,49,51,53,55,57,59,-1,61,63,65,67,69,71,73,75,77,79,-1,81,83,-1,85,87,89,91,93,-1,95,97,99,101,-1,103,-1,-1,-1,-1,-1,-1,-1,-1,-1,-1,-1,-1,-1,-1,-1,-1,-1,-1,-1,-1,-1,-1,-1,-1,-1,-1,-1,-1,-1,-1,-1,-1,-1,-1,-1,-1,-1,-1,-1,-1,-1,-1,-1,-1,-1,-1],"loss_changes":[1.8848459E2,7.268529E1,1.0794785E2,3.0500122E1,3.785039E1,3.3399464E1,3.39561E1,1.5006586E1,3.0958008E1,1.3245174E1,2.0954115E1,8.727363E0,3.529554E1,1.9416996E1,1.0432037E1,7.3544693E0,5.119205E0,1.708487E1,1.03578415E1,1.2696275E1,1.2453304E1,1.3523533E1,0E0,4.660969E0,0E0,3.659942E1,1.5844754E1,7.017023E0,1.3074444E1,7.795168E0,9.771423E0,6.600582E0,0E0,6.935315E-1,4.2793345E-1,1.0983429E0,3.2320256E0,1.38627E0,7.7098694E0,9.371184E0,2.882957E0,5.040146E0,9.424931E0,0E0,7.190056E-1,2.4007034E-1,0E0,3.6241379E0,6.6212363E0,7.5953884E0,6.994471E0,1.6973512E0,0E0,1.5178486E1,7.9301834E0,1.9285524E0,4.4333158E0,0E0,3.7069702E0,0E0,0E0,0E0,0E0,0E0,0E0,0E0,0E0,0E0,0E0,0E0,0E0,0E0,0E0,0E0,0E0,0E0,0E0,0E0,0E0,0E0,0E0,0E0,0E0,0E0,0E0,0E0,0E0,0E0,0E0,0E0,0E0,0E0,0E0,0E0,0E0,0E0,0E0,0E0,0E0,0E0,0E0,0E0,0E0,0E0,0E0],"parents":[2147483647,0,0,1,1,2,2,3,3,4,4,5,5,6,6,7,7,8,8,9,9,10,10,11,11,12,12,13,13,14,14,15,15,16,16,17,17,18,18,19,19,20,20,21,21,23,23,25,25,26,26,27,27,28,28,29,29,30,30,31,31,33,33,34,34,35,35,36,36,37,37,38,38,39,39,40,40,41,41,42,42,44,44,45,45,47,47,48,48,49,49,50,50,51,51,53,53,54,54,55,55,56,56,58,58],"right_children":[2,4,6,8,10,12,14,16,18,20,22,24,26,28,30,32,34,36,38,40,42,44,-1,46,-1,48,50,52,54,56,58,60,-1,62,64,66,68,70,72,74,76,78,80,-1,82,84,-1,86,88,90,92,94,-1,96,98,100,102,-1,104,-1,-1,-1,-1,-1,-1,-1,-1,-1,-1,-1,-1,-1,-1,-1,-1,-1,-1,-1,-1,-1,-1,-1,-1,-1,-1,-1,-1,-1,-1,-1,-1,-1,-1,-1,-1,-1,-1,-1,-1,-1,-1,-1,-1,-1,-1],"split_conditions":[2.197E-1,8.398E-1,4.8E1,2.1931E0,6.58121E1,2.9E1,2.745E-1,3.6332E0,1.685E-1,5.824E-1,3.2305624E2,9.248E-1,7.701E-1,1.3101E0,5.9E1,2.1068E0,7.426E-1,1.8285715E1,1.858E-1,1.9688E0,9.3594E0,2E0,1.654802E-2,1.2076923E1,-3.239118E-2,3.9E1,1.4766E0,1.63E2,5.981E-1,7E0,5.55997E1,3.0038E0,1.2566595E-2,2.32404E1,4.1E1,3.482373E2,1.36E2,1.38E2,2.64E2,2E0,3.5857437E2,6.8E1,6E0,-1.0441017E-3,3.1422025E2,5.89033E1,-1.1250085E-2,9.530614E0,9.8E1,6.4E1,7.6237595E1,3.5891336E2,-5.7176832E-2,5.942E-1,2.684E-1,1.63E2,5.8E1,-3.5455797E-2,1.761111E1,-5.6852482E-2,-2.1029005E-2,3.0600164E-2,1.5625977E-3,-3.07436E-2,-3.064456E-3,-1.2345229E-1,-4.8087873E-2,1.7351668E-2,-3.7867155E-2,1.096528E-2,-1.6278205E-2,-5.912358E-2,1.6098403E-3,1.4127538E-2,-8.0269836E-2,2.129376E-2,-7.4252007E-3,4.586922E-2,2.426977E-3,-7.017597E-2,2.5472231E-2,-1.02865785E-1,-3.8620792E-2,5.1395003E-2,1.3072679E-2,-1.784563E-2,-1.0090688E-1,3.5068337E-2,-2.5696639E-2,5.6259693E-3,-4.603239E-2,2.9464033E-2,-5.9237396E-3,3.353548E-3,-1.9747032E-2,4.882597E-3,-5.7111096E-2,2.2809817E-2,-2.1899147E-3,2.505808E-3,-3.2419138E-2,2.906764E-2,-2.2584679E-2,3.2872096E-2,5.0760336E-2],"split_indices":[13,2,9,11,3,0,13,15,13,7,5,7,2,15,9,11,2,6,13,12,11,0,0,6,0,9,15,0,7,10,5,12,0,15,0,5,0,0,0,0,5,9,0,0,5,3,0,5,0,0,5,5,0,7,13,0,9,0,6,0,0,0,0,0,0,0,0,0,0,0,0,0,0,0,0,0,0,0,0,0,0,0,0,0,0,0,0,0,0,0,0,0,0,0,0,0,0,0,0,0,0,0,0,0,0],"split_type":[0,0,0,0,0,0,0,0,0,0,0,0,0,0,0,0,0,0,0,0,0,0,0,0,0,0,0,0,0,0,0,0,0,0,0,0,0,0,0,0,0,0,0,0,0,0,0,0,0,0,0,0,0,0,0,0,0,0,0,0,0,0,0,0,0,0,0,0,0,0,0,0,0,0,0,0,0,0,0,0,0,0,0,0,0,0,0,0,0,0,0,0,0,0,0,0,0,0,0,0,0,0,0,0,0],"sum_hessian":[4.55E2,1.17E2,3.38E2,7.3E1,4.4E1,6.8E1,2.7E2,3.1E1,4.2E1,3.3E1,1.1E1,9E0,5.9E1,1.44E2,1.26E2,2.4E1,7E0,1.4E1,2.8E1,1.4E1,1.9E1,8E0,3E0,8E0,1E0,2.2E1,3.7E1,1.3E1,1.31E2,1.5E1,1.11E2,2.2E1,2E0,5E0,2E0,1.2E1,2E0,5E0,2.3E1,3E0,1.1E1,1.7E1,2E0,2E0,6E0,7E0,1E0,1.1E1,1.1E1,1.4E1,2.3E1,1E1,3E0,3.4E1,9.7E1,5E0,1E1,1E0,1.1E2,1.2E1,1E1,4E0,1E0,1E0,1E0,1E1,2E0,1E0,1E0,2E0,3E0,2.1E1,2E0,1E0,2E0,6E0,5E0,1.4E1,3E0,1E0,1E0,4E0,2E0,6E0,1E0,1E0,1E1,1E0,1E1,3E0,1.1E1,6E0,1.7E1,5E0,5E0,3.1E1,3E0,8.4E1,1.3E1,2E0,3E0,9E0,1E0,9.4E1,1.6E1],"tree_param":{"num_deleted":"0","num_feature":"16","num_nodes":"105","size_leaf_vector":"1"}},{"base_weights":[-2.0630384E-2,-8.8499266E-1,4.86229E-1,-1.5068916E0,-2.999905E-1,-5.9163946E-1,7.134679E-1,-2.0137727E0,-7.6749074E-1,-5.009853E-1,8.8433594E-1,-7.4272096E-1,1.0375034E0,3.932871E-1,1.0356096E0,-4.1817665E-1,-2.3457296E0,-2.0563646E-1,-1.788942E0,8.0127305E-1,-7.1707267E-1,-3.1814352E-1,1.1112611E0,-2.210926E-1,-1.2555056E0,2.3125291E-3,3.775011E-2,-4.5277792E-1,5.2575034E-1,-3.664536E-1,1.1465926E0,-1.825509E0,8.242964E-1,-3.520234E0,-1.6978402E0,-6.467115E-1,3.8966592E-2,3.457489E-3,-5.871686E-2,-1.8269472E-1,1.3160937E0,3.4317863E-1,-1.0124718E0,8.860874E-3,-2.3177333E-2,7.11724E-1,4.5848053E-2,5.0732964E-1,-5.1616025E-1,-5.7411414E-1,-2.070539E0,4.2261917E-2,-7.735121E-1,-3.80833E-2,5.868056E-1,1.4976713E-1,-3.5346795E-2,-3.4923963E-2,1.1765484E0,8.3290576E-4,-9.210835E-2,4.5331776E-2,-1.09845875E-2,-2.8560828E-2,-1.16067976E-1,-5.6599434E-2,1.7021246E-2,-3.627207E-3,-5.560313E-2,8.023929E-3,-1.7158665E-2,-8.091581E-3,4.7435094E-2,-3.3475947E-2,3.323467E-2,-4.1724987E-2,-8.423941E-3,6.7716693E-3,2.5083125E-2,1.995232E-2,5.4993797E-3,-2.0439066E-2,8.203432E-3,-4.0206816E-2,-5.2106627E-3,-7.231819E-2,-1.080471E-2,-3.973042E-2,-5.938053E-3,7.955564E-3,2.5351265E-2,1.2408514E-2,-2.1499993E-2,2.4808273E-2,4.259663E-2],"categories":[],"categories_nodes":[],"categories_segments":[],"categories_sizes":[],"default_left":[0,0,0,0,0,0,0,0,0,0,0,0,0,0,0,0,0,0,0,0,0,0,0,0,0,0,0,0,0,0,0,0,0,0,0,0,0,0,0,0,0,0,0,0,0,0,0,0,0,0,0,0,0,0,0,0,0,0,0,0,0,0,0,0,0,0,0,0,0,0,0,0,0,0,0,0,0,0,0,0,0,0,0,0,0,0,0,0,0,0,0,0,0,0,0],"id":12,"left_children":[1,3,5,7,9,11,13,15,17,19,21,23,25,27,29,31,33,35,37,39,41,43,45,47,49,-1,-1,51,53,55,57,59,61,63,65,67,-1,-1,-1,69,71,73,75,-1,-1,77,-1,79,81,83,85,-1,87,-1,89,91,-1,-1,93,-1,-1,-1,-1,-1,-1,-1,-1,-1,-1,-1,-1,-1,-1,-1,-1,-1,-1,-1,-1,-1,-1,-1,-1,-1,-1,-1,-1,-1,-1,-1,-1,-1,-1,-1,-1],"loss_changes":[2.1335184E2,6.5034134E1,7.561673E1,3.106105E1,2.2819126E1,1.4061775E1,2.5791183E1,2.6032196E1,2.0866678E1,2.3368097E1,4.1737623E0,1.3096571E1,9.6346664E-1,1.4695402E1,2.0026428E1,1.8990486E1,2.5983047E1,1.7430191E1,4.3914223E0,6.319247E0,2.2271267E1,1.0645847E0,9.1161346E-1,5.8501434E0,1.2695194E1,0E0,0E0,1.1836562E1,1.3020792E1,4.3669996E0,9.468323E0,1.1619728E1,5.4586167E0,8.854111E0,1.347345E1,1.2465952E1,0E0,0E0,0E0,1.029124E0,3.789359E0,1.9086555E1,1.4835487E1,0E0,0E0,2.9486418E-1,0E0,2.869861E-1,2.6638517E0,4.368784E0,5.5298996E0,0E0,4.8106337E0,0E0,8.828804E0,1.8966852E0,0E0,0E0,8.69429E0,0E0,0E0,0E0,0E0,0E0,0E0,0E0,0E0,0E0,0E0,0E0,0E0,0E0,0E0,0E0,0E0,0E0,0E0,0E0,0E0,0E0,0E0,0E0,0E0,0E0,0E0,0E0,0E0,0E0,0E0,0E0,0E0,0E0,0E0,0E0,0E0],"parents":[2147483647,0,0,1,1,2,2,3,3,4,4,5,5,6,6,7,7,8,8,9,9,10,10,11,11,12,12,13,13,14,14,15,15,16,16,17,17,18,18,19,19,20,20,21,21,22,22,23,23,24,24,27,27,28,28,29,29,30,30,31,31,32,32,33,33,34,34,35,35,39,39,40,40,41,41,42,42,45,45,47,47,48,48,49,49,50,50,52,52,54,54,55,55,58,58],"right_children":[2,4,6,8,10,12,14,16,18,20,22,24,26,28,30,32,34,36,38,40,42,44,46,48,50,-1,-1,52,54,56,58,60,62,64,66,68,-1,-1,-1,70,72,74,76,-1,-1,78,-1,80,82,84,86,-1,88,-1,90,92,-1,-1,94,-1,-1,-1,-1,-1,-1,-1,-1,-1,-1,-1,-1,-1,-1,-1,-1,-1,-1,-1,-1,-1,-1,-1,-1,-1,-1,-1,-1,-1,-1,-1,-1,-1,-1,-1,-1],"split_conditions":[2.326E-1,7.86E-1,4.8E1,4.02524E1,1.1E1,3.55E-1,2.745E-1,4.4365E0,7.5E-1,4.01328E1,1.42E2,2.794E-1,6.713E-1,1.5162E0,5.8E1,4.6296297E-3,9.6E1,6.118E-1,4.28453E1,4.649E-1,6.793E-1,1.34E2,9.9E1,6.4E1,4.26776E1,2.3125291E-3,3.775011E-2,3.1811124E2,3.0198123E2,3.132E-1,5.55997E1,3E0,3.351E-1,4.056E-1,7.2E1,7.12E-1,3.8966592E-2,3.457489E-3,-5.871686E-2,3.6E1,2.136E-1,5.20998E1,2.121E-1,8.860874E-3,-2.3177333E-2,5.75672E1,4.5848053E-2,6E0,4.5602E1,1.045E0,5.42731E1,4.2261917E-2,3.5988766E2,-3.80833E-2,6.667E-1,4.32153E1,-3.5346795E-2,-3.4923963E-2,7.021E-1,8.3290576E-4,-9.210835E-2,4.5331776E-2,-1.09845875E-2,-2.8560828E-2,-1.16067976E-1,-5.6599434E-2,1.7021246E-2,-3.627207E-3,-5.560313E-2,8.023929E-3,-1.7158665E-2,-8.091581E-3,4.7435094E-2,-3.3475947E-2,3.323467E-2,-4.1724987E-2,-8.423941E-3,6.7716693E-3,2.5083125E-2,1.995232E-2,5.4993797E-3,-2.0439066E-2,8.203432E-3,-4.0206816E-2,-5.2106627E-3,-7.231819E-2,-1.080471E-2,-3.973042E-2,-5.938053E-3,7.955564E-3,2.5351265E-2,1.2408514E-2,-2.1499993E-2,2.4808273E-2,4.259663E-2],"split_indices":[13,2,9,3,10,13,13,4,2,3,0,13,2,15,9,5,0,7,3,15,15,0,9,0,4,0,0,5,5,13,5,0,1,15,9,2,0,0,0,0,1,3,13,0,0,3,0,10,4,15,3,0,5,0,7,4,0,0,7,0,0,0,0,0,0,0,0,0,0,0,0,0,0,0,0,0,0,0,0,0,0,0,0,0,0,0,0,0,0,0,0,0,0,0,0],"split_type":[0,0,0,0,0,0,0,0,0,0,0,0,0,0,0,0,0,0,0,0,0,0,0,0,0,0,0,0,0,0,0,0,0,0,0,0,0,0,0,0,0,0,0,0,0,0,0,0,0,0,0,0,0,0,0,0,0,0,0,0,0,0,0,0,0,0,0,0,0,0,0,0,0,0,0,0,0,0,0,0,0,0,0,0,0,0,0,0,0,0,0,0,0,0,0],"sum_hessian":[4.85E2,1.79E2,3.06E2,8.6E1,9.3E1,5.3E1,2.53E2,5E1,3.6E1,8E1,1.3E1,4.9E1,4E0,1.28E2,1.25E2,9E0,4.1E1,2.4E1,1.2E1,1.1E1,6.9E1,2E0,1.1E1,2.5E1,2.4E1,1E0,3E0,1.7E1,1.11E2,9E0,1.16E2,4E0,5E0,1.3E1,2.8E1,1.9E1,5E0,1E0,1.1E1,4E0,7E0,1.5E1,5.4E1,1E0,1E0,7E0,4E0,7E0,1.8E1,1.4E1,1E1,2E0,1.5E1,3E0,1.08E2,6E0,3E0,1E0,1.15E2,2E0,2E0,3E0,2E0,2E0,1.1E1,2.6E1,2E0,1.4E1,5E0,2E0,2E0,1E0,6E0,5E0,1E1,3.5E1,1.9E1,2E0,5E0,4E0,3E0,1.5E1,3E0,4E0,1E1,8E0,2E0,7E0,8E0,4.9E1,5.9E1,5E0,1E0,4.9E1,6.6E1],"tree_param":{"num_deleted":"0","num_feature":"16","num_nodes":"95","size_leaf_vector":"1"}},{"base_weights":[7.859736E-2,-7.044287E-1,5.173477E-1,-1.031098E0,1.7936055E-1,-5.3642875E-1,7.4110395E-1,-1.343109E0,4.8080064E-2,-1.355622E-2,4.4996534E-2,-7.508291E-1,6.189983E-1,2.9796493E-1,1.0073476E0,-2.068518E0,-9.5416117E-1,9.174927E-1,-8.245379E-1,-3.6739028E-1,5.84386E-1,-1.1196501E0,-2.5843984E-1,-4.0240535E-1,1.5166023E0,-1.3841679E0,4.2548674E-1,4.8178098E-1,1.2142111E0,-6.107373E-1,-2.675782E0,-1.3051003E0,-9.9293016E-2,1.2959012E0,-4.47106E-1,2.4565506E-1,-1.5652949E0,5.9182876E-1,-7.3270833E-1,-5.138075E-1,9.932678E-1,-3.048911E-1,-1.4037776E0,1.0629582E0,-6.31884E-1,-6.7309684E-1,2.42122E-3,5.574191E-2,2.2613525E-3,-5.7144873E-2,-2.3848128E-2,7.943399E-1,1.4066447E-1,5.3611588E-2,8.720358E-1,-2.5750736E-2,1.2406158E0,-5.8280874E-2,4.128456E-2,-9.508281E-2,-3.2840233E-2,-2.8900629E-2,-7.317152E-2,-5.0459094E-2,1.6211918E-2,7.675774E-3,4.1015714E-2,-1.8917607E-2,1.5500521E-3,2.4359193E-2,-1.1462302E-2,-9.420377E-2,-7.6357555E-3,-5.0928205E-4,3.6146328E-2,-3.451304E-2,1.1305654E-3,-3.6350165E-2,1.065979E-2,3.3502426E-2,7.517385E-3,7.011552E-3,-2.0244015E-2,-5.1276837E-2,-1.9079188E-2,9.438758E-3,3.5141554E-2,4.5603113E-3,-4.036707E-2,-2.4126241E-2,-6.163115E-3,5.534935E-4,-4.4453857E-4,3.2013766E-2,-2.6515061E-2,-5.1014803E-2,7.44962E-3,2.5122488E-2,-8.168555E-3,3.0408958E-2,-3.577012E-2,2.6949247E-2,4.219493E-2],"categories":[],"categories_nodes":[],"categories_segments":[],"categories_sizes":[],"default_left":[0,0,0,0,0,0,0,0,0,0,0,0,0,0,0,0,0,0,0,0,0,0,0,0,0,0,0,0,0,0,0,0,0,0,0,0,0,0,0,0,0,0,0,0,0,0,0,0,0,0,0,0,0,0,0,0,0,0,0,0,0,0,0,0,0,0,0,0,0,0,0,0,0,0,0,0,0,0,0,0,0,0,0,0,0,0,0,0,0,0,0,0,0,0,0,0,0,0,0,0,0,0,0],"id":13,"left_children":[1,3,5,7,9,11,13,15,17,19,-1,21,23,25,27,29,31,33,35,37,39,41,43,45,47,49,51,53,55,57,59,61,63,65,67,69,71,73,75,77,79,81,83,85,87,89,91,-1,-1,-1,-1,93,95,97,99,-1,101,-1,-1,-1,-1,-1,-1,-1,-1,-1,-1,-1,-1,-1,-1,-1,-1,-1,-1,-1,-1,-1,-1,-1,-1,-1,-1,-1,-1,-1,-1,-1,-1,-1,-1,-1,-1,-1,-1,-1,-1,-1,-1,-1,-1,-1,-1],"loss_changes":[1.6355208E2,4.9553795E1,7.2313225E1,4.2154007E1,1.1993639E1,1.3841854E1,2.943155E1,2.5394485E1,2.2757793E1,9.100736E0,0E0,8.0644E0,8.861633E0,2.1181778E1,1.6484146E1,2.7579285E1,1.9370842E1,8.325043E0,1.2275816E1,9.894979E0,7.6948485E0,5.5908775E0,1.1034502E1,5.495453E-1,2.3205538E0,6.3330555E-1,9.343447E0,7.6396255E0,7.194168E0,3.1784443E1,1.4482162E1,1.5476387E1,2.1157393E1,5.399189E-1,3.986438E-1,2.798707E0,1.7778921E1,3.006271E0,6.4796333E0,3.4632277E0,8.206501E-1,1.7516072E0,3.3689766E0,3.7149906E-2,9.715252E0,1.873207E-2,1.1023455E-3,0E0,0E0,0E0,0E0,1.8796667E1,1.0729294E1,6.103122E0,8.223963E0,0E0,5.039398E0,0E0,0E0,0E0,0E0,0E0,0E0,0E0,0E0,0E0,0E0,0E0,0E0,0E0,0E0,0E0,0E0,0E0,0E0,0E0,0E0,0E0,0E0,0E0,0E0,0E0,0E0,0E0,0E0,0E0,0E0,0E0,0E0,0E0,0E0,0E0,0E0,0E0,0E0,0E0,0E0,0E0,0E0,0E0,0E0,0E0,0E0],"parents":[2147483647,0,0,1,1,2,2,3,3,4,4,5,5,6,6,7,7,8,8,9,9,11,11,12,12,13,13,14,14,15,15,16,16,17,17,18,18,19,19,20,20,21,21,22,22,23,23,24,24,25,25,26,26,27,27,28,28,29,29,30,30,31,31,32,32,33,33,34,34,35,35,36,36,37,37,38,38,39,39,40,40,41,41,42,42,43,43,44,44,45,45,46,46,51,51,52,52,53,53,54,54,56,56],"right_children":[2,4,6,8,10,12,14,16,18,20,-1,22,24,26,28,30,32,34,36,38,40,42,44,46,48,50,52,54,56,58,60,62,64,66,68,70,72,74,76,78,80,82,84,86,88,90,92,-1,-1,-1,-1,94,96,98,100,-1,102,-1,-1,-1,-1,-1,-1,-1,-1,-1,-1,-1,-1,-1,-1,-1,-1,-1,-1,-1,-1,-1,-1,-1,-1,-1,-1,-1,-1,-1,-1,-1,-1,-1,-1,-1,-1,-1,-1,-1,-1,-1,-1,-1,-1,-1,-1],"split_conditions":[2.341E-1,8E0,1.5162E0,8.977E-1,9.9E1,4.1423E0,2.22E2,2.93954E2,6.316E-1,8.163E-1,4.4996534E-2,1.0894E0,4.67761E1,5E-1,4.60584E1,1.9E1,6.936E-1,3.587943E2,2E0,3.256E-1,5E0,2.3446E0,1.32E2,1.11E2,5.9E1,2.8012E0,2.9517E0,3.3096E0,1.5556E0,7.090909E0,3.4301E0,4.468E-1,7.730769E0,3.553E-1,9.545E-1,5.77812E1,1.143E-1,3.5222842E2,6.589E-1,5.13E-1,9.2E1,5.3E1,4.385E-1,3.525E-1,7.6086955E0,7.6E1,2.09E2,5.574191E-2,2.2613525E-3,-5.7144873E-2,-2.3848128E-2,1.99E2,5.55997E1,3.053E0,4.56618E1,-2.5750736E-2,3.5857437E2,-5.8280874E-2,4.128456E-2,-9.508281E-2,-3.2840233E-2,-2.8900629E-2,-7.317152E-2,-5.0459094E-2,1.6211918E-2,7.675774E-3,4.1015714E-2,-1.8917607E-2,1.5500521E-3,2.4359193E-2,-1.1462302E-2,-9.420377E-2,-7.6357555E-3,-5.0928205E-4,3.6146328E-2,-3.451304E-2,1.1305654E-3,-3.6350165E-2,1.065979E-2,3.3502426E-2,7.517385E-3,7.011552E-3,-2.0244015E-2,-5.1276837E-2,-1.9079188E-2,9.438758E-3,3.5141554E-2,4.5603113E-3,-4.036707E-2,-2.4126241E-2,-6.163115E-3,5.534935E-4,-4.4453857E-4,3.2013766E-2,-2.6515061E-2,-5.1014803E-2,7.44962E-3,2.5122488E-2,-8.168555E-3,3.0408958E-2,-3.577012E-2,2.6949247E-2,4.219493E-2],"split_indices":[13,10,15,2,9,11,0,5,1,2,0,15,3,7,3,0,7,5,6,1,6,11,0,0,9,11,12,15,11,6,11,1,6,11,2,3,13,5,7,1,9,0,1,1,6,0,0,0,0,0,0,0,5,11,3,0,5,0,0,0,0,0,0,0,0,0,0,0,0,0,0,0,0,0,0,0,0,0,0,0,0,0,0,0,0,0,0,0,0,0,0,0,0,0,0,0,0,0,0,0,0,0,0],"split_type":[0,0,0,0,0,0,0,0,0,0,0,0,0,0,0,0,0,0,0,0,0,0,0,0,0,0,0,0,0,0,0,0,0,0,0,0,0,0,0,0,0,0,0,0,0,0,0,0,0,0,0,0,0,0,0,0,0,0,0,0,0,0,0,0,0,0,0,0,0,0,0,0,0,0,0,0,0,0,0,0,0,0,0,0,0,0,0,0,0,0,0,0,0,0,0,0,0,0,0,0,0,0,0],"sum_hessian":[4.74E2,1.7E2,3.04E2,1.24E2,4.6E1,5.3E1,2.51E2,9.6E1,2.8E1,4.1E1,5E0,4.5E1,8E0,9.5E1,1.56E2,3.2E1,6.4E1,1.4E1,1.4E1,2.6E1,1.5E1,2.5E1,2E1,4E0,4E0,6E0,8.9E1,4.5E1,1.11E2,1E1,2.2E1,4.5E1,1.9E1,1.1E1,3E0,6E0,8E0,7E0,1.9E1,4E0,1.1E1,7E0,1.8E1,4E0,1.6E1,2E0,2E0,3E0,1E0,2E0,4E0,3.8E1,5.1E1,2.2E1,2.3E1,1E0,1.1E2,6E0,4E0,1.6E1,6E0,3.6E1,9E0,5E0,1.4E1,1E0,1E1,2E0,1E0,3E0,3E0,3E0,5E0,4E0,3E0,1.2E1,7E0,2E0,2E0,9E0,2E0,3E0,4E0,1.2E1,6E0,1E0,3E0,8E0,8E0,1E0,1E0,1E0,1E0,3.3E1,5E0,2E0,4.9E1,6E0,1.6E1,2.2E1,1E0,3.8E1,7.2E1],"tree_param":{"num_deleted":"0","num_feature":"16","num_nodes":"103","size_leaf_vector":"1"}},{"base_weights":[-4.9049113E-2,-1.0051407E0,3.6415374E-1,-1.3587818E0,-3.405571E-1,-7.056389E-1,6.332554E-1,-2.717174E-1,-1.5811366E0,-6.0929924E-1,4.91866E-1,3.565947E-1,-9.6796536E-1,3.584862E-1,9.201557E-1,3.017991E-1,-1.3734642E0,-2.1882074E0,-1.0761013E0,5.668759E-1,-8.843024E-1,-9.211016E-2,1.1885232E0,-2.9594507E-2,6.62648E-1,-1.6609144E0,-4.3965933E-1,-5.0941634E-1,4.856842E-1,3.8452426E-1,1.0785842E0,7.5810933E-1,-4.886571E-1,-1.3499832E-1,-5.8768425E-2,-8.201676E-1,-2.7240505E0,-1.625661E0,-1.9197853E-1,-1.1204402E-2,1.2057855E0,-2.7743855E-1,-1.6447388E0,-9.882972E-1,6.4326155E-1,-2.4095678E-3,1.4583554E0,9.1259027E-1,-3.130075E-2,-2.13645E0,-6.838088E-1,-8.4320235E-1,1.658386E-2,2.9998168E-2,-7.605819E-1,5.880994E-1,-5.8262086E-1,-9.251728E-1,5.5789083E-1,-3.363488E-2,1.112471E0,3.0952688E-2,1.1627097E-2,1.5267992E-3,-1.9088041E-2,5.9012887E-3,-1.1976213E-2,-8.789947E-2,-7.729896E-4,-2.4498368E-2,-9.9434875E-2,-5.3361468E-2,3.5306375E-2,9.368965E-4,-3.9552916E-2,3.9877474E-2,1.0678961E-2,-5.726734E-2,4.433087E-3,1.0589182E-2,-5.476682E-2,-1.7191386E-3,-3.8385797E-2,3.2552076E-3,2.2494704E-2,4.8300873E-2,1.2774911E-2,2.9802388E-2,1.5654587E-3,-6.9711834E-2,7.2815535E-3,-4.132867E-3,-3.995779E-2,-4.588458E-2,-1.289381E-2,1.4483162E-2,-1.5298526E-2,-3.48987E-2,-2.2989034E-3,-1.6560711E-2,2.012829E-2,-4.8388723E-2,2.9291239E-2,6.6433526E-3,-4.143581E-2,3.898652E-2,5.887482E-3,3.54904E-2,1.3409924E-2],"categories":[],"categories_nodes":[],"categories_segments":[],"categories_sizes":[],"default_left":[0,0,0,0,0,0,0,0,0,0,0,0,0,0,0,0,0,0,0,0,0,0,0,0,0,0,0,0,0,0,0,0,0,0,0,0,0,0,0,0,0,0,0,0,0,0,0,0,0,0,0,0,0,0,0,0,0,0,0,0,0,0,0,0,0,0,0,0,0,0,0,0,0,0,0,0,0,0,0,0,0,0,0,0,0,0,0,0,0,0,0,0,0,0,0,0,0,0,0,0,0,0,0,0,0,0,0,0,0],"id":14,"left_children":[1,3,5,7,9,11,13,15,17,19,21,23,25,27,29,31,33,35,37,39,41,43,45,-1,47,49,51,53,55,57,59,61,63,65,-1,67,69,71,73,-1,75,77,79,81,83,-1,85,87,-1,89,91,93,95,-1,97,99,101,103,105,-1,107,-1,-1,-1,-1,-1,-1,-1,-1,-1,-1,-1,-1,-1,-1,-1,-1,-1,-1,-1,-1,-1,-1,-1,-1,-1,-1,-1,-1,-1,-1,-1,-1,-1,-1,-1,-1,-1,-1,-1,-1,-1,-1,-1,-1,-1,-1,-1,-1],"loss_changes":[1.8722931E2,3.314569E1,9.573613E1,2.2049759E1,1.1708759E1,1.9014858E1,2.0560448E1,1.11563E1,2.1252884E1,1.31159115E1,5.3982797E0,6.4084415E0,1.9038578E1,1.5371593E1,1.05321045E1,4.6987743E0,4.086152E0,2.2689682E1,2.1066551E1,5.256757E0,1.431109E1,5.9079785E0,2.171381E0,0E0,6.068995E0,9.225998E0,5.905624E0,7.5843015E0,1.347192E1,7.5549326E0,8.626968E0,4.1129827E-1,4.3059933E-1,3.4144837E-1,0E0,1.8360939E1,2.4323044E1,1.3674759E1,4.566979E0,0E0,5.1442623E-2,1.3462675E1,5.7015915E0,1.0112062E0,2.035613E-1,0E0,9.7435E-2,7.1310616E-1,0E0,7.2474823E0,3.0016327E0,4.165802E0,4.1736193E0,0E0,4.3177834E0,1.0760078E1,1.9244041E1,2.3973863E0,7.254982E0,0E0,4.071724E0,0E0,0E0,0E0,0E0,0E0,0E0,0E0,0E0,0E0,0E0,0E0,0E0,0E0,0E0,0E0,0E0,0E0,0E0,0E0,0E0,0E0,0E0,0E0,0E0,0E0,0E0,0E0,0E0,0E0,0E0,0E0,0E0,0E0,0E0,0E0,0E0,0E0,0E0,0E0,0E0,0E0,0E0,0E0,0E0,0E0,0E0,0E0,0E0],"parents":[2147483647,0,0,1,1,2,2,3,3,4,4,5,5,6,6,7,7,8,8,9,9,10,10,11,11,12,12,13,13,14,14,15,15,16,16,17,17,18,18,19,19,20,20,21,21,22,22,24,24,25,25,26,26,27,27,28,28,29,29,30,30,31,31,32,32,33,33,35,35,36,36,37,37,38,38,40,40,41,41,42,42,43,43,44,44,46,46,47,47,49,49,50,50,51,51,52,52,54,54,55,55,56,56,57,57,58,58,60,60],"right_children":[2,4,6,8,10,12,14,16,18,20,22,24,26,28,30,32,34,36,38,40,42,44,46,-1,48,50,52,54,56,58,60,62,64,66,-1,68,70,72,74,-1,76,78,80,82,84,-1,86,88,-1,90,92,94,96,-1,98,100,102,104,106,-1,108,-1,-1,-1,-1,-1,-1,-1,-1,-1,-1,-1,-1,-1,-1,-1,-1,-1,-1,-1,-1,-1,-1,-1,-1,-1,-1,-1,-1,-1,-1,-1,-1,-1,-1,-1,-1,-1,-1,-1,-1,-1,-1,-1,-1,-1,-1,-1,-1],"split_conditions":[2.268E-1,6.41E-1,4.8E1,6.58E-1,8E0,5.0468994E1,2.745E-1,6.829E-1,1.23E2,1.2586111E0,4.39686E1,2.011E-1,4E1,1.5162E0,6.4E1,3.5857437E2,4.1E1,5E0,3.6332E0,2E0,5.738E-1,1.1E1,2.7313422E2,-2.9594507E-2,5.34634E1,4.385E-1,1.1545455E1,2.346E-1,3.639863E2,3.1523727E2,5.55997E1,1.714E-1,5.1E1,3.6E1,-5.8768425E-2,1.675E-1,8.918E-1,4.8971E0,4.14E2,-1.1204402E-2,7E0,8.566E-1,2.105E-1,1.42E2,1.11E2,-2.4095678E-3,4.50738E1,7.4E1,-3.130075E-2,4.5602E1,4.632E-1,4.3E1,1.7247E0,2.9998168E-2,2.627E-1,3.1345773E2,6.681E-1,6.1905243E1,3.2309244E2,-3.363488E-2,3.641481E2,3.0952688E-2,1.1627097E-2,1.5267992E-3,-1.9088041E-2,5.9012887E-3,-1.1976213E-2,-8.789947E-2,-7.729896E-4,-2.4498368E-2,-9.9434875E-2,-5.3361468E-2,3.5306375E-2,9.368965E-4,-3.9552916E-2,3.9877474E-2,1.0678961E-2,-5.726734E-2,4.433087E-3,1.0589182E-2,-5.476682E-2,-1.7191386E-3,-3.8385797E-2,3.2552076E-3,2.2494704E-2,4.8300873E-2,1.2774911E-2,2.9802388E-2,1.5654587E-3,-6.9711834E-2,7.2815535E-3,-4.132867E-3,-3.995779E-2,-4.588458E-2,-1.289381E-2,1.4483162E-2,-1.5298526E-2,-3.48987E-2,-2.2989034E-3,-1.6560711E-2,2.012829E-2,-4.8388723E-2,2.9291239E-2,6.6433526E-3,-4.143581E-2,3.898652E-2,5.887482E-3,3.54904E-2,1.3409924E-2],"split_indices":[13,7,9,15,10,5,13,11,0,5,4,1,9,15,9,5,0,9,15,0,1,10,5,0,4,1,6,13,5,5,5,13,0,0,0,1,15,11,0,0,0,15,11,0,0,0,4,0,0,4,1,9,15,0,13,5,7,5,5,0,5,0,0,0,0,0,0,0,0,0,0,0,0,0,0,0,0,0,0,0,0,0,0,0,0,0,0,0,0,0,0,0,0,0,0,0,0,0,0,0,0,0,0,0,0,0,0,0,0],"split_type":[0,0,0,0,0,0,0,0,0,0,0,0,0,0,0,0,0,0,0,0,0,0,0,0,0,0,0,0,0,0,0,0,0,0,0,0,0,0,0,0,0,0,0,0,0,0,0,0,0,0,0,0,0,0,0,0,0,0,0,0,0,0,0,0,0,0,0,0,0,0,0,0,0,0,0,0,0,0,0,0,0,0,0,0,0,0,0,0,0,0,0,0,0,0,0,0,0,0,0,0,0,0,0,0,0,0,0,0,0],"sum_hessian":[4.72E2,1.42E2,3.3E2,9.2E1,5E1,6.6E1,2.64E2,1.6E1,7.6E1,3.8E1,1.2E1,1.3E1,5.3E1,1.36E2,1.28E2,1.1E1,5E0,3.3E1,4.3E1,7E0,3.1E1,7E0,5E0,2E0,1.1E1,2.2E1,3.1E1,1.7E1,1.19E2,3E1,9.8E1,7E0,4E0,2E0,3E0,1E1,2.3E1,2.6E1,1.7E1,3E0,4E0,1.8E1,1.3E1,3E0,4E0,1E0,4E0,1E1,1E0,1.4E1,8E0,1.6E1,1.5E1,2E0,1.5E1,1.09E2,1E1,3E0,2.7E1,1E0,9.7E1,3E0,4E0,1E0,3E0,1E0,1E0,2E0,8E0,6E0,1.7E1,2.5E1,1E0,1.5E1,2E0,3E0,1E0,3E0,1.5E1,1E0,1.2E1,1E0,2E0,1E0,3E0,3E0,1E0,9E0,1E0,1.3E1,1E0,5E0,3E0,5E0,1.1E1,8E0,7E0,9E0,6E0,7E0,1.02E2,6E0,4E0,1E0,2E0,8E0,1.9E1,8.7E1,1E1],"tree_param":{"num_deleted":"0","num_feature":"16","num_nodes":"109","size_leaf_vector":"1"}},{"base_weights":[-7.31235E-2,-7.91104E-1,3.5084248E-1,-1.0336479E0,4.5607018E-1,-1.0462109E0,4.9583778E-1,-2.1845067E0,-7.9896194E-1,-3.5737697E-2,4.329779E-2,-1.1701514E0,3.6361862E-2,2.0494191E-1,8.0029905E-1,-2.5098388E0,1.0378766E0,4.1639533E-2,-1.0481362E0,4.4221413E-1,-1.0548148E0,-7.743597E-1,-1.9196717E0,-3.0021507E-1,4.969021E-1,4.6789724E-1,1.1958702E0,-2.7532978E0,3.098615E-2,2.5761793E-3,4.4128265E-2,1.0982571E0,-1.0881951E0,-1.5945394E0,-1.0421369E-1,8.2668924E-1,-2.4652941E-2,-1.8226995E0,1.7297938E-2,-4.63535E-2,-1.0139382E0,-6.401853E-2,-3.0815506E-3,7.486338E-1,-5.0331336E-1,2.4901634E-1,8.864046E-1,6.174508E-1,-1.0731161E0,1.2402852E0,-2.203544E-2,-2.330183E-2,-8.761432E-2,-1.6965466E-2,1.8359842E-2,-2.115589E-3,4.4811774E-2,-8.8804744E-2,-1.7174888E-2,-8.083117E-2,-3.652866E-2,4.8543354E-3,-3.8023084E-2,3.754453E-2,1.3735684E-2,-5.0932E-3,-6.580463E-2,7.174909E-3,-1.2347755E-2,-5.7122163E-2,-2.1915821E-2,2.7661964E-2,-9.582295E-3,-2.509019E-2,1.14233205E-2,1.6842293E-2,-1.9893374E-2,2.9949287E-2,-1.9200582E-2,1.0535453E-2,3.8990263E-2,-4.6616863E-2,2.5766469E-3,2.1462938E-2,4.0305264E-2],"categories":[],"categories_nodes":[],"categories_segments":[],"categories_sizes":[],"default_left":[0,0,0,0,0,0,0,0,0,0,0,0,0,0,0,0,0,0,0,0,0,0,0,0,0,0,0,0,0,0,0,0,0,0,0,0,0,0,0,0,0,0,0,0,0,0,0,0,0,0,0,0,0,0,0,0,0,0,0,0,0,0,0,0,0,0,0,0,0,0,0,0,0,0,0,0,0,0,0,0,0,0,0,0,0],"id":15,"left_children":[1,3,5,7,9,11,13,15,17,19,-1,21,-1,23,25,27,29,31,33,35,37,39,41,43,45,47,49,51,53,-1,-1,55,57,59,61,63,-1,65,-1,67,69,-1,-1,71,73,75,77,79,81,83,-1,-1,-1,-1,-1,-1,-1,-1,-1,-1,-1,-1,-1,-1,-1,-1,-1,-1,-1,-1,-1,-1,-1,-1,-1,-1,-1,-1,-1,-1,-1,-1,-1,-1,-1],"loss_changes":[1.4760683E2,5.4920425E1,6.230144E1,3.9038315E1,1.4616808E1,9.535151E0,2.436892E1,2.8813538E1,2.6644592E1,1.069492E1,0E0,6.8197937E0,0E0,2.1239637E1,1.7191406E1,1.431282E1,1.1105266E0,3.700921E1,5.0378532E1,7.96887E0,9.820124E0,3.4412928E0,3.2848244E0,1.1666827E1,8.565512E0,1.79474E1,6.1410294E0,4.670868E0,1.3858103E0,0E0,0E0,7.5007725E0,1.2785856E1,2.2421143E1,1.1654591E1,1.3071432E0,0E0,2.6920319E0,0E0,7.241286E-1,2.3931265E0,0E0,0E0,1.9616103E0,1.3567601E1,1.6614029E1,6.617449E0,1.2077789E1,4.0340385E0,2.2894592E0,0E0,0E0,0E0,0E0,0E0,0E0,0E0,0E0,0E0,0E0,0E0,0E0,0E0,0E0,0E0,0E0,0E0,0E0,0E0,0E0,0E0,0E0,0E0,0E0,0E0,0E0,0E0,0E0,0E0,0E0,0E0,0E0,0E0,0E0,0E0],"parents":[2147483647,0,0,1,1,2,2,3,3,4,4,5,5,6,6,7,7,8,8,9,9,11,11,13,13,14,14,15,15,16,16,17,17,18,18,19,19,20,20,21,21,22,22,23,23,24,24,25,25,26,26,27,27,28,28,31,31,32,32,33,33,34,34,35,35,37,37,39,39,40,40,43,43,44,44,45,45,46,46,47,47,48,48,49,49],"right_children":[2,4,6,8,10,12,14,16,18,20,-1,22,-1,24,26,28,30,32,34,36,38,40,42,44,46,48,50,52,54,-1,-1,56,58,60,62,64,-1,66,-1,68,70,-1,-1,72,74,76,78,80,82,84,-1,-1,-1,-1,-1,-1,-1,-1,-1,-1,-1,-1,-1,-1,-1,-1,-1,-1,-1,-1,-1,-1,-1,-1,-1,-1,-1,-1,-1,-1,-1,-1,-1,-1,-1],"split_conditions":[2.341E-1,9.231E-1,1.0894E0,1.389E-1,2.2189E0,9.133E-1,8.256E-1,3.44208E1,1.755E0,1.5535E0,4.329779E-2,2.925E-1,3.6361862E-2,6.9E1,2.32E2,3.4301E0,9E0,6E1,2E2,3.5941736E2,1.935E-1,3E1,1.5E2,2.1523E0,1.2789474E1,9.9E1,8.713E-1,4.649E-1,4E0,2.5761793E-3,4.4128265E-2,3.243E-1,9.0968254E1,5E0,3.6245068E2,1.8E1,-2.4652941E-2,9.241E-1,1.7297938E-2,2.71E-1,1.64794E1,-6.401853E-2,-3.0815506E-3,1.67E2,2.38E2,3.1005E0,6.96E2,2.9164E0,7E0,8.5289E0,-2.203544E-2,-2.330183E-2,-8.761432E-2,-1.6965466E-2,1.8359842E-2,-2.115589E-3,4.4811774E-2,-8.8804744E-2,-1.7174888E-2,-8.083117E-2,-3.652866E-2,4.8543354E-3,-3.8023084E-2,3.754453E-2,1.3735684E-2,-5.0932E-3,-6.580463E-2,7.174909E-3,-1.2347755E-2,-5.7122163E-2,-2.1915821E-2,2.7661964E-2,-9.582295E-3,-2.509019E-2,1.14233205E-2,1.6842293E-2,-1.9893374E-2,2.9949287E-2,-1.9200582E-2,1.0535453E-2,3.8990263E-2,-4.6616863E-2,2.5766469E-3,2.1462938E-2,4.0305264E-2],"split_indices":[13,2,15,13,11,7,2,15,11,15,0,13,0,9,0,11,0,9,0,5,13,9,0,11,6,9,7,15,0,0,0,7,5,10,5,9,0,2,0,13,14,0,0,0,0,15,0,15,10,14,0,0,0,0,0,0,0,0,0,0,0,0,0,0,0,0,0,0,0,0,0,0,0,0,0,0,0,0,0,0,0,0,0,0,0],"split_type":[0,0,0,0,0,0,0,0,0,0,0,0,0,0,0,0,0,0,0,0,0,0,0,0,0,0,0,0,0,0,0,0,0,0,0,0,0,0,0,0,0,0,0,0,0,0,0,0,0,0,0,0,0,0,0,0,0,0,0,0,0,0,0,0,0,0,0,0,0,0,0,0,0,0,0,0,0,0,0,0,0,0,0,0,0],"sum_hessian":[4.83E2,1.79E2,3.04E2,1.5E2,2.9E1,2.8E1,2.76E2,2.4E1,1.26E2,2E1,9E0,2.7E1,1E0,1.42E2,1.34E2,2.2E1,2E0,2.9E1,9.7E1,1.4E1,6E0,1.9E1,8E0,5.2E1,9E1,7.4E1,6E1,2E1,2E0,1E0,1E0,1.5E1,1.4E1,6.1E1,3.6E1,1.1E1,3E0,4E0,2E0,5E0,1.4E1,7E0,1E0,8E0,4.4E1,5.6E1,3.4E1,6.8E1,6E0,5.9E1,1E0,2E0,1.8E1,1E0,1E0,4E0,1.1E1,2E0,1.2E1,1.4E1,4.7E1,3E1,6E0,4E0,7E0,1E0,3E0,3E0,2E0,2E0,1.2E1,7E0,1E0,3.2E1,1.2E1,4.2E1,1.4E1,3.2E1,2E0,5E1,1.8E1,4E0,2E0,1.1E1,4.8E1],"tree_param":{"num_deleted":"0","num_feature":"16","num_nodes":"85","size_leaf_vector":"1"}},{"base_weights":[-3.913478E-2,-8.059796E-1,3.8960385E-1,-1.0381947E0,3.169428E-2,-5.695677E-1,6.05097E-1,-2.1343334E0,-7.023297E-1,3.8212147E-1,-8.313265E-1,8.581531E-1,-8.3084255E-1,2.5757456E-1,9.3109757E-1,-2.396319E0,1.0223083E0,-2.3023114E0,-5.399408E-1,8.497735E-2,3.656895E-2,2.8019142E-1,-1.8042899E0,1.2272232E0,-3.14161E-2,-1.2274034E0,-2.3411521E-1,6.3193643E-1,-7.401672E-2,8.183569E-1,4.9439885E-2,-1.471573E0,-3.0996604E0,2.537534E-3,4.346634E-2,3.8114357E-1,-3.123462E0,-9.026784E-1,5.9468072E-2,-2.824495E-1,8.60181E-1,3.2540902E-2,-1.1797063E-2,-9.815532E-2,-2.525519E-1,4.9955925E-1,1.3865179E0,-4.1717538E-1,-1.9017894E0,1.9642425E-1,-7.8215504E-1,6.8914795E-1,-3.7720412E-2,-1.5771148E0,1.3824296E-1,5.841946E-1,1.2466592E0,-5.6673218E-2,-1.0265691E-2,-1.6710984E-2,-9.724466E-2,2.9624268E-2,-1.2472808E-2,-1.1367768E-1,1.3069538E-2,-1.2893246E-2,-4.8108846E-2,-7.56461E-3,3.54499E-2,-2.7572457E-2,1.1684673E-2,7.180195E-3,2.7712936E-2,-1.6918281E-2,1.0224309E-2,1.7269491E-3,2.0753216E-2,4.548856E-2,1.10652065E-2,8.673773E-3,-2.52507E-2,-6.779564E-2,8.512702E-3,-8.973207E-3,1.779314E-2,-4.7793906E-2,-3.334372E-3,2.2907818E-2,-2.567345E-2,7.872086E-3,-6.702063E-2,-2.2587E-3,2.6002843E-2,-1.1755196E-2,1.9851726E-2,1.622415E-2,4.25058E-2],"categories":[],"categories_nodes":[],"categories_segments":[],"categories_sizes":[],"default_left":[0,0,0,0,0,0,0,0,0,0,0,0,0,0,0,0,0,0,0,0,0,0,0,0,0,0,0,0,0,0,0,0,0,0,0,0,0,0,0,0,0,0,0,0,0,0,0,0,0,0,0,0,0,0,0,0,0,0,0,0,0,0,0,0,0,0,0,0,0,0,0,0,0,0,0,0,0,0,0,0,0,0,0,0,0,0,0,0,0,0,0,0,0,0,0,0,0],"id":16,"left_children":[1,3,5,7,9,11,13,15,17,19,21,23,25,27,29,31,33,35,37,39,-1,41,43,45,-1,47,49,51,53,55,-1,57,59,-1,-1,61,63,65,67,69,71,-1,-1,-1,73,75,77,79,81,83,85,87,-1,89,91,93,95,-1,-1,-1,-1,-1,-1,-1,-1,-1,-1,-1,-1,-1,-1,-1,-1,-1,-1,-1,-1,-1,-1,-1,-1,-1,-1,-1,-1,-1,-1,-1,-1,-1,-1,-1,-1,-1,-1,-1,-1],"loss_changes":[1.5220853E2,3.232331E1,6.173303E1,4.6361084E1,1.1507428E1,2.1229511E1,2.7290253E1,2.7259613E1,2.499863E1,6.61032E0,1.2401676E1,7.6140413E0,1.0834663E1,1.4818855E1,8.754311E0,1.3650162E1,1.077461E0,2.1022179E1,2.0274494E1,6.224401E0,0E0,3.6771944E0,1.2837248E1,2.3465633E-1,0E0,1.4505997E1,4.8726892E0,6.919464E0,2.0637043E1,1.0303856E1,0E0,5.9553547E0,3.6036224E0,0E0,0E0,1.8601182E0,1.8238243E1,1.853674E1,1.28871765E1,6.774641E0,5.523348E-2,0E0,0E0,0E0,9.312677E-1,2.1505141E-1,2.3310184E-1,4.441046E0,1.237978E1,2.5362117E0,4.720478E0,6.9792385E0,0E0,1.0253342E1,8.932333E0,5.7833138E0,3.7989578E0,0E0,0E0,0E0,0E0,0E0,0E0,0E0,0E0,0E0,0E0,0E0,0E0,0E0,0E0,0E0,0E0,0E0,0E0,0E0,0E0,0E0,0E0,0E0,0E0,0E0,0E0,0E0,0E0,0E0,0E0,0E0,0E0,0E0,0E0,0E0,0E0,0E0,0E0,0E0,0E0],"parents":[2147483647,0,0,1,1,2,2,3,3,4,4,5,5,6,6,7,7,8,8,9,9,10,10,11,11,12,12,13,13,14,14,15,15,16,16,17,17,18,18,19,19,21,21,22,22,23,23,25,25,26,26,27,27,28,28,29,29,31,31,32,32,35,35,36,36,37,37,38,38,39,39,40,40,44,44,45,45,46,46,47,47,48,48,49,49,50,50,51,51,53,53,54,54,55,55,56,56],"right_children":[2,4,6,8,10,12,14,16,18,20,22,24,26,28,30,32,34,36,38,40,-1,42,44,46,-1,48,50,52,54,56,-1,58,60,-1,-1,62,64,66,68,70,72,-1,-1,-1,74,76,78,80,82,84,86,88,-1,90,92,94,96,-1,-1,-1,-1,-1,-1,-1,-1,-1,-1,-1,-1,-1,-1,-1,-1,-1,-1,-1,-1,-1,-1,-1,-1,-1,-1,-1,-1,-1,-1,-1,-1,-1,-1,-1,-1,-1,-1,-1,-1],"split_conditions":[2.33E-1,8.957E-1,4.8E1,1.667E-1,6.833E-1,1.3E1,2.745E-1,3.44208E1,5.55997E1,2.7538E0,3E0,9.248E-1,1.2285714E1,4.25015E1,1.09E2,2.0906E0,9E0,2.70108E1,1.1954545E1,2.9178E1,3.656895E-2,5.62884E1,6E0,2.28033E1,-3.14161E-2,2.772E-1,1.4714286E1,2.738E-1,4.30482E1,7.538E-1,4.9439885E-2,4.5602E1,4E0,2.537534E-3,4.346634E-2,1.2E1,3.655E-1,2.5318E0,7.778E-1,2.9038E0,3.553E-1,3.2540902E-2,-1.1797063E-2,-9.815532E-2,9.423E-1,7E0,5.0256E1,2.5773E0,3.141E0,6.706E-1,2.862E-1,9.31E-1,-3.7720412E-2,8.119E-1,1.3909091E1,3.1354285E2,2.889E-1,-5.6673218E-2,-1.0265691E-2,-1.6710984E-2,-9.724466E-2,2.9624268E-2,-1.2472808E-2,-1.1367768E-1,1.3069538E-2,-1.2893246E-2,-4.8108846E-2,-7.56461E-3,3.54499E-2,-2.7572457E-2,1.1684673E-2,7.180195E-3,2.7712936E-2,-1.6918281E-2,1.0224309E-2,1.7269491E-3,2.0753216E-2,4.548856E-2,1.10652065E-2,8.673773E-3,-2.52507E-2,-6.779564E-2,8.512702E-3,-8.973207E-3,1.779314E-2,-4.7793906E-2,-3.334372E-3,2.2907818E-2,-2.567345E-2,7.872086E-3,-6.702063E-2,-2.2587E-3,2.6002843E-2,-1.1755196E-2,1.9851726E-2,1.622415E-2,4.25058E-2],"split_indices":[13,2,9,13,1,0,13,15,5,11,0,7,6,4,9,11,0,3,6,14,0,3,0,3,0,13,6,13,4,7,0,4,0,0,0,0,1,11,2,12,11,0,0,0,2,0,3,12,15,7,1,2,0,2,6,5,13,0,0,0,0,0,0,0,0,0,0,0,0,0,0,0,0,0,0,0,0,0,0,0,0,0,0,0,0,0,0,0,0,0,0,0,0,0,0,0,0],"split_type":[0,0,0,0,0,0,0,0,0,0,0,0,0,0,0,0,0,0,0,0,0,0,0,0,0,0,0,0,0,0,0,0,0,0,0,0,0,0,0,0,0,0,0,0,0,0,0,0,0,0,0,0,0,0,0,0,0,0,0,0,0,0,0,0,0,0,0,0,0,0,0,0,0,0,0,0,0,0,0,0,0,0,0,0,0,0,0,0,0,0,0,0,0,0,0,0,0],"sum_hessian":[4.61E2,1.65E2,2.96E2,1.29E2,3.6E1,5.4E1,2.42E2,2.9E1,1E2,2.6E1,1E1,8E0,4.6E1,1.18E2,1.24E2,2.7E1,2E0,8E0,9.2E1,2E1,6E0,5E0,5E0,7E0,1E0,2.7E1,1.9E1,5.5E1,6.3E1,1.09E2,1.5E1,1.3E1,1.4E1,1E0,1E0,2E0,6E0,5.7E1,3.5E1,1.4E1,6E0,2E0,3E0,2E0,3E0,2E0,5E0,1.3E1,1.4E1,1.1E1,8E0,5.4E1,1E0,7E0,5.6E1,7.2E1,3.7E1,9E0,4E0,1E0,1.3E1,1E0,1E0,5E0,1E0,3.5E1,2.2E1,2.8E1,7E0,7E0,7E0,1E0,5E0,2E0,1E0,1E0,1E0,4E0,1E0,5E0,8E0,1.2E1,2E0,5E0,6E0,3E0,5E0,5.2E1,2E0,2E0,5E0,4.4E1,1.2E1,5E0,6.7E1,8E0,2.9E1],"tree_param":{"num_deleted":"0","num_feature":"16","num_nodes":"97","size_leaf_vector":"1"}},{"base_weights":[-2.3126185E-3,-7.858147E-1,4.2017156E-1,-1.3826059E0,-2.853185E-1,-6.3021255E-1,6.789246E-1,5.2860398E-2,-1.6844434E0,-5.719245E-1,3.4714705E-1,-7.490445E-1,8.5051394E-1,3.6474088E-1,9.564675E-1,-1.2155972E0,4.484924E-2,-8.548545E-1,-2.3424914E0,-8.661108E-1,4.2721224E-1,-1.4886506E-1,9.690746E-1,-9.058172E-1,1.8772316E-1,1.7010426E-3,3.1043751E-2,1.4450593E-1,9.2095995E-1,4.8378512E-1,1.0934343E0,-6.945821E-2,-9.273644E-2,7.0697314E-1,-1.7140782E0,-9.425947E-2,-1.6979501E0,-1.0805408E0,2.0697133E-1,9.780102E-1,-3.995954E-2,-1.2192643E0,5.4583126E-1,1.7561475E-2,3.6429822E-2,2.1398687E-1,-1.037931E0,8.5649836E-1,-4.30598E-2,6.4374554E-1,-4.0049884E-2,1.6220441E0,4.966886E-1,-7.795515E-1,8.8473964E-1,9.804089E-1,1.4719393E0,-1.1531631E-2,1.610803E-2,-1.3700943E-2,4.311512E-2,-5.5341784E-2,9.563806E-3,-1.7345715E-2,-7.027671E-2,-8.47057E-3,-4.590523E-2,2.6237173E-2,-4.2592652E-2,4.275863E-3,3.7220024E-2,-4.2257767E-2,-1.2494517E-3,-2.1461843E-2,2.7167762E-2,1.3364138E-2,-1.4151528E-2,-5.2955944E-2,-2.0280182E-2,9.688902E-3,3.015959E-2,3.3168294E-2,-2.5474146E-2,-1.8020479E-2,1.1913309E-2,5.1751688E-2,7.33366E-3,1.9148748E-2,-3.7154607E-2,-4.0640328E-2,4.0273224E-3,3.0535815E-2,-3.2655638E-2,3.806226E-2,2.3747323E-2,4.551813E-2,8.479557E-3],"categories":[],"categories_nodes":[],"categories_segments":[],"categories_sizes":[],"default_left":[0,0,0,0,0,0,0,0,0,0,0,0,0,0,0,0,0,0,0,0,0,0,0,0,0,0,0,0,0,0,0,0,0,0,0,0,0,0,0,0,0,0,0,0,0,0,0,0,0,0,0,0,0,0,0,0,0,0,0,0,0,0,0,0,0,0,0,0,0,0,0,0,0,0,0,0,0,0,0,0,0,0,0,0,0,0,0,0,0,0,0,0,0,0,0,0,0],"id":17,"left_children":[1,3,5,7,9,11,13,15,17,19,21,23,25,27,29,31,-1,33,35,37,39,41,43,45,47,-1,-1,49,51,53,55,-1,57,59,61,-1,63,65,67,69,-1,71,73,-1,-1,75,77,79,-1,81,83,85,87,89,91,93,95,-1,-1,-1,-1,-1,-1,-1,-1,-1,-1,-1,-1,-1,-1,-1,-1,-1,-1,-1,-1,-1,-1,-1,-1,-1,-1,-1,-1,-1,-1,-1,-1,-1,-1,-1,-1,-1,-1,-1,-1],"loss_changes":[1.5590828E2,4.8889656E1,8.359564E1,3.2584854E1,1.669397E1,1.1370485E1,2.1102211E1,2.7426937E1,3.1843872E1,1.888775E1,9.090286E0,8.541046E0,6.727359E-1,1.4199284E1,7.887459E0,9.663561E0,0E0,4.0128624E1,1.2185455E1,1.1498585E1,1.5837125E1,1.3306753E1,5.124731E-1,7.471237E0,1.0998455E1,0E0,0E0,7.8574753E0,9.010199E0,1.6392456E1,2.834961E0,0E0,1.1246126E0,1.0003161E1,5.634308E0,0E0,1.3803452E1,1.4282543E1,1.1015718E1,2.4565125E0,0E0,1.5020247E0,5.638992E0,0E0,0E0,1.1625161E0,1.0388229E1,2.3112774E-1,0E0,1.6797537E1,1.5678976E1,1.2812004E0,6.1960483E0,4.3862405E0,7.41234E0,3.3514023E0,7.033005E-1,0E0,0E0,0E0,0E0,0E0,0E0,0E0,0E0,0E0,0E0,0E0,0E0,0E0,0E0,0E0,0E0,0E0,0E0,0E0,0E0,0E0,0E0,0E0,0E0,0E0,0E0,0E0,0E0,0E0,0E0,0E0,0E0,0E0,0E0,0E0,0E0,0E0,0E0,0E0,0E0],"parents":[2147483647,0,0,1,1,2,2,3,3,4,4,5,5,6,6,7,7,8,8,9,9,10,10,11,11,12,12,13,13,14,14,15,15,17,17,18,18,19,19,20,20,21,21,22,22,23,23,24,24,27,27,28,28,29,29,30,30,32,32,33,33,34,34,36,36,37,37,38,38,39,39,41,41,42,42,45,45,46,46,47,47,49,49,50,50,51,51,52,52,53,53,54,54,55,55,56,56],"right_children":[2,4,6,8,10,12,14,16,18,20,22,24,26,28,30,32,-1,34,36,38,40,42,44,46,48,-1,-1,50,52,54,56,-1,58,60,62,-1,64,66,68,70,-1,72,74,-1,-1,76,78,80,-1,82,84,86,88,90,92,94,96,-1,-1,-1,-1,-1,-1,-1,-1,-1,-1,-1,-1,-1,-1,-1,-1,-1,-1,-1,-1,-1,-1,-1,-1,-1,-1,-1,-1,-1,-1,-1,-1,-1,-1,-1,-1,-1,-1,-1,-1],"split_conditions":[2.33E-1,3.1943857E2,4.9E1,3E0,8.398E-1,3.55E-1,2.745E-1,2E0,2.22E0,3.6332E0,1.979E-1,5.0202E0,2.28033E1,1.3538462E1,1.98E2,3.333E-1,4.484924E-2,1.755E0,1.613E-1,2.268E-1,3.6245068E2,3.59E-1,2.028E-1,2.437E-1,8.9254E0,1.7010426E-3,3.1043751E-2,3.047E-1,3.611E-1,1.51278E1,1.09E2,-6.945821E-2,2E0,1.613E-1,7.692E-1,-9.425947E-2,2.049E-1,3.534E-1,2.325E-1,1.875E-1,-3.995954E-2,1.77E2,4.6E0,1.7561475E-2,3.6429822E-2,1.18E2,3.0871823E2,4.1212E0,-4.30598E-2,3.4806E0,5.73253E1,8.882E-1,6.96E2,2.973E0,1.96E2,2.5E-1,6.08E2,-1.1531631E-2,1.610803E-2,-1.3700943E-2,4.311512E-2,-5.5341784E-2,9.563806E-3,-1.7345715E-2,-7.027671E-2,-8.47057E-3,-4.590523E-2,2.6237173E-2,-4.2592652E-2,4.275863E-3,3.7220024E-2,-4.2257767E-2,-1.2494517E-3,-2.1461843E-2,2.7167762E-2,1.3364138E-2,-1.4151528E-2,-5.2955944E-2,-2.0280182E-2,9.688902E-3,3.015959E-2,3.3168294E-2,-2.5474146E-2,-1.8020479E-2,1.1913309E-2,5.1751688E-2,7.33366E-3,1.9148748E-2,-3.7154607E-2,-4.0640328E-2,4.0273224E-3,3.0535815E-2,-3.2655638E-2,3.806226E-2,2.3747323E-2,4.551813E-2,8.479557E-3],"split_indices":[13,5,9,9,2,13,13,9,15,15,13,11,3,6,0,2,0,11,13,13,5,8,8,13,11,0,0,1,8,14,9,0,0,13,1,0,13,8,13,13,0,0,6,0,0,0,5,15,0,11,3,2,0,11,0,8,0,0,0,0,0,0,0,0,0,0,0,0,0,0,0,0,0,0,0,0,0,0,0,0,0,0,0,0,0,0,0,0,0,0,0,0,0,0,0,0,0],"split_type":[0,0,0,0,0,0,0,0,0,0,0,0,0,0,0,0,0,0,0,0,0,0,0,0,0,0,0,0,0,0,0,0,0,0,0,0,0,0,0,0,0,0,0,0,0,0,0,0,0,0,0,0,0,0,0,0,0,0,0,0,0,0,0,0,0,0,0,0,0,0,0,0,0,0,0,0,0,0,0,0,0,0,0,0,0,0,0,0,0,0,0,0,0,0,0,0,0],"sum_hessian":[4.69E2,1.64E2,3.05E2,7.4E1,9E1,6E1,2.45E2,1.3E1,6.1E1,6.2E1,2.8E1,5.6E1,4E0,1.16E2,1.29E2,7E0,6E0,2.8E1,3.3E1,4.8E1,1.4E1,1.6E1,1.2E1,4.8E1,8E0,1E0,3E0,8.4E1,3.2E1,3E1,9.9E1,3E0,4E0,1E1,1.8E1,1.3E1,2E1,4E1,8E0,1.1E1,3E0,6E0,1E1,6E0,6E0,5E0,4.3E1,6E0,2E0,2.2E1,6.2E1,1.1E1,2.1E1,7E0,2.3E1,7.9E1,2E1,3E0,1E0,4E0,6E0,1.7E1,1E0,8E0,1.2E1,1.5E1,2.5E1,6E0,2E0,3E0,8E0,5E0,1E0,2E0,8E0,4E0,1E0,1.3E1,3E1,2E0,4E0,1.7E1,5E0,2.7E1,3.5E1,1E1,1E0,2E1,1E0,4E0,3E0,2.2E1,1E0,2.9E1,5E1,1.9E1,1E0],"tree_param":{"num_deleted":"0","num_feature":"16","num_nodes":"97","size_leaf_vector":"1"}},{"base_weights":[2.6199695E-2,-6.509429E-1,4.3150812E-1,-1.5524703E0,-4.1019133E-1,-5.837575E-1,6.631155E-1,-1.9552758E0,-3.8601354E-1,-6.936369E-1,2.3510179E-1,1.6255936E-1,-8.541697E-1,3.0880743E-1,9.671503E-1,4.4423223E-1,-2.260986E0,6.975694E-1,-4.2157825E-2,1.0413842E0,-8.746866E-1,-4.692721E-2,4.4879955E-1,6.9093925E-1,-8.332303E-1,-1.312346E0,-2.3046446E-1,1.3181452E-1,9.164053E-1,-3.21658E-2,9.9072254E-1,-1.1849648E-2,2.5669055E-2,-3.3135166E0,-1.5707648E0,8.9295053E-1,-4.190047E-3,-1.1272166E-2,5.1071987E-2,-1.8570867E0,-5.760048E-1,-7.337552E-1,6.3342535E-1,9.6202624E-1,-3.0298961E-2,1.9989524E-2,-1.2664034E0,-5.1674145E-1,-1.843725E0,-5.228528E-1,2.3692608E-1,4.278886E-1,-4.5503494E-1,-3.6558867E-2,1.0505519E0,1.0276866E0,4.3196518E-2,-1.12809524E-1,3.9133574E-3,-3.2966092E-2,-8.4891185E-2,7.1585868E-3,2.9906351E-2,2.8680475E-2,-6.610558E-2,1.8565608E-2,-2.3361161E-2,-4.0055458E-2,9.381967E-3,6.697937E-3,3.396517E-2,1.6755294E-3,3.1695202E-2,-4.83278E-2,-1.4992366E-2,9.59769E-3,-3.121616E-2,-8.062265E-2,-3.7125118E-2,-2.186615E-2,-2.659558E-3,2.0366658E-2,-1.1242758E-2,-1.4246812E-3,2.0918045E-2,-3.6495913E-2,7.3091886E-3,1.2509979E-2,4.3353606E-2,1.1873494E-2,3.2175854E-2,9.300088E-3,-9.808326E-3],"categories":[],"categories_nodes":[],"categories_segments":[],"categories_sizes":[],"default_left":[0,0,0,0,0,0,0,0,0,0,0,0,0,0,0,0,0,0,0,0,0,0,0,0,0,0,0,0,0,0,0,0,0,0,0,0,0,0,0,0,0,0,0,0,0,0,0,0,0,0,0,0,0,0,0,0,0,0,0,0,0,0,0,0,0,0,0,0,0,0,0,0,0,0,0,0,0,0,0,0,0,0,0,0,0,0,0,0,0,0,0,0,0],"id":18,"left_children":[1,3,5,7,9,11,13,15,17,19,21,23,25,27,29,31,33,35,-1,37,39,-1,41,43,45,47,49,51,53,-1,55,-1,-1,57,59,61,-1,-1,-1,63,65,67,69,71,-1,-1,73,75,77,79,81,83,85,-1,87,89,91,-1,-1,-1,-1,-1,-1,-1,-1,-1,-1,-1,-1,-1,-1,-1,-1,-1,-1,-1,-1,-1,-1,-1,-1,-1,-1,-1,-1,-1,-1,-1,-1,-1,-1,-1,-1],"loss_changes":[1.3338992E2,3.8865227E1,7.187058E1,1.7099731E1,2.6684368E1,1.1642206E1,2.6416397E1,2.1543922E1,1.3129097E1,3.2637512E1,1.8005224E1,8.994195E0,1.1699762E1,1.2353903E1,7.4558105E0,1.718997E0,1.2957214E1,1.1061995E0,0E0,1.000706E1,2.5925407E1,0E0,9.416313E0,6.043638E0,4.7412095E0,9.193695E0,2.7204084E0,1.6006039E1,8.726826E0,0E0,4.5788116E0,0E0,0E0,1.4339401E1,6.9900246E0,1.021409E-1,0E0,0E0,0E0,2.2572166E1,1.7920197E1,4.193867E0,7.111618E0,7.9715157E-1,0E0,0E0,5.15604E-1,5.1535606E0,3.834835E0,1.0088267E0,2.4171531E0,7.844598E0,1.6789558E1,0E0,5.646881E0,3.1741638E0,6.9388914E-1,0E0,0E0,0E0,0E0,0E0,0E0,0E0,0E0,0E0,0E0,0E0,0E0,0E0,0E0,0E0,0E0,0E0,0E0,0E0,0E0,0E0,0E0,0E0,0E0,0E0,0E0,0E0,0E0,0E0,0E0,0E0,0E0,0E0,0E0,0E0,0E0],"parents":[2147483647,