tree
version=v4
num_class=1
num_tree_per_iteration=1
label_index=0
max_feature_idx=25
objective=regression
feature_names=pct_correct_mean pct_correct_std pct_correct_max assignment_id_count unique_problems unique_assignments problem_solving_efficiency score_consistency is_improving_mean excellence_ratio coding_maturity attempt_per_problem_mean rolling_avg_score_mean relative_performance_mean good_study_timing submit_hour_mean code_run_mean is_scored_mean avg_success_per_problem submissions_per_day active_days is_excellent_mean is_zero_score_mean late_coef_mean wrong_test_cases_mean grading_delay_mean
feature_infos=[0:100] [0:70.710678118654755] none [1:833] [1:131] [1:23] [0:50] [0.014140135906533667:100] [0:0.5] [0:0.93333333333333335] [0.39361324365306638:37.799999999999997] [1:16.411522633744855] [0:100] [-61.191716417910449:49.172413793103445] [0:1] [1:17.044585987261147] [0:1] [0.076923076923076927:1] [0:100] [1:39] none [0:1] [0:1] [81.412639405204459:100] [0:23.5] [-1186736.1136363635:149225.07216494845]
tree_sizes=1614 1708 1629 1706 1625 1544 1709 1792 1627 1631 1548 1629 1636 1723 1633 1633 1726 1476 1631 1646 1634 1635 1800 1802 1720 1716 1633 1718 1805 1645 1721 1554 1555 1645 1806 1739 1729 1648 1726 1641 1563 1816 1723 1559 1815 1730 1659 1567 1740 1742 1736 1728 1639 1656 1738 1655 1655 1817 1738 1654 1897 1811 1744 1833 1738 1669 1652 1830 1733 1737 1748 1658 1572 1742 1732 1654 1655 1826

Tree=0
num_leaves=19
num_cat=0
split_feature=8 4 21 18 15 5 15 3 9 19 3 15 13 9 4 4 8 4
split_gain=273.147 141.676 101.401 48.2306 42.5505 36.9056 32.9552 25.1165 25.4751 22.5394 20.4706 20.126 19.5455 13.9142 8.04916 4.9 1.18751 0.625
threshold=0.23903424393997694 48.500000000000007 0.61246047714860608 92.29355870142102 9.7531250000000025 4.5000000000000009 8.0669856459330163 281.50000000000006 0.66858775974231055 9.3574193548387115 245.00000000000003 10.668718166383703 5.5005472857456787 0.67646090663991487 62.500000000000007 40.500000000000007 0.29421601416486337 104.50000000000001
decision_type=2 2 2 2 2 2 2 2 2 2 2 2 2 2 2 2 2 2
left_child=2 6 5 12 7 -1 -2 8 -3 -5 -6 15 -4 -12 -10 -7 -16 -9
right_child=1 4 3 9 10 11 -8 17 14 -11 13 -13 -14 -15 16 -17 -18 -19
leaf_value=7.1470307338064218 7.2739329041687419 7.2802038070105759 7.2663242086785367 7.1866140635504676 7.2634158651211767 7.2145307297292982 7.195468230264809 7.3632807290587463 7.31399501557663 7.2607807303625975 7.2869014197120396 7.1741140634972487 7.3330426343404174 7.3363164438819668 7.3437569198418293 7.2495307307723795 7.3607807289469873 7.3757807292450108
leaf_weight=36 23 26 23 21 37 20 32 20 21 20 29 24 21 28 21 20 20 20
leaf_count=36 23 26 23 21 37 20 32 20 21 20 29 24 21 28 21 20 20 20
internal_value=7.26661 7.30012 7.22166 7.26181 7.31792 7.18753 7.22828 7.33668 7.32175 7.22279 7.29238 7.21031 7.29817 7.31118 7.33917 7.23203 7.35206 7.36953
internal_weight=0 277 185 85 222 100 55 128 88 41 94 64 44 57 62 40 41 40
internal_count=462 277 185 85 222 100 55 128 88 41 94 64 44 57 62 40 41 40
is_linear=0
shrinkage=1


Tree=1
num_leaves=19
num_cat=0
split_feature=21 3 18 8 16 8 16 8 3 13 6 24 1 13 1 25 8 3
split_gain=246.598 110.601 92.4346 50.6255 38.6794 40.9315 34.1153 33.5646 24.4327 16.9012 18.2705 16.8432 12.7021 17.4249 10.4639 8.39065 5.07139 3.06887
threshold=0.64371084027122139 201.50000000000003 92.29355870142102 0.22886904761904764 0.84301809301809316 0.16744548286604363 0.79931961081279557 0.24222777061855674 275.00000000000006 -4.4263619860631147 9.1660730272870143 1.8132020249960452 43.729165728208379 7.021397263752891 41.488366663622692 5095.3176190476197 0.27416208791208801 178.50000000000003
decision_type=2 2 2 2 2 2 2 2 2 2 2 2 10 2 10 2 2 2
left_child=1 4 6 -4 5 -1 -2 -3 12 10 -7 -5 13 14 -8 -10 -9 -15
right_child=2 7 3 11 -6 9 8 16 15 -11 -12 -13 -14 17 -16 -17 -18 -19
leaf_value=-0.14464800999216412 0.0012794268285406048 -0.0301842379073302 -0.064270981152852388 0.053642934933304791 -0.014389085866834806 -0.056478013940479445 0.03973544999247506 0.018817235564901717 0.10204114948000227 -0.035804096867258738 -0.12182117886841298 -0.0068959461042174585 0.081341220509438289 0.04583393477580764 -0.01017863970427286 0.061443578191101557 0.053997645713388921 0.071687549973527595
leaf_weight=23 29 36 30 20 23 23 21 21 35 26 20 27 21 22 21 20 20 24
leaf_count=23 29 36 30 20 23 23 21 21 35 26 20 27 21 22 21 20 20 24
internal_value=0 -0.0413317 0.0327913 -0.0135255 -0.0723842 -0.0868829 0.0512701 0.00504522 0.0601099 -0.0676279 -0.0868702 0.0188653 0.046401 0.038063 0.0147784 0.0872784 0.0359784 0.0593228
internal_weight=0 192 270 77 115 92 193 77 164 69 43 47 109 88 42 55 41 46
internal_count=462 192 270 77 115 92 193 77 164 69 43 47 109 88 42 55 41 46
is_linear=0
shrinkage=0.05


Tree=2
num_leaves=18
num_cat=0
split_feature=8 4 16 18 8 15 15 14 13 19 3 21 3 16 4 8 1
split_gain=223.883 120.195 92.1885 57.1802 50.5737 37.4483 29.1457 28.8326 21.6472 21.2641 20.6396 21.2196 17.5528 21.7215 6.82157 1.14996 0.658243
threshold=0.23903424393997694 48.500000000000007 0.84572885677858067 92.216422413793126 0.16744548286604363 9.7531250000000025 10.585470764882531 0.18009009009009011 -5.715225170547229 12.11513157894737 281.50000000000006 0.67150994145878395 245.00000000000003 0.82170905011219164 62.500000000000007 0.29421601416486337 42.100314596962981
decision_type=2 2 2 2 2 2 2 2 2 2 2 2 2 2 2 2 10
left_child=2 7 4 -4 -1 10 9 -2 -8 -6 11 -3 -7 -14 -13 -16 -12
right_child=1 5 3 -5 6 12 8 -9 -10 -11 16 14 13 -15 15 -17 -18
leaf_value=-0.12721610607695766 0.005305374755213658 0.012873504998592231 0.064204602550577236 -0.033909077806906267 -0.053538466317038381 -0.0040546194524378387 -0.11811093246564269 -0.067691982561542144 -0.046237333931706176 0.0077760694118646475 0.087690610140562064 0.043513879818575726 0.012888761633075774 0.075091208577156066 0.070385371787207468 0.087137806117534633 0.10051873810589314
leaf_weight=26 24 26 27 33 31 37 20 31 22 26 20 21 32 25 21 20 20
leaf_count=26 24 26 27 33 31 37 20 31 22 26 20 21 32 25 21 20 20
internal_value=0 0.0303325 -0.040703 0.0102421 -0.0651566 0.0467263 -0.0488581 -0.0358386 -0.0804629 -0.0255704 0.0643245 0.0507881 0.0227628 0.0401705 0.0666877 0.0785573 0.0941047
internal_weight=0 277 185 60 125 222 99 55 42 57 128 88 94 57 62 41 40
internal_count=462 277 185 60 125 222 99 55 42 57 128 88 94 57 62 41 40
is_linear=0
shrinkage=0.05


Tree=3
num_leaves=19
num_cat=0
split_feature=21 3 18 15 8 3 16 8 8 13 24 13 6 6 3 17 1 8
split_gain=202.951 93.7424 75.6493 48.3618 42.5533 34.5962 33.4218 32.5142 27.3123 17.3152 15.1441 14.3917 16.7731 14.1377 10.0634 9.03738 7.68637 4.49178
threshold=0.64371084027122139 201.50000000000003 92.29355870142102 8.70622807017544 0.22886904761904764 229.50000000000003 0.84301809301809316 0.16744548286604363 0.24222777061855674 6.2348357666198977 1.8132020249960452 -4.4263619860631147 9.1660730272870143 11.798029803047196 275.00000000000006 0.40751879699248122 41.335743117855095 0.27416208791208801
decision_type=2 2 2 2 2 2 2 2 2 2 2 2 2 2 2 2 10 2
left_child=1 6 3 14 -4 9 7 -1 -3 -5 -6 12 -9 -7 15 16 -2 -10
right_child=2 8 4 5 10 13 -8 11 17 -11 -12 -13 -14 -15 -16 -17 -18 -19
leaf_value=-0.13105479989038862 0.072034149803221231 -0.026588187615076704 -0.058686436402300993 -0.034575847370756994 0.050511059314012535 0.03118086139092574 -0.01218370340116646 -0.051045489542720257 0.016944115183183128 0.026805328130722048 -0.0068930946842387878 -0.033043016235415751 -0.11365389138460161 0.083358017797581854 0.10199290112308834 0.08806247022002936 0.029206037572161721 0.050053136385977276
leaf_weight=23 20 36 30 27 20 37 23 23 21 20 27 26 20 20 23 24 22 20
leaf_count=23 20 36 30 27 20 37 23 23 21 20 27 26 20 20 23 24 22 20
internal_value=0 -0.0375053 0.0297388 0.0464558 -0.0121621 0.023302 -0.0660933 -0.0795707 0.0051911 -0.0084562 0.0175342 -0.0624093 -0.0801657 0.0494886 0.0735118 0.0635866 0.0496004 0.0330949
internal_weight=0 192 270 193 77 104 115 92 77 47 47 69 43 57 89 66 42 41
internal_count=462 192 270 193 77 104 115 92 77 47 47 69 43 57 89 66 42 41
is_linear=0
shrinkage=0.05


Tree=4
num_leaves=18
num_cat=0
split_feature=21 18 4 5 4 15 15 24 17 19 5 16 4 6 5 18 6
split_gain=183.712 82.1211 60.9724 51.8061 41.4663 41.3815 25.9732 30.1532 51.1221 24.5892 22.458 37.8893 18.2701 7.6272 7.1116 3.94283 6.04323
threshold=0.60801587301587312 95.301812525499813 47.500000000000007 4.5000000000000009 72.500000000000014 9.7531250000000025 7.3663996948893979 2.1614206981016539 0.31049960967993762 7.7371794871794881 7.5000000000000009 0.84021276595744687 81.500000000000014 5.4552082355965394 5.5000000000000009 87.988159859571994 13.544224736113662
decision_type=2 2 2 2 2 2 2 2 2 2 2 2 2 2 2 2 2
left_child=4 2 3 -2 6 9 -1 -8 13 -4 11 -7 -12 -9 -11 -16 -17
right_child=1 -3 5 -5 -6 10 7 8 -10 14 12 -13 -14 -15 15 16 -18
leaf_value=-0.015167931882807843 0.041837640981311389 -0.060136642434668763 0.013172688934466112 -0.055916098561702356 0.0039616345482714034 -0.05988940693438053 -0.018245603516697885 -0.031326401308178903 -0.14305029603867578 0.049565883485540273 0.0018056478883538927 0.035198764841664919 0.061121825424625603 -0.074470340637933646 0.089461058103724539 0.049042679945176304 0.086541530560879487
leaf_weight=26 23 27 23 33 34 20 20 20 26 31 21 22 34 21 38 22 21
leaf_count=26 23 27 23 33 34 20 20 20 26 31 21 22 34 21 38 22 21
internal_value=0 0.0232423 0.0310591 -0.0157672 -0.044451 0.042362 -0.0590176 -0.0721221 -0.0882047 0.0602618 0.01745 -0.0100813 0.0384738 -0.0534245 0.0699319 0.0777263 0.0673561
internal_weight=0 315 288 56 147 232 113 87 67 135 97 42 55 41 112 81 43
internal_count=462 315 288 56 147 232 113 87 67 135 97 42 55 41 112 81 43
is_linear=0
shrinkage=0.05


Tree=5
num_leaves=17
num_cat=0
split_feature=8 4 16 15 4 19 15 24 9 24 10 10 17 1 4 5
split_gain=235.194 94.7682 90.3295 66.8329 58.6008 39.5199 39.0428 35.8589 19.8274 14.0906 13.3574 18.1454 10.1721 4.36218 4.31693 3.07849
threshold=0.23514705882352943 48.500000000000007 0.89781258531258545 11.270209339774558 74.500000000000014 7.1307692307692321 9.7531250000000025 2.4949308755760371 0.66690578670492595 3.1596460176991155 3.9491411614994427 3.297260501232893 0.28686770998182998 39.570868922131773 62.500000000000007 10.500000000000002
decision_type=2 2 2 2 2 2 2 2 2 2 10 10 2 10 2 2
left_child=2 9 3 4 5 -1 8 -7 -3 -2 11 12 -8 -10 -15 -16
right_child=1 6 -4 -5 -6 7 10 -9 13 -11 -12 -13 -14 14 15 -17
leaf_value=-0.12747080278183734 -0.06270849456389746 0.026561875641345978 0.024198809749371299 -0.1312285831920674 0.01239960590647834 -0.010388859259265085 0.02944851259848005 -0.087739523371745801 0.091803359687328334 -0.009580023901966904 -0.012371941226033065 0.063447759472406828 -0.012680732879949653 0.045629927366971967 0.082414847431760849 0.058268491940742184
leaf_weight=21 24 34 37 29 31 31 38 29 20 26 26 26 23 20 33 22
leaf_count=21 24 34 37 29 31 31 38 29 20 26 26 26 23 20 33 22
internal_value=0 0.0275844 -0.045333 -0.0635789 -0.0460625 -0.0684369 0.0405319 -0.047775 0.0593284 -0.0350817 0.019074 0.0284716 0.0135637 0.0710554 0.0655226 0.0727563
internal_weight=0 292 178 141 112 81 242 60 129 50 113 87 61 95 75 55
internal_count=470 292 178 141 112 81 242 60 129 50 113 87 61 95 75 55
is_linear=0
shrinkage=0.05


Tree=6
num_leaves=19
num_cat=0
split_feature=8 4 16 3 15 24 15 3 3 22 16 14 25 5 1 1 17 3
split_gain=212.263 85.5283 81.5224 61.6566 46.4899 44.7794 35.2361 31.2761 20.8862 17.8943 13.8568 13.1253 12.995 11.3722 4.3652 3.93686 4.08038 4.20315
threshold=0.23514705882352943 48.500000000000007 0.89781258531258545 96.500000000000014 10.585470764882531 2.5149613899613903 9.7531250000000025 169.00000000000003 231.50000000000003 0.33121343255412661 0.82170905011219164 0.18009009009009011 6531.755500846285 6.5000000000000009 43.088042768276814 39.570868922131773 0.41807528409090916 259.50000000000006
decision_type=2 2 2 2 2 2 2 2 2 2 2 2 2 2 10 10 2 2
left_child=2 11 3 5 7 -1 9 -5 13 15 14 -2 -6 -8 -10 -3 17 -17
right_child=1 6 -4 4 12 -7 8 -9 10 -11 -12 -13 -14 -15 -16 16 -18 -19
leaf_value=-0.063297527684615204 -0.0019524541869759559 0.087213189601898194 0.022988869290094121 -0.046880623212327131 -0.10294142794750988 -0.16146365503470106 -0.034218225831335242 0.032463679448873912 0.0019515342841094189 0.025233781030949427 0.063232022282426012 -0.054244373497397948 -0.048539995175340904 0.016620726951143958 0.034226829297840593 0.042126052068739102 0.081586445788852879 0.069811584141391977
leaf_weight=26 20 20 37 23 21 21 22 27 22 34 27 30 23 22 20 29 20 26
leaf_count=26 20 20 37 23 21 21 22 27 22 34 27 30 23 22 20 29 20 26
internal_value=0 0.0262052 -0.0430663 -0.0604 -0.0370205 -0.107159 0.0385053 -0.0040347 0.0181203 0.056362 0.035286 -0.0333276 -0.0745043 -0.00879875 0.0173207 0.0675026 0.0622465 0.0552138
internal_weight=0 292 178 141 94 47 242 50 113 129 69 50 44 44 42 95 75 55
internal_count=470 292 178 141 94 47 242 50 113 129 69 50 44 44 42 95 75 55
is_linear=0
shrinkage=0.05


Tree=7
num_leaves=20
num_cat=0
split_feature=8 4 9 15 24 15 3 12 8 9 14 24 6 5 1 17 4 4 15
split_gain=191.567 77.1893 58.5276 49.1437 33.2045 31.8006 18.8498 18.0925 28.5241 16.2306 15.9262 12.759 11.0894 10.2634 4.31276 4.2475 4.74945 2.89993 1.3128
threshold=0.23514705882352943 48.500000000000007 0.461659543927185 10.539182111200647 2.5410126283488732 9.7531250000000025 231.50000000000003 48.622151506952655 0.19915611814345993 0.64589854890994347 0.41768002717391312 3.1596460176991155 11.702308434221147 6.5000000000000009 39.445689771670942 0.41807528409090916 65.500000000000014 87.500000000000014 7.9367024334163645
decision_type=2 2 2 2 2 2 2 2 2 2 2 2 2 2 10 2 2 2 2
left_child=2 11 4 7 -1 9 13 -4 -9 -3 -5 -2 17 -7 -11 16 -16 -8 -18
right_child=1 5 3 10 -6 6 12 8 -10 14 -12 -13 -14 -15 15 -17 18 -19 -20
leaf_value=-0.043060789048671722 -0.057950266326467194 0.018243933282792568 0.043425214812159545 -0.094608652015172309 -0.1223395963864667 -0.032507314262065018 0.035362662412226201 -0.059956500791013251 0.014156984447224722 0.083297236338257793 -0.036551532411464936 -0.0073944173180139992 0.064896608367562295 0.015789690376682718 0.032317868851929568 0.077507120505906649 0.070283565707504755 0.010614234877043757 0.052384246601944878
leaf_weight=25 24 26 20 21 28 22 20 20 37 20 27 26 20 22 22 20 20 29 21
leaf_count=25 24 26 20 21 28 22 20 20 37 20 27 26 20 22 22 20 20 29 21
internal_value=0 0.0248949 -0.040913 -0.0222439 -0.0849439 0.0365801 0.0172143 0.00250887 -0.0118477 0.0535439 -0.0619515 -0.0316612 0.0335217 -0.00835881 0.0624546 0.0574322 0.0510593 0.0207156 0.0611156
internal_weight=0 292 178 125 53 242 113 77 57 129 48 50 69 44 103 83 63 49 41
internal_count=470 292 178 125 53 242 113 77 57 129 48 50 69 44 103 83 63 49 41
is_linear=0
shrinkage=0.05


Tree=8
num_leaves=18
num_cat=0
split_feature=8 16 4 3 24 14 8 9 14 14 9 3 25 16 4 14 1
split_gain=172.89 71.6861 69.6633 53.6995 37.9314 33.8032 28.5524 16.4836 11.9862 11.4799 16.6961 15.0817 8.59501 7.2516 6.59377 12.3514 4.3713
threshold=0.23514705882352943 0.89781258531258545 48.500000000000007 96.500000000000014 2.5149613899613903 0.34505672251685288 0.2748094871136228 0.61870255348516234 0.18696005595568918 0.41244605950488306 0.66858775974231055 227.00000000000003 6531.755500846285 0.7517515854557012 99.500000000000014 0.25369202030170596 41.409614867189589
decision_type=2 2 2 2 2 2 2 2 2 2 2 2 2 2 2 2 10
left_child=1 3 8 4 -1 7 9 -5 -2 10 13 -12 -7 -4 15 16 -8
right_child=2 -3 6 5 -6 12 14 -9 -10 -11 11 -13 -14 -15 -16 -17 -18
leaf_value=-0.058390706720260477 -0.00130980507958503 0.023074769571020799 0.025036071091890336 -0.033146048003229601 -0.14873942775385721 -0.091318099275231365 0.076543825155212769 0.022255751311779023 -0.050910424325486717 -0.012712696544826031 0.017108465999364855 0.071499014172989581 -0.044963469579815868 -0.01572940613453587 0.07087370410110011 0.019227947775394688 0.047982475219445458
leaf_weight=26 21 37 20 29 21 20 21 25 29 25 25 26 20 24 33 31 37
leaf_count=26 21 37 20 29 21 20 21 25 29 25 25 26 20 24 33 31 37
internal_value=0 -0.0388674 0.0236502 -0.0551217 -0.0987593 -0.0333029 0.0347511 -0.00749707 -0.0300782 0.017434 0.0253674 0.044837 -0.0681408 0.00280036 0.0517842 0.044706 0.0583237
internal_weight=0 178 292 141 47 94 242 54 50 120 95 51 40 44 122 89 58
internal_count=470 178 292 141 47 94 242 54 50 120 95 51 40 44 122 89 58
is_linear=0
shrinkage=0.05


Tree=9
num_leaves=18
num_cat=0
split_feature=8 16 4 15 8 15 5 24 3 9 24 16 5 7 17 3 19
split_gain=156.033 64.6967 62.8711 52.9031 46.8028 26.3748 22.93 27.0968 16.2762 13.5484 11.6029 11.1971 9.17199 3.67916 3.13677 4.5423 1.84801
threshold=0.23514705882352943 0.89781258531258545 48.500000000000007 11.270209339774558 0.16990170461615031 9.7531250000000025 8.5000000000000018 2.2347605410519322 231.50000000000003 0.66690578670492595 3.1596460176991155 0.82170905011219164 6.5000000000000009 0.02322295757174668 0.41807528409090916 203.50000000000003 10.142424242424244
decision_type=2 2 2 2 2 2 2 2 2 2 2 2 2 10 2 2 2
left_child=1 3 10 4 -1 9 7 -6 12 -4 -2 13 -7 -10 15 -11 -17
right_child=2 -3 5 -5 6 8 -8 -9 11 14 -12 -13 -14 -15 -16 16 -18
leaf_value=-0.089027869316839411 -0.053643913784374803 0.021921031257590734 0.021376800394671807 -0.11255377493156443 0.012841866351664066 -0.031214663928205318 0.024212348718234959 -0.059393556244872719 0.029901868933811783 0.032865271400660277 -0.0054330332706180907 0.055651573036555893 0.014442122642966834 0.00027112520553848959 0.074706440960819076 0.050567298855942994 0.069323961102756959
leaf_weight=31 24 37 34 29 20 22 24 37 20 20 26 27 22 22 22 24 29
leaf_count=31 24 37 34 29 20 22 24 37 20 20 26 27 22 22 22 24 29
internal_value=0 -0.036924 0.0224677 -0.0523656 -0.0367812 0.0330135 -0.0167855 -0.0340478 0.015377 0.0484625 -0.0285743 0.0305304 -0.00838627 0.014381 0.0581564 0.0531687 0.0608304
internal_weight=0 178 292 141 112 242 81 57 113 129 50 69 44 42 95 73 53
internal_count=470 178 292 141 112 242 81 57 113 129 50 69 44 42 95 73 53
is_linear=0
shrinkage=0.05


Tree=10
num_leaves=17
num_cat=0
split_feature=8 4 16 15 3 18 24 16 14 14 4 9 4 11 15 17
split_gain=163.16 72.4059 56.3486 42.0335 29.4243 26.5182 48.0776 25.6948 21.9439 19.4983 15.3564 9.02247 8.58483 6.79924 6.53654 6.31109
threshold=0.23252556836688168 48.500000000000007 0.61309523809523825 11.187723926780015 228.50000000000003 91.083185786435806 2.1818051803591296 0.79358009035428401 0.18696005595568918 0.28171005167202895 108.50000000000001 0.61314465595287526 77.500000000000014 2.9039004780530209 10.088682047560381 0.41699475065616803
decision_type=2 2 2 2 2 2 2 2 2 2 2 2 2 2 2 2
left_child=2 8 -1 5 9 7 13 -4 -2 15 11 -6 -13 -7 -14 -3
right_child=1 4 3 -5 10 6 -8 -9 -10 -11 -12 12 14 -15 -16 -17
leaf_value=-0.11283792652513669 0.00070084190272070744 0.014854362750282655 -0.021363731947812169 -0.073706587015961611 0.015562862585134367 -0.017711491244179863 -0.081960775523350168 0.055054343923587691 -0.062474486344893068 -0.019574329118643489 0.07685118852964333 0.067634816045562429 0.04835136195437776 0.023023499511182308 0.014664344241221747 0.047877761915973996
leaf_weight=23 27 39 22 39 34 21 29 22 28 35 31 30 36 20 24 23
leaf_count=23 27 39 22 39 34 21 29 22 28 35 31 30 36 20 24 23
internal_value=0 0.0205153 -0.0398691 -0.0289 0.0318594 -0.0135714 -0.0326905 0.0168453 -0.0314611 0.0102619 0.0453752 0.0375063 0.045796 0.00215924 0.0348766 0.027105
internal_weight=0 307 176 153 252 114 70 44 55 97 155 124 90 41 60 62
internal_count=483 307 176 153 252 114 70 44 55 97 155 124 90 41 60 62
is_linear=0
shrinkage=0.05


Tree=11
num_leaves=18
num_cat=0
split_feature=3 16 5 14 1 8 9 11 22 8 25 11 12 15 15 25 25
split_gain=149.312 93.1454 34.9945 41.8489 27.5827 34.6914 26.3474 25.1495 23.046 21.0492 9.60364 9.1002 7.51591 7.13567 3.76171 3.49674 1.59092
threshold=243.50000000000003 0.6538799093103197 7.5000000000000009 0.19386892177589857 39.570868922131773 0.22668331185567012 0.75227743271221537 3.1806949806949811 0.28363501640732514 0.24264069264069268 9499.8838841851812 3.0770212272358202 52.623044201733229 10.287714929039304 10.919120744860129 6615.2226461185846 -102418.36485937498
decision_type=2 2 2 2 8 2 2 2 2 2 2 2 2 2 2 2 2
left_child=1 -1 3 4 -3 -6 7 -5 10 -2 -4 -7 -10 15 -15 16 -11
right_child=9 2 8 6 5 11 -8 -9 12 13 -12 -13 -14 14 -16 -17 -18
leaf_value=-0.099957980872953656 0.0013179148821269764 0.04975338650734297 0.061697707292826282 -0.10153669828713614 -0.062885048359632489 0.033517632972110405 -0.013961574300709698 -0.036758305679165548 0.012118060053104446 0.051359541312029411 0.014323362801223994 -0.011002604570239783 -0.027452321696494308 0.016433668944984676 0.044452476242314215 0.041051116284815538 0.06882596828509123
leaf_weight=34 34 21 23 29 25 22 36 31 21 22 20 24 28 25 23 33 32
leaf_count=34 34 21 23 29 25 22 36 31 21 22 20 24 28 25 23 33 32
internal_value=0 -0.0218086 -0.0123191 -0.0246844 -0.000586736 -0.0154761 -0.047778 -0.0680679 0.0129492 0.0364798 0.0396631 0.0102897 -0.0104936 0.0453354 0.0298593 0.0538739 0.06171
internal_weight=0 314 280 188 92 71 96 60 92 169 43 46 49 135 48 87 54
internal_count=483 314 280 188 92 71 96 60 92 169 43 46 49 135 48 87 54
is_linear=0
shrinkage=0.05


Tree=12
num_leaves=18
num_cat=0
split_feature=3 16 15 16 18 3 19 8 5 17 0 12 15 15 19 25 18
split_gain=134.754 84.0637 33.274 28.6069 33.738 24.2583 22.2156 18.9969 15.8026 14.4376 10.7563 17.1962 6.43995 3.39495 3.16485 4.18588 1.733
threshold=243.50000000000003 0.6538799093103197 11.228156160216328 0.82397844634036832 87.584907571290856 125.50000000000001 9.9736842105263168 0.24264069264069268 7.5000000000000009 0.32994941208640965 59.768467701931833 66.164650402395139 10.287714929039304 10.919120744860129 16.633333333333336 5260.2270114942539 86.989459507293716
decision_type=2 2 2 2 2 2 2 2 2 2 2 2 2 2 2 2 2
left_child=1 -1 3 5 -5 -3 10 -2 -4 -7 -6 -12 14 -14 15 16 -9
right_child=7 2 8 4 6 9 -8 12 -10 -11 11 -13 13 -15 -16 -17 -18
leaf_value=-0.094960081248598949 0.0012520194930188797 -0.057255010286139121 -0.075032963658924465 0.052340022826360334 -0.049568660421804953 -0.037885058832100853 0.028726670213783268 0.066455593705177313 -0.01639404959976673 0.012771814297407104 0.021784701194701484 -0.040991015471518039 0.015611986294388772 0.042229851922425239 0.06863477174192667 0.030275946142725076 0.045890211218058891
leaf_weight=34 34 36 27 36 22 22 34 20 20 39 24 20 25 23 20 26 21
leaf_count=34 34 36 27 36 22 22 34 20 20 39 24 20 25 23 20 26 21
internal_value=0 -0.0207182 -0.0117031 -0.00396181 0.0108342 -0.0247067 -0.00410791 0.0346558 -0.0500802 -0.00549788 -0.0210227 -0.00674972 0.0430686 0.0283664 0.0511802 0.0459699 0.0559221
internal_weight=0 314 280 233 136 97 100 169 47 61 66 44 135 48 87 67 41
internal_count=483 314 280 233 136 97 100 169 47 61 66 44 135 48 87 67 41
is_linear=0
shrinkage=0.05


Tree=13
num_leaves=19
num_cat=0
split_feature=8 4 16 16 4 8 24 3 14 19 13 6 13 25 11 24 13 24
split_gain=121.637 55.7573 44.9635 28.9033 28.1721 23.3184 19.2268 21.4256 18.0703 15.119 8.58847 7.80384 14.8222 7.73144 6.29129 5.81558 3.25566 2.66527
threshold=0.23252556836688168 48.500000000000007 0.61309523809523825 0.92438780609695159 90.500000000000014 0.2748094871136228 1.7573854044929231 96.500000000000014 0.18696005595568918 7.7371794871794881 -5.0910025261020744 14.110981871196755 -4.4263619860631147 1868.411056679309 3.2610990075042365 2.7646855828220862 4.3830618722232799 4.2514855687606117
decision_type=2 2 2 2 2 2 2 2 2 2 2 2 2 2 2 2 2 2
left_child=2 8 -1 4 6 9 -4 -8 -2 -3 -9 12 -11 16 -15 -14 -7 -16
right_child=1 5 3 -5 -6 13 7 10 -10 11 -12 -13 15 14 17 -17 -18 -19
leaf_value=-0.099596735770287728 0.0012969868464602365 -0.023325832801250123 -0.010051688322654137 0.023413561284542084 0.0098314928290035054 0.045979337161406876 -0.10421936608850957 -0.064784487962722778 -0.056031920549659324 -0.0040173203490364053 -0.024464835336298816 -0.0040714597523522876 0.060222592563010185 0.0098084501567341029 0.034065802118335015 0.027091477813061191 0.072304389658181575 0.056515968590974811
leaf_weight=23 27 24 26 26 28 24 20 25 28 24 28 24 26 21 39 27 23 20
leaf_count=23 27 24 26 26 28 24 20 25 28 24 28 24 26 21 39 27 23 20
internal_value=0 0.0177225 -0.0344151 -0.0246165 -0.0344494 0.0276773 -0.0469733 -0.0601235 -0.0278886 0.0123465 -0.0434835 0.020823 0.0285824 0.0427667 0.0333108 0.0433445 0.0588618 0.041676
internal_weight=0 307 176 153 127 252 99 73 55 125 53 101 77 127 80 53 47 59
internal_count=483 307 176 153 127 252 99 73 55 125 53 101 77 127 80 53 47 59
is_linear=0
shrinkage=0.05


Tree=14
num_leaves=18
num_cat=0
split_feature=3 16 5 1 15 3 24 0 14 22 4 1 25 25 0 15 14
split_gain=112.802 69.6233 28.7779 33.8089 26.4019 29.0569 47.6013 23.4565 20.027 18.1276 17.9422 14.2583 8.58333 8.45229 6.62536 6.00017 2.46473
threshold=243.50000000000003 0.6538799093103197 7.5000000000000009 36.07530146126981 6.8068250758341771 127.50000000000001 1.4991160536070718 50.91467500000001 0.25369202030170596 0.28363501640732514 108.50000000000001 43.833319193718019 9499.8838841851812 2073.4715037593992 54.052916820022091 10.287714929039304 0.30477131564088095
decision_type=2 2 2 8 2 2 2 2 2 2 2 10 2 2 2 2 2
left_child=1 -1 3 -3 -5 6 -6 -8 -7 12 11 13 -4 16 -11 -15 -2
right_child=10 2 9 4 5 8 7 -9 -10 14 -12 -13 -14 15 -16 -17 -18
leaf_value=-0.086504098340211555 0.060233995561366493 0.037845570665030255 0.056703193663902911 0.017913882791996003 0.0049496950581669813 0.0095556043560990431 -0.12828085511922835 -0.058827862167550676 -0.043686932664025915 0.0086805675465327047 0.06303847721881338 -0.0058362302021123472 0.01191606571956072 0.034611724359133553 -0.028159661263065495 0.0020414412415658053 0.036541665460736977
leaf_weight=34 23 21 23 25 20 38 20 31 33 26 36 32 20 31 23 26 21
leaf_count=34 23 21 23 25 20 38 20 31 33 26 36 32 20 31 23 26 21
internal_value=0 -0.018939 -0.0107347 -0.0219481 -0.029467 -0.0378088 -0.0604266 -0.0860643 -0.0151909 0.0121795 0.0317244 0.0232484 0.035872 0.0324633 -0.00861178 0.0197551 0.0489263
internal_weight=0 314 280 188 167 142 71 51 71 92 169 133 43 101 49 57 44
internal_count=483 314 280 188 167 142 71 51 71 92 169 133 43 101 49 57 44
is_linear=0
shrinkage=0.05


Tree=15
num_leaves=18
num_cat=0
split_feature=8 16 4 3 15 6 12 15 5 19 4 19 9 16 9 4 4
split_gain=91.9848 63.9354 40.8523 21.903 18.9265 18.0402 14.3189 10.1283 9.58901 10.3674 12.0989 9.54583 10.6127 8.44198 7.05827 6.92382 2.69962
threshold=0.22668331185567012 0.79358009035428401 47.500000000000007 127.50000000000001 9.7531250000000025 12.92458121629382 67.385767088175001 10.585470764882531 11.500000000000002 12.892045454545455 97.500000000000014 16.633333333333336 0.66690578670492595 0.86501533742331305 0.70180887000108971 62.500000000000007 79.500000000000014
decision_type=2 2 2 2 2 2 2 2 2 2 2 2 2 2 2 2 2
left_child=1 3 5 -1 11 -2 13 -5 9 10 14 12 -4 -3 -6 -14 -17
right_child=2 6 4 7 8 -7 -8 -9 -10 -11 -12 -13 15 -15 -16 16 -18
leaf_value=-0.096212093411561325 -0.045754805733708465 -0.0085599713737056372 0.00263317055379351 -0.017682241187209177 0.025715463776141409 0.0083116534407492032 -0.034285234305120649 -0.067399308793246751 0.036102083102678477 0.024136331343906931 -0.041451330212029541 0.061248342541080941 0.013691467868731075 0.033708968924151532 -0.016291306437924504 0.056599102343122168 0.035875081189089657
leaf_weight=34 36 21 30 21 20 27 21 20 23 30 22 27 23 27 20 30 33
leaf_count=34 36 21 30 21 20 27 21 20 23 30 22 27 23 27 20 30 33
internal_value=0 -0.0345842 0.013513 -0.0665403 0.0223273 -0.0225835 0.000150621 -0.0419345 0.00722602 6.99807e-06 -0.0116685 0.0344717 0.0282392 0.0152163 0.00471208 0.0371716 0.0457437
internal_weight=0 144 321 75 258 63 69 41 115 92 62 143 116 48 40 86 63
internal_count=465 144 321 75 258 63 69 41 115 92 62 143 116 48 40 86 63
is_linear=0
shrinkage=0.05


Tree=16
num_leaves=19
num_cat=0
split_feature=22 3 13 8 4 19 14 6 8 24 18 24 15 11 18 16 14 0
split_gain=85.8054 50.227 36.4543 24.653 22.1196 20.7944 19.5963 16.3882 15.4783 11.4798 16.598 9.92445 9.69987 7.48072 6.92659 6.70724 5.46366 1.78489
threshold=0.56024531024531032 237.50000000000003 -4.4263619860631147 0.19694543999126751 108.50000000000001 14.958333333333334 0.071601594374404581 9.4936541583623022 0.25616934899231553 1.79466391509434 93.167389684332235 3.6773914595143649 9.1978260869565229 4.8519221642145238 90.004130555555562 0.8819659442724459 0.15339366515837108 53.822373039581784
decision_type=2 2 2 2 2 2 2 2 2 2 2 2 2 2 2 2 2 2
left_child=1 2 7 15 8 -2 -5 -1 -3 -8 12 13 16 17 -14 -4 -11 -10
right_child=5 4 3 6 -6 -7 9 -9 11 10 -12 -13 14 -15 -16 -17 -18 -19
leaf_value=-0.01838059839094058 -0.036863363228427863 -0.0079979611952838148 -0.055214861631393435 0.047105134664369483 0.064655284267483334 -0.10268256267532708 0.030922846440915711 -0.081622221498262315 0.040858520081509718 0.0018093391647033222 -0.038869103656283453 0.056841485589742662 -0.032774002754706003 -0.0056545263435691592 0.0073720482940023598 -0.014265975952148438 0.035376668935296715 0.020434987377375365
leaf_weight=20 30 38 20 28 33 20 27 21 23 22 28 25 21 20 22 20 27 20
leaf_count=20 30 38 20 28 33 20 27 21 23 22 28 25 21 20 22 20 27 20
internal_value=0 0.00614273 -0.00756587 0.00067356 0.0282144 -0.063191 0.00876818 -0.0507726 0.0186704 0.00146591 -0.0051619 0.0301863 0.00509681 0.0196088 -0.0122342 -0.0347404 0.0203056 0.0313592
internal_weight=0 415 256 215 159 50 175 41 126 147 120 88 92 63 43 40 49 43
internal_count=465 415 256 215 159 50 175 41 126 147 120 88 92 63 43 40 49 43
is_linear=0
shrinkage=0.05


Tree=17
num_leaves=16
num_cat=0
split_feature=8 22 3 24 19 15 8 19 1 22 15 3 3 11 4
split_gain=78.7741 41.9096 33.6179 27.6089 22.2531 21.0161 17.0123 12.4703 12.1474 10.3634 10.2029 9.04874 5.88084 6.80208 7.58718
threshold=0.13701201201201205 0.3531532805429865 243.50000000000003 2.3797010607521702 8.9767441860465134 9.7531250000000025 0.23252556836688168 7.6138716356107663 42.535730718086214 0.29828681956341535 10.539182111200647 276.50000000000006 281.50000000000006 2.9434285714285719 62.500000000000007
decision_type=2 2 2 2 2 2 2 2 10 2 2 2 2 2 2
left_child=-1 5 3 -3 -5 7 -6 -2 11 -10 -4 -7 13 -9 -15
right_child=1 2 10 4 6 8 -8 12 9 -11 -12 -13 -14 14 -16
leaf_value=-0.070232335267294402 0.0032832949917896517 0.0080995159922167669 0.031592261216074634 -0.092535114102065566 -0.059034846570076682 -0.0034379642956924661 -0.0043947442980675861 0.048170291248596078 -0.042690314789829049 0.0053109605902467265 -0.0072947498215662869 0.038757092660913872 0.055178543959151616 -0.0032026612199842932 0.035190672661748627
leaf_weight=38 35 32 37 20 28 27 29 33 23 22 31 24 33 22 31
leaf_count=38 35 32 37 20 28 27 29 33 23 22 31 24 33 22 31
internal_value=0 0.00489233 -0.0137241 -0.0309352 -0.0471575 0.0180728 -0.0312355 0.0295187 -0.000288447 -0.019223 0.0138644 0.0164185 0.037235 0.0303497 0.0192538
internal_weight=0 427 177 109 77 250 57 154 96 45 68 51 119 86 53
internal_count=465 427 177 109 77 250 57 154 96 45 68 51 119 86 53
is_linear=0
shrinkage=0.05


Tree=18
num_leaves=18
num_cat=0
split_feature=8 16 4 19 3 24 18 15 8 16 15 9 15 0 6 4 4
split_gain=71.0936 38.2039 38.7985 25.698 19.3503 18.5703 24.0221 12.9513 12.7993 25.4298 12.4109 13.1874 11.8809 8.30266 5.69353 3.8724 4.25777
threshold=0.13701201201201205 0.81708429339477739 63.500000000000007 13.519230769230772 231.50000000000003 1.7904808533688905 92.586704520679959 10.088682047560381 0.23425099206349209 0.70286438380385474 7.1877255639097752 0.78596059113300509 9.7531250000000025 46.676158906251779 10.934233214857878 108.50000000000001 95.500000000000014
decision_type=2 2 2 2 2 2 2 2 2 2 2 2 2 2 2 2 2
left_child=-1 2 8 7 5 -3 10 14 9 -2 -7 -12 -5 -10 -4 16 -6
right_child=1 4 3 12 15 6 -8 -9 13 -11 11 -13 -14 -15 -16 -17 -18
leaf_value=-0.066720718910035337 -0.021661709138640652 0.040318568136010854 0.027051383480429649 0.062349250303073367 0.0450716816377075 0.04324585240156878 -0.051022760178893803 -0.03345130788428443 -0.036529171953655105 -0.096048164889216428 -0.018781050169267333 0.029632945369336416 0.014305202895775438 0.0079828129149973389 -0.010224526872237523 0.058978858306294395 0.015481314993230627
leaf_weight=38 27 35 20 22 31 21 20 35 22 20 39 22 31 20 21 21 20
leaf_count=38 27 35 20 22 31 21 20 35 22 20 39 22 31 20 21 21 20
internal_value=0 0.00464771 -0.00999612 0.00752451 0.0199221 0.00889286 -0.00189048 -0.0111116 -0.0353912 -0.0533155 0.010093 -0.00132026 0.034248 -0.015333 0.00795884 0.0409084 0.0334676
internal_weight=0 427 218 129 209 137 102 76 89 47 82 61 53 42 41 72 51
internal_count=465 427 218 129 209 137 102 76 89 47 82 61 53 42 41 72 51
is_linear=0
shrinkage=0.05


Tree=19
num_leaves=18
num_cat=0
split_feature=21 3 13 8 4 14 24 19 8 4 0 1 24 11 16 19 0
split_gain=65.8071 37.6056 30.3314 18.5637 17.9624 16.0358 14.8318 13.2845 12.9743 9.96767 10.326 18.7165 8.03035 6.82438 6.23479 5.62358 1.60056
threshold=0.43412013182936454 237.50000000000003 -4.4263619860631147 0.19694543999126751 108.50000000000001 0.071601594374404581 3.2741439859525907 12.892045454545455 0.25616934899231553 47.500000000000007 52.447073257467999 42.840470659513947 3.6773914595143649 4.8519221642145238 0.8819659442724459 10.468013468013469 53.822373039581784
decision_type=2 2 2 2 2 2 2 2 2 2 2 10 2 2 2 2 2
left_child=7 2 6 14 8 -5 -2 -1 -3 -7 -11 15 13 16 -4 -12 -10
right_child=1 4 3 5 -6 9 -8 -9 12 10 11 -13 -14 -15 -16 -17 -18
leaf_value=-0.034334890318236187 -0.073784750869328328 -0.0082595866746627365 -0.049469865523278714 0.04270479990102883 0.057151388218908597 -0.020631630924579345 -0.014291794076561929 -0.087689190767705441 0.037089164887109526 0.04061009816470601 0.0062747259733869744 -0.028915052325464787 0.050362428968772292 -0.0072589747095480571 -0.0099895220249891295 0.038717627762393521 0.017748974952846767
leaf_weight=28 22 39 20 28 33 38 20 20 23 21 34 32 25 20 20 22 20
leaf_count=28 22 39 20 28 33 38 20 20 23 21 34 32 25 20 20 22 20
internal_value=0 0.00525632 -0.00659104 0.00100095 0.0242861 0.00802509 -0.0454548 -0.0565658 0.0157464 0.00141943 0.00910696 0.00158917 0.0263854 0.0168706 -0.0297297 0.0190202 0.0280937
internal_weight=0 417 257 215 160 175 42 48 127 147 109 88 88 63 40 56 43
internal_count=465 417 257 215 160 175 42 48 127 147 109 88 88 63 40 56 43
is_linear=0
shrinkage=0.05


Tree=20
num_leaves=18
num_cat=0
split_feature=5 15 4 16 12 19 12 6 15 18 12 18 7 25 8 14 24
split_gain=47.6041 52.7226 31.5489 24.9455 23.4419 29.7273 19.6885 15.5466 13.3144 12.3312 10.3618 16.3664 8.90436 15.7258 5.89309 5.83756 1.79956
threshold=7.5000000000000009 9.398697802997237 62.500000000000007 0.82274865591397861 31.296511927517397 7.825757575757577 64.244838805087269 11.008856035385323 10.907614182140783 90.573489702524867 58.1993410419269 86.523181197142435 0.021985586449201847 1821.3942703387149 0.27591804746977167 0.28818352699931654 2.2834210325631057
decision_type=2 2 2 2 2 2 2 2 2 2 2 2 10 2 2 2 2
left_child=1 2 4 8 -1 -6 -5 -7 9 -3 11 15 -13 -14 -12 -2 -4
right_child=10 3 16 6 5 7 -8 -9 -10 -11 14 12 13 -15 -16 -17 -18
leaf_value=0.040649889480499996 0.044849036234275746 -0.01156497619425257 0.056511143520474441 0.012486483509073387 -0.065216417238116262 -0.02369494179649086 -0.042537063411597548 0.029550692603851743 -0.078236807184293877 -0.064029148558066004 0.022427476906719118 0.024825780345550316 0.022278493784722828 -0.031635372585764057 0.056785987379650273 0.013757397485180543 0.035554538667201999
leaf_weight=21 36 24 20 37 24 29 29 26 32 21 26 22 21 38 24 26 21
leaf_count=21 36 24 20 37 24 29 29 26 32 21 26 22 21 38 24 26 21
internal_value=0 -0.0128551 0.00884033 -0.034247 -0.00630382 -0.0187852 -0.0116905 0.00147572 -0.0535812 -0.0360483 0.019327 0.0124764 -0.00232258 -0.0124457 0.0389196 0.0318106 0.0457773
internal_weight=0 284 141 143 100 79 66 55 77 45 193 143 81 59 50 62 41
internal_count=477 284 141 143 100 79 66 55 77 45 193 143 81 59 50 62 41
is_linear=0
shrinkage=0.05


Tree=21
num_leaves=18
num_cat=0
split_feature=5 15 4 16 12 4 12 15 18 1 25 15 9 3 25 3 24
split_gain=42.9627 47.5821 28.4729 22.5133 21.1563 17.8243 17.7689 12.061 11.7695 9.4173 7.15377 6.637 6.30559 8.95117 8.78626 4.30594 1.62411
threshold=7.5000000000000009 9.398697802997237 62.500000000000007 0.82274865591397861 31.296511927517397 42.500000000000007 64.244838805087269 10.801055752604745 90.573489702524867 42.798075496880521 10554.236288718388 7.3663996948893979 0.67565116447798024 284.00000000000006 5941.7676126681954 275.00000000000006 2.2834210325631057
decision_type=2 2 2 2 2 2 2 2 2 10 2 2 2 2 2 2 2
left_child=1 2 4 7 -1 11 -5 8 -3 10 15 -6 13 14 -11 -2 -4
right_child=9 3 16 6 5 -7 -8 -9 -10 12 -12 -13 -14 -15 -16 -17 -18
leaf_value=0.038617394935517087 0.025320771519715585 -0.0090548952150604003 0.053685586303472525 0.011862159087448507 -0.020930187422782184 0.0062066097576648771 -0.040410211065719875 -0.073752054752725546 -0.060827692136878067 -0.038398588765412571 0.0098639272573974833 -0.061664093937724831 0.026581020740171275 0.025293624350293115 0.0056821925995441591 0.051310038221452171 0.033776810623350598
leaf_weight=21 30 23 20 37 20 39 29 33 21 20 31 20 30 22 26 34 21
leaf_count=21 30 23 20 37 20 39 29 33 21 20 31 20 30 22 26 34 21
internal_value=0 -0.0122123 0.00839831 -0.0325347 -0.00598863 -0.0178459 -0.011106 -0.0509021 -0.0337646 0.0183606 0.0295784 -0.0412971 0.00748628 -0.000937868 -0.0134834 0.0391276 0.0434884
internal_weight=0 284 141 143 100 79 66 77 44 193 95 40 98 68 46 64 41
internal_count=477 284 141 143 100 79 66 77 44 193 95 40 98 68 46 64 41
is_linear=0
shrinkage=0.05


Tree=22
num_leaves=20
num_cat=0
split_feature=5 14 1 4 3 19 8 11 8 24 3 19 12 17 11 8 14 19 9
split_gain=38.7738 33.0721 29.9053 20.0596 33.9962 13.7633 11.0291 14.8175 10.5575 10.2132 16.2611 9.57856 13.1858 12.9038 12.2485 6.53388 5.82722 5.46477 4.25552
threshold=7.5000000000000009 0.37155499367888756 40.610007024549887 47.500000000000007 29.500000000000004 15.427272727272729 0.24169422138245947 2.9707934336525312 0.22123266078184115 2.5373883928571432 96.500000000000014 12.832167832167835 58.1993410419269 0.32749568739218488 2.8220639228101918 0.27591804746977167 0.19519411170443068 10.726495726495727 0.66690578670492595
decision_type=2 2 10 2 2 2 2 2 2 2 2 2 2 2 2 2 2 2 2
left_child=1 3 -3 4 -1 6 -5 -8 -4 -6 -11 12 13 17 -15 -14 -7 -2 -13
right_child=11 2 8 5 9 16 7 -9 -10 10 -12 18 15 14 -16 -17 -18 -19 -20
leaf_value=0.025631784245131479 0.031255719752516599 0.006953015886247158 -0.042847143168645824 -0.03180069000948043 -0.013600380298007151 0.052458371518349103 0.044975017867982386 -0.0095660541771036209 -0.092410848715475627 -0.08525527110323311 -0.02476765684783459 0.022346393189703426 0.015812080710505449 0.012784225577488543 -0.038077966750053496 0.054001795961743308 0.01516779107041657 -0.0020614034589380029 0.052443572295748669
leaf_weight=31 32 20 22 21 29 22 20 33 21 20 25 24 24 20 29 21 20 20 23
leaf_count=31 32 20 22 21 29 22 20 33 21 20 25 24 24 20 29 21 20 20 23
internal_value=0 -0.0116017 -0.0435588 -0.00249175 -0.018325 0.0118401 -0.00113505 0.0110155 -0.0670527 -0.0367393 -0.051651 0.0174426 0.0111226 0.00109286 -0.0173179 0.0336339 0.034701 0.0184414 0.0370748
internal_weight=0 284 63 221 105 116 74 53 43 74 45 193 146 101 49 45 42 52 47
internal_count=477 284 63 221 105 116 74 53 43 74 45 193 146 101 49 45 42 52 47
is_linear=0
shrinkage=0.05


Tree=23
num_leaves=20
num_cat=0
split_feature=8 15 1 4 24 5 15 25 19 9 8 18 0 19 13 9 25 25 0
split_gain=35.5756 24.7412 24.3294 16.9439 20.4382 14.9879 21.2353 14.7289 15.8114 12.8013 11.9804 10.7053 10.3348 7.55257 5.46977 4.87867 5.02489 3.20388 2.25811
threshold=0.24264069264069268 11.187723926780015 43.700211034702043 47.500000000000007 3.5652482269503554 4.5000000000000009 8.9860547667342825 -181503.33619702174 10.096096096096097 0.61314465595287526 0.27416208791208801 93.22898773938924 52.369560660886194 8.5357142857142865 8.1303166248880405 0.64297197978870024 2073.4715037593992 12782.264671496347 62.923150304511928
decision_type=2 2 8 2 2 2 2 2 2 2 2 2 2 2 2 2 2 2 2
left_child=1 5 -3 4 -2 6 -1 -7 11 -10 12 -9 -5 -14 15 -12 -17 -18 -16
right_child=3 2 -4 10 -6 7 -8 8 9 -11 14 -13 13 -15 18 16 17 -19 -20
leaf_value=0.0019436757334254007 -0.036977001098806368 -0.089669539704918866 -0.015682203873991964 0.024228862172143685 0.026722174007445577 -0.035899101048707964 -0.069242799831554291 -0.026610812274739149 0.0081898852615900665 0.062885420173406606 0.042588075436651711 0.02061501303687692 -0.034455778915435074 0.0042663966908174401 0.054768814183771608 0.030302345727880799 -0.0096572276543487202 0.017993510067462921 0.031009015738964082
leaf_weight=22 34 20 25 37 20 20 20 30 23 20 20 20 20 34 20 30 22 20 20
leaf_count=22 34 20 25 37 20 20 20 30 23 20 20 20 20 34 20 30 22 20 20
internal_value=0 -0.0159274 -0.0485655 0.0117453 -0.0133847 -0.00645178 -0.0319546 0.00302716 0.0113984 0.0336297 0.0178305 -0.00772048 0.00387264 -0.0100751 0.027453 0.0207418 0.0146734 0.00350979 0.0428889
internal_weight=0 200 45 277 54 155 42 113 93 43 223 50 91 54 132 92 72 42 40
internal_count=477 200 45 277 54 155 42 113 93 43 223 50 91 54 132 92 72 42 40
is_linear=0
shrinkage=0.05


Tree=24
num_leaves=19
num_cat=0
split_feature=5 15 19 3 8 21 11 3 8 24 19 12 17 11 8 19 15 21
split_gain=32.6973 37.8967 23.0476 18.888 18.742 18.1338 16.7346 17.8715 8.64578 8.49132 8.05502 11.5062 10.5788 11.0802 5.00557 4.84936 3.83641 3.47415
threshold=7.5000000000000009 10.907614182140783 7.6950464396284834 29.500000000000004 0.22553311064321563 0.75799277175423974 2.9434285714285719 203.50000000000003 0.22184936614466819 2.3609484777517569 12.832167832167835 58.1993410419269 0.32749568739218488 2.8220639228101918 0.27591804746977167 10.726495726495727 9.4962683696237615 0.66738505747126442
decision_type=2 2 2 2 2 2 2 2 2 2 2 2 2 2 2 2 2 2
left_child=1 2 3 -1 9 8 -6 -8 -3 -4 11 12 15 -14 -13 -2 -9 -12
right_child=10 5 4 -5 6 -7 7 16 -10 -11 17 14 13 -15 -16 -17 -18 -19
leaf_value=0.0086260738117354251 0.028629718825686726 -0.042211376467630984 0.006366833908991381 -0.051354901652250977 0.049429362402720889 -0.0065457750856876377 -0.020516504667808907 0.039821468967084703 -0.088145920429378743 -0.03482702320505833 0.020132222658266193 0.015649505937471987 0.012811063543194907 -0.035564634024069224 0.04907576931374414 -0.0027553989505395295 0.011787794340077949 0.047326245841880638
leaf_weight=21 32 21 22 35 33 20 34 26 20 29 23 24 20 29 21 20 23 24
leaf_count=21 32 21 22 35 33 20 34 26 20 29 23 24 20 29 21 20 23 24
internal_value=0 -0.0106562 -0.0011036 -0.028862 0.00820462 -0.0455782 0.0193111 0.00733634 -0.0646185 -0.0170571 0.0160152 0.0102197 0.000850395 -0.0158195 0.0312484 0.0165585 0.0266628 0.0340185
internal_weight=0 284 223 56 167 61 116 83 41 51 193 146 101 49 45 52 49 47
internal_count=477 284 223 56 167 61 116 83 41 51 193 146 101 49 45 52 49 47
is_linear=0
shrinkage=0.05


Tree=25
num_leaves=19
num_cat=0
split_feature=8 4 16 3 8 12 18 19 13 16 15 3 18 14 24 25 18 14
split_gain=68.2719 36.9492 35.7105 29.009 25.3696 20.3265 12.41 11.9915 15.0773 9.61672 8.70595 7.09615 7.0606 6.54389 4.86736 3.7416 2.67853 2.46083
threshold=0.19915611814345993 43.500000000000007 0.89905702170748703 35.500000000000007 0.16744548286604363 53.329071323770826 94.310881571282962 12.779352226720649 -9.6079222477831667 0.82462278964975766 10.17914438502674 231.50000000000003 90.824434302817181 0.12405141297649443 3.4739870534643975 7774.6826563958921 91.083185786435806 0.25142132142742429
decision_type=2 2 2 2 2 2 2 2 2 2 2 2 2 2 2 2 2 2
left_child=2 3 4 -2 -1 -5 7 9 -9 10 15 12 -11 -10 -13 -3 17 -15
right_child=1 6 -4 5 -6 -7 -8 8 13 11 -12 14 -14 16 -16 -17 -18 -19
leaf_value=-0.094157813201027535 0.029489293023943902 0.021918128424634538 0.0065305334550363045 -0.06298870257529858 -0.029096543531993341 -0.0031320247313250667 -0.019986959967924201 -0.0003316047526563385 0.01741091494448483 0.024374233363496683 -0.022683061065617949 0.049488468917731482 -0.011748932488262654 0.045133834965527059 0.016679399325512351 -0.0055996738285535863 0.035366784729994834 0.069640155065627332
leaf_weight=31 20 30 27 37 29 23 23 28 20 31 32 26 24 20 20 21 20 21
leaf_count=31 20 30 27 37 29 23 23 28 20 31 32 26 24 20 20 21 20 21
internal_value=0 0.0076941 -0.0412226 -0.0226604 -0.0627115 -0.0400436 0.0153788 0.0181549 0.0312971 0.0103696 -0.00223985 0.0207318 0.0086114 0.0422305 0.0352237 0.0105873 0.0503681 0.0576859
internal_weight=0 396 87 80 60 60 316 293 109 184 83 101 55 81 46 51 61 41
internal_count=483 396 87 80 60 60 316 293 109 184 83 101 55 81 46 51 61 41
is_linear=0
shrinkage=0.05


Tree=26
num_leaves=18
num_cat=0
split_feature=8 4 16 3 8 12 4 8 4 5 19 1 1 4 6 24 15
split_gain=61.6154 33.3466 32.2287 26.1806 22.8961 18.3447 11.169 9.28545 10.0195 12.6755 11.0067 7.43594 9.61394 5.49339 5.48201 2.75178 1.53669
threshold=0.19915611814345993 43.500000000000007 0.89905702170748703 35.500000000000007 0.16744548286604363 53.329071323770826 108.50000000000001 0.25975551398616614 60.500000000000007 10.500000000000002 11.766968325791858 43.81172531235061 43.254280610790332 60.500000000000007 11.747735635344426 3.2116626311541574 9.8027777777777789
decision_type=2 2 2 2 2 2 2 2 2 2 2 10 10 2 2 2 2
left_child=2 3 4 -2 -1 -5 7 8 -3 10 -10 12 13 -9 15 -15 -8
right_child=1 6 -4 5 -6 -7 16 11 9 -11 -12 -13 -14 14 -16 -17 -18
leaf_value=-0.089449922836595974 0.028014828339219096 0.023552707593668912 0.0062040060482643272 -0.059839266991853157 -0.027641716342547848 -0.0029754235692646194 0.049102117512375115 -0.0011341095979635915 -0.042601598264469256 0.017058787177196676 0.0025000909576192499 0.040563541377196088 -0.01730391909146593 0.0031139107987932539 0.042569686820910828 0.027078131817281248 0.029501825924962762
leaf_weight=31 20 34 27 37 29 23 20 24 31 31 24 32 21 23 31 25 20
leaf_count=31 20 34 27 37 29 23 20 24 31 31 24 32 21 23 31 25 20
internal_value=0 0.0073094 -0.0391615 -0.0215274 -0.059576 -0.0380415 0.0146098 0.0110313 0.000574726 -0.00850959 -0.0229209 0.0190748 0.0135293 0.0198157 0.0261802 0.0155953 0.039302
internal_weight=0 396 87 80 60 60 316 276 120 86 55 156 124 103 79 48 40
internal_count=483 396 87 80 60 60 316 276 120 86 55 156 124 103 79 48 40
is_linear=0
shrinkage=0.05


Tree=27
num_leaves=19
num_cat=0
split_feature=8 4 16 3 8 12 18 19 13 16 8 3 18 14 5 24 18 14
split_gain=55.6079 30.0953 29.0864 23.628 20.6637 16.5561 10.5154 10.4003 13.2968 8.40174 6.93338 6.04215 6.07203 5.8206 5.34465 4.48619 2.31649 2.24268
threshold=0.19915611814345993 43.500000000000007 0.89905702170748703 35.500000000000007 0.16744548286604363 53.329071323770826 94.310881571282962 12.779352226720649 -9.6079222477831667 0.82462278964975766 0.27098005417384891 231.50000000000003 90.824434302817181 0.12405141297649443 9.5000000000000018 3.4739870534643975 91.083185786435806 0.25142132142742429
decision_type=2 2 2 2 2 2 2 2 2 2 2 2 2 2 2 2 2 2
left_child=2 3 4 -2 -1 -5 7 9 -9 10 14 12 -11 -10 -3 -13 17 -15
right_child=1 6 -4 5 -6 -7 -8 8 13 11 -12 15 -14 16 -16 -17 -18 -19
leaf_value=-0.084977425442587948 0.02661408565938473 -0.031493087819156544 0.0058938053747018184 -0.056847303891098259 -0.026259629531153319 -0.0028266525300948519 -0.018675011525983398 -0.0010284615979929055 0.015533735072240235 0.022303559592053778 0.014746894818895004 0.045937171234534335 -0.011195445712655783 0.041438768170773986 0.0015402296334505081 0.014438946768641473 0.03266554640606046 0.064833638568719237
leaf_weight=31 20 24 27 37 29 23 23 28 20 31 34 26 24 20 25 20 20 21
leaf_count=31 20 24 27 37 29 23 23 28 20 31 34 26 24 20 25 20 20 21
internal_value=0 0.00694393 -0.0372034 -0.020451 -0.0565972 -0.0361394 0.0138794 0.0164348 0.028674 0.00918441 -0.00260161 0.01887 0.00768581 0.0389416 -0.0146394 0.0322423 0.0466163 0.0534215
internal_weight=0 396 87 80 60 60 316 293 109 184 83 101 55 81 49 46 61 41
internal_count=483 396 87 80 60 60 316 293 109 184 83 101 55 81 49 46 61 41
is_linear=0
shrinkage=0.05


Tree=28
num_leaves=20
num_cat=0
split_feature=3 16 15 5 1 3 24 4 9 19 1 14 11 1 17 19 15 18 16
split_gain=44.6055 35.3376 19.865 18.7503 21.7005 20.0651 31.1546 14.208 9.08095 8.90776 12.9051 8.77326 10.2024 7.01224 5.94328 5.53982 4.26971 2.40776 1.9664
threshold=243.50000000000003 0.63728332808068078 5.2940621164920243 7.5000000000000009 40.472710020775075 124.50000000000001 1.8318817962142571 29.500000000000004 0.65654616160161317 12.779352226720649 43.762699672766793 0.29267524157321534 3.2365644171779144 41.839035087959104 0.25040716612377856 9.6835372636262544 10.506250000000001 88.160020096558142 0.80453190293492349
decision_type=2 2 2 2 8 2 2 2 2 2 10 2 2 10 2 2 2 2 2
left_child=1 -1 -3 4 15 6 -6 -8 -5 10 14 12 -7 -10 -2 -4 18 -16 -11
right_child=9 2 3 8 5 11 7 -9 13 16 -12 -13 -14 -15 17 -17 -18 -19 -20
leaf_value=-0.067590035268893608 -0.0018811395391821863 0.041325251217931513 0.031890843808650975 -0.015178237812194443 0.0042939353734254837 0.02543339081027586 -0.099555115655741919 -0.044959238531569454 0.0023134766752088082 0.050224549252668331 -0.023345188432457774 -0.036130557488650086 -0.018518144532196947 0.035943925927483265 0.020282937936484814 -0.0053241493925452231 0.016165357905750476 0.043248445434229718 0.029845193237997593
leaf_weight=26 20 20 20 28 20 23 22 26 31 29 22 24 31 31 25 20 24 21 20
leaf_count=26 20 20 20 28 20 23 22 26 31 29 22 24 31 31 25 20 24 21 20
internal_value=0 -0.0117019 -0.00679282 -0.0102796 -0.019345 -0.0282843 -0.0481364 -0.0699823 0.00845543 0.0205308 0.00981902 -0.0109773 0.000201954 0.0191287 0.0208738 0.0132833 0.0334436 0.0307672 0.0419064
internal_weight=0 322 296 276 186 146 68 48 90 161 88 78 54 62 66 40 73 46 49
internal_count=483 322 296 276 186 146 68 48 90 161 88 78 54 62 66 40 73 46 49
is_linear=0
shrinkage=0.05


Tree=29
num_leaves=18
num_cat=0
split_feature=8 16 4 11 1 8 18 1 8 8 16 8 15 6 1 15 25
split_gain=47.313 24.8557 24.0276 21.0178 17.0885 11.9012 9.11721 9.38354 9.54021 8.10357 8.06611 8.52657 7.97777 4.96552 4.44642 4.00801 4.75783
threshold=0.19915611814345993 0.87686733556298779 43.500000000000007 2.6303196803196807 42.698334346461309 0.16744548286604363 94.310881571282962 45.474345782045894 0.27650740929994894 0.28777501037775016 0.83578170463416379 0.25122868900646683 10.001960784313727 8.5027198816543343 43.28105061736688 7.9236691520721356 1726.4447575631996
decision_type=2 2 2 2 10 2 2 10 2 2 2 2 2 2 10 2 2
left_child=1 5 3 -2 -5 -1 7 8 10 -10 12 -12 14 -14 -4 -11 -17
right_child=2 -3 6 4 -6 -7 -8 -9 9 15 11 -13 13 -15 -16 16 -18
leaf_value=-0.078661676137535663 0.015033111721277238 -0.00010940504796577222 0.025761440964415672 -0.0049278456125069758 -0.063814493674518802 -0.031715772328553375 -0.017690752187500831 0.04367566790001897 0.046075314549463141 0.02832674188035968 0.035107579432951751 -0.0026738917322031092 -0.005326046794652939 -0.040137297045439481 -0.0064737706516019029 0.024931313356627589 -0.0043432497130041683
leaf_weight=27 30 33 20 22 28 27 23 26 28 37 32 28 21 20 23 23 35
leaf_count=27 30 33 20 22 28 27 23 26 28 37 32 28 21 20 23 23 35
internal_value=0 -0.0342966 0.00642518 -0.0180528 -0.0379044 -0.0551887 0.0126221 0.0150017 0.0122094 0.0224358 0.00347439 0.0174762 -0.00652691 -0.0223071 0.00851935 0.0154684 0.00726563
internal_weight=0 87 396 80 50 54 316 293 267 123 144 60 84 41 43 95 58
internal_count=483 87 396 80 50 54 316 293 267 123 144 60 84 41 43 95 58
is_linear=0
shrinkage=0.05


Tree=30
num_leaves=19
num_cat=0
split_feature=8 24 18 25 4 7 11 16 15 5 3 19 8 6 8 14 17 16
split_gain=35.0327 20.1716 30.3832 28.3418 28.3281 27.0107 12.5133 8.26556 8.64905 15.9954 10.3255 7.42334 7.1894 6.7563 5.44467 5.35733 4.0667 1.12694
threshold=0.13701201201201205 1.1928943452380956 94.310881571282962 6146.0472016254034 47.500000000000007 0.023251167546997329 4.2134347425651395 0.82326913066111407 10.539182111200647 9.5000000000000018 307.50000000000006 10.535897435897438 0.27871367025462507 12.692676920147955 0.26262819978320689 0.20319867465273356 0.36560893013921991 0.86916433239962665
decision_type=2 2 2 2 2 10 2 2 2 2 2 2 2 2 2 2 2 2
left_child=-1 -2 4 -4 5 16 -7 8 10 -10 13 12 -9 15 -13 -6 -3 -16
right_child=1 2 3 -5 7 6 -8 11 9 -11 -12 14 -14 -15 17 -17 -18 -19
leaf_value=-0.044943764766580185 0.048712757647037509 -0.060412055567038526 -0.07345029755185048 0.0071411903761327269 0.008852385610099071 0.036323486937379294 -0.01832202198333107 -0.0033998579052942138 -0.036575977614632361 0.017849313612613413 0.038349058470604103 0.057887699067359792 0.028424543866680731 0.025968613491758059 0.034781136270612481 -0.026531008507590742 -0.029583988599479201 0.018382082355674356
leaf_weight=38 25 23 24 20 23 22 20 35 27 27 33 20 36 23 20 20 20 22
leaf_count=38 25 23 24 20 23 22 20 35 27 27 33 20 36 23 20 20 20 22
internal_value=0 0.00509452 0.00246691 -0.0368178 0.00712602 -0.0182174 0.0103018 0.0146582 0.00673308 -0.00936333 0.0155129 0.023775 0.0127365 0.00409489 0.0364158 -0.00760501 -0.0460734 0.0261912
internal_weight=0 440 415 44 371 85 42 286 153 54 99 133 71 66 62 43 43 42
internal_count=478 440 415 44 371 85 42 286 153 54 99 133 71 66 62 43 43 42
is_linear=0
shrinkage=0.05


Tree=31
num_leaves=17
num_cat=0
split_feature=8 24 4 1 15 3 19 8 24 24 3 19 8 15 9 14
split_gain=31.617 18.2049 26.3323 33.7358 11.9486 10.6257 10.3343 14.923 9.98484 11.1364 9.77521 7.68992 6.91213 3.79075 2.76144 2.19875
threshold=0.13701201201201205 1.1928943452380956 43.500000000000007 42.998593019892972 10.625396461462037 281.50000000000006 9.0227272727272751 0.25035612535612545 2.2347605410519322 3.3132666735388105 175.50000000000003 9.3574193548387115 0.26232038048977946 8.4958284638358688 0.61314465595287526 0.23929824561403509
decision_type=2 2 2 8 2 2 2 2 2 2 2 2 2 2 2 2
left_child=-1 -2 3 -3 5 8 -6 -8 11 10 -10 -4 -12 -11 -7 -16
right_child=1 2 4 -5 6 14 7 -9 9 13 12 -13 -14 -15 15 -17
leaf_value=-0.042696576310615797 0.04627711969614029 0.0094839922985748247 0.0033097721805626697 -0.056712765093797295 0.018364215186186906 0.016147456210106614 -0.037978095649496509 0.0096480281702403369 -0.039758353809947557 0.035288180778734385 -0.018962503362447022 0.042511548011981211 0.018218482717871666 0.0052114234771579509 0.027390706179470856 0.048352719843387605
leaf_weight=38 25 38 22 39 29 25 38 29 23 20 25 29 25 22 29 22
leaf_count=38 25 38 22 39 29 25 38 29 23 20 25 29 25 22 29 22
internal_value=0 0.00483979 0.00234357 -0.0240442 0.00835499 0.014276 -0.00657096 -0.0173638 0.00718688 -0.000979371 -0.0127814 0.025601 -0.00037201 0.0195337 0.0297602 0.0364331
internal_weight=0 440 415 77 338 242 96 67 166 115 73 51 50 42 76 51
internal_count=478 440 415 77 338 242 96 67 166 115 73 51 50 42 76 51
is_linear=0
shrinkage=0.05


Tree=32
num_leaves=17
num_cat=0
split_feature=8 24 24 4 18 4 19 17 3 19 11 1 17 5 8 14
split_gain=28.5343 17.3742 19.8264 44.0327 17.341 17.7626 20.5609 11.2977 7.58121 7.42291 7.30462 6.67598 6.0644 5.96122 2.90597 1.92024
threshold=0.13701201201201205 4.9543561263450195 1.5208850289495452 29.500000000000004 94.310881571282962 57.500000000000007 10.593406593406595 0.32547357134347327 104.50000000000001 14.025000000000002 2.6378203573449759 42.647855950068177 0.26033340165334434 9.5000000000000018 0.27326460481099663 0.18696005595568918
decision_type=2 2 2 2 2 2 2 2 2 2 2 10 2 2 2 2
left_child=-1 2 8 -4 5 6 -5 -8 -2 10 -7 14 -11 -13 -12 -14
right_child=1 -3 3 4 -6 9 7 -9 -10 12 11 13 15 -15 -16 -17
leaf_value=-0.040561747712720385 0.053609409086082298 0.041328381464506188 -0.072152986543785255 -0.04292391327875001 -0.033268216576787739 0.030573944088869862 -0.014109615531974826 0.032815409637987618 0.011517893355339766 0.0092510867863893516 0.002801759048335014 -0.025690403946771707 0.050545798218809071 0.0044108176947032151 0.02396838698974427 0.028635502234101298
leaf_weight=38 23 30 21 35 31 28 29 23 20 28 31 29 20 38 34 20
leaf_count=38 23 30 21 35 31 28 29 23 20 28 31 29 20 38 34 20
internal_value=0 0.0045978 0.0019102 -0.00185339 0.00241335 0.00592487 -0.0132961 0.00664568 0.034032 0.0132592 0.00737775 0.00245734 0.0270979 -0.00861807 0.0138735 0.0395907
internal_weight=0 440 410 367 346 315 87 52 43 228 160 132 68 67 65 40
internal_count=478 440 410 367 346 315 87 52 43 228 160 132 68 67 65 40
is_linear=0
shrinkage=0.05


Tree=33
num_leaves=18
num_cat=0
split_feature=8 18 9 24 4 24 24 4 18 11 21 0 9 8 14 24 4
split_gain=25.7522 16.6757 17.7773 16.7916 10.4319 11.7722 11.173 14.6232 13.6606 7.9769 5.6506 7.73878 11.2516 5.34989 5.09099 4.26591 0.4809
threshold=0.13701201201201205 79.829111645299164 0.4841229838709678 2.803389398572885 110.50000000000001 4.7258158508158514 1.5208850289495452 42.500000000000007 92.351415579790583 2.6440092165898621 0.60059523809523818 48.639494633273713 0.67289031363715146 0.25786415390655676 0.2330845771144279 2.2186835055491776 67.500000000000014
decision_type=2 2 2 2 2 2 2 2 2 2 2 2 2 2 2 2 2
left_child=-1 -2 3 -3 5 6 -4 -8 9 -9 -11 -12 -13 -14 16 -10 -15
right_child=1 2 4 -5 -6 -7 7 8 15 10 11 12 13 14 -16 -17 -18
leaf_value=-0.038533660328309793 0.041706222176019637 0.0061408923317988716 0.028252122438315194 -0.05397222331510141 0.034329709153750852 0.040275327879935506 -0.037488453987020033 0.032146764840481096 -0.0064336329650333431 -0.016325038183352042 0.033731758935997884 -0.031509715174324812 0.032768796794116498 0.0091682791377284707 -0.013508068328654324 -0.031903876289124451 0.020001673158258199
leaf_weight=38 28 21 33 26 29 20 27 29 35 29 24 20 20 21 27 31 20
leaf_count=38 28 21 33 26 29 20 27 29 35 29 24 20 20 21 27 31 20
internal_value=0 0.00436791 0.00183036 -0.0271132 0.00555733 0.003074 0.000719487 -0.00249103 0.0012001 0.00800749 0.00365942 0.00804995 0.00234288 0.0100367 0.00335073 -0.0183969 0.0144529
internal_weight=0 440 412 47 365 336 316 283 256 190 161 132 108 88 68 66 41
internal_count=478 440 412 47 365 336 316 283 256 190 161 132 108 88 68 66 41
is_linear=0
shrinkage=0.05


Tree=34
num_leaves=20
num_cat=0
split_feature=8 18 5 24 3 15 1 18 8 13 24 3 1 9 18 17 19 5 13
split_gain=23.2414 15.0498 16.1383 19.788 25.0303 18.5036 9.01173 9.66323 7.74412 6.55074 6.39696 5.13331 17.0713 4.80623 3.46193 2.57879 2.47745 2.36371 2.12769
threshold=0.13701201201201205 79.829111645299164 7.5000000000000009 2.3609484777517569 96.500000000000014 10.801055752604745 44.482529418230271 87.74113813131315 0.27260702260702269 13.95467313162152 2.7188076851659697 192.50000000000003 44.529433901864564 0.67438509483278608 91.32555718930719 0.25257481041196972 10.593406593406595 11.500000000000002 3.2170812397697133
decision_type=2 2 2 2 2 2 10 2 2 2 2 2 10 2 2 2 2 2 2
left_child=-1 -2 3 5 -5 13 7 8 -6 11 -9 12 -4 -3 15 -13 -15 18 -17
right_child=1 2 9 4 6 -7 -8 10 -10 -11 -12 14 -14 16 -16 17 -18 -19 -20
leaf_value=-0.036606977889804465 0.039620911183633978 0.043555019883965346 -0.035279012009825396 -0.069385864053453719 -0.04174876391887665 -0.024726376080742251 -0.034768946917860637 -0.0065171778481453654 0.00037836654422183837 0.039769953978247945 0.031770802553122243 0.0061740349845162464 0.025002261988508207 0.0023845214769244194 -0.0038746683282079178 0.019782104555051777 0.026699337871104945 0.012623143044334871 0.042315262251279573
leaf_weight=38 28 23 23 21 20 26 28 20 24 20 24 28 24 20 20 20 22 27 22
leaf_count=38 28 23 23 21 20 26 28 20 24 20 24 28 24 20 20 20 22 27 22
internal_value=0 0.00414952 0.00173884 -0.00715095 -0.019156 0.0109226 -0.0100627 -0.00220158 -0.0187703 0.0127544 0.0143672 0.00945987 -0.00449708 0.0251822 0.0150665 0.0189719 0.0151209 0.0241653 0.0315852
internal_weight=0 440 412 228 137 91 116 88 44 184 44 164 47 65 117 97 42 69 42
internal_count=478 440 412 228 137 91 116 88 44 184 44 164 47 65 117 97 42 69 42
is_linear=0
shrinkage=0.05


Tree=35
num_leaves=19
num_cat=0
split_feature=18 9 24 25 4 24 25 11 24 17 4 25 25 8 6 19 19 16
split_gain=13.787 14.7274 17.4121 11.9119 9.69903 9.17682 6.8963 7.48378 9.62453 17.5403 9.25443 5.22587 9.71307 10.5681 5.05415 3.65902 5.19528 2.95362
threshold=74.407148426622129 0.4841229838709678 2.5948941095772962 27781.031148522972 109.50000000000001 4.7258158508158514 16629.89908247631 6.7622605746209112 1.8132020249960452 0.46376050420168075 85.500000000000014 50.500000000000007 3058.0823235923031 0.24683630154474662 13.260549272694623 9.0227272727272751 12.03846153846154 0.79557886719290971
decision_type=2 2 2 2 2 2 2 2 2 2 2 2 2 2 2 2 2 2
left_child=-1 2 -2 4 5 6 7 8 10 11 -3 15 -13 -14 17 -10 -17 -15
right_child=1 3 -4 -5 -6 -7 -8 -9 9 -11 -12 12 13 14 -16 16 -18 -19
leaf_value=0.034619130638356393 0.0096674131974577911 0.034081403352320197 -0.049127300653387523 -0.028427626418344905 0.029691668458643461 0.028534753689611399 0.021045001236100994 -0.033647382401395587 0.027661396802536084 -0.040743780357297511 -0.00927531509543769 -0.029670787953278599 0.032750420250175966 0.015230088299583822 -0.02822135759606248 -0.01524457511126953 0.017769336528502978 -0.0099814686351097567
leaf_weight=26 20 32 34 33 31 27 30 20 21 32 20 34 21 21 21 22 26 26
leaf_count=26 20 32 34 33 31 27 30 20 21 32 20 34 21 21 21 22 26 26
internal_value=0 -0.00278213 -0.0273515 0.000399513 0.00287685 0.000522003 -0.00179807 -0.00411325 -0.00197309 -0.00647175 0.0174057 -0.000759747 -0.00693807 0.00174634 -0.00782845 0.0102538 0.00263796 0.00128327
internal_weight=0 471 54 417 384 353 326 296 276 224 52 192 123 89 68 69 48 47
internal_count=497 471 54 417 384 353 326 296 276 224 52 192 123 89 68 69 48 47
is_linear=0
shrinkage=0.05


Tree=36
num_leaves=19
num_cat=0
split_feature=3 3 24 0 18 9 16 19 24 24 24 19 4 24 14 25 24 7
split_gain=15.1684 21.1345 38.7505 13.9158 13.7155 9.9306 7.21048 7.14945 6.59423 8.71538 6.76494 5.10739 4.21867 4.15617 3.34182 4.89943 4.86439 3.27942
threshold=16.500000000000004 122.50000000000001 1.8318817962142571 45.581815352318372 94.310881571282962 0.461659543927185 0.86184959485702817 16.633333333333336 4.9007352941176476 2.7561009373887599 3.1102061367136602 6.8784067085953895 59.500000000000007 3.5336893635959061 0.35176142309033837 14307.81968366543 2.2186835055491776 0.023024212480214714
decision_type=2 2 2 2 2 2 2 2 2 2 2 2 2 2 2 2 2 10
left_child=-1 2 -2 -4 5 -3 -5 8 9 11 -11 -7 -12 -14 15 16 -13 -9
right_child=1 4 3 6 -6 7 -8 17 -10 10 12 14 13 -15 -16 -17 -18 -19
leaf_value=0.033082528893024696 0.025804455804505518 -0.028463023602962496 -0.074683811666909614 -0.045440254040062432 -0.026027979265506332 -0.01217190104071051 -0.0051617403840646149 0.040888178013265136 0.031434059768382996 -0.026245236383484943 -0.017561821594996297 0.036844647232265701 0.022898757189512255 -0.0051494661718606951 0.030206254457256627 -0.010617475983287607 0.0069964540549195741 0.014749834177394708
leaf_weight=31 28 20 24 25 38 20 20 20 21 35 23 21 25 28 28 21 39 30
leaf_count=31 28 20 24 25 38 20 20 20 21 35 23 21 25 28 28 21 39 30
internal_value=0 -0.00303719 -0.0238054 -0.043937 0.00242222 0.0056884 -0.0275387 0.00788464 0.00456653 0.00221562 -0.00805605 0.011054 0.000320552 0.00808083 0.0153157 0.0101683 0.0174433 0.0252052
internal_weight=0 466 97 69 369 331 45 311 261 240 111 129 76 53 109 81 60 50
internal_count=497 466 97 69 369 331 45 311 261 240 111 129 76 53 109 81 60 50
is_linear=0
shrinkage=0.05


Tree=37
num_leaves=18
num_cat=0
split_feature=3 3 16 18 18 13 3 19 11 1 11 1 3 0 1 0 14
split_gain=13.6895 19.0739 19.3904 12.3783 11.4827 9.14065 11.5408 8.99713 7.46735 6.37494 5.54035 6.57659 5.86369 5.41471 3.99223 1.72229 1.61721
threshold=16.500000000000004 122.50000000000001 0.91795359151025591 94.310881571282962 93.506309523809534 -9.0150192426608164 317.50000000000006 13.883116883116886 2.6554753572470111 43.498804482602381 2.6378203573449759 43.632734192111954 183.50000000000003 52.369560660886194 42.288075505343791 60.412656722733537 0.22847640164713337
decision_type=2 2 2 2 2 2 2 2 2 10 2 10 2 2 10 2 2
left_child=-1 2 4 5 8 6 -3 10 -2 -9 -7 12 -12 -13 15 16 -14
right_child=1 3 -4 -5 -6 7 -8 9 -10 -11 11 13 14 -15 -16 -17 -18
leaf_value=0.031428403239096368 -0.027518670912832024 -0.030650473865015168 0.021248756274580956 -0.024726580666672243 -0.011111394190811552 0.024721458810381593 0.015564146014565433 0.010807255254541008 -0.068508342528715724 0.041739634017745456 -0.016977884992957114 -0.00011187646175838179 0.010471001569004287 -0.030402021914720537 0.027923311442136767 0.017157161948473557 -0.0085285921052369925
leaf_weight=31 20 35 20 38 32 28 22 36 25 31 20 36 21 25 30 23 24
leaf_count=31 20 35 20 38 32 28 22 36 25 31 20 36 21 25 30 23 24
internal_value=0 -0.00288533 -0.0226152 0.00230111 -0.0340084 0.00540398 -0.0128133 0.0091937 -0.0502907 0.0251193 0.00403905 0.000803816 0.00769459 -0.0125259 0.0127298 0.00602676 0.000337885
internal_weight=0 466 97 369 77 331 57 274 45 67 207 179 118 61 98 68 45
internal_count=497 466 97 369 77 331 57 274 45 67 207 179 118 61 98 68 45
is_linear=0
shrinkage=0.05


Tree=38
num_leaves=19
num_cat=0
split_feature=14 10 19 21 16 13 8 1 16 0 4 15 4 16 1 13 3 3
split_gain=12.734 21.0598 17.7406 11.6062 15.66 8.83103 8.36495 12.644 8.56867 5.79121 6.70386 5.1486 3.81396 3.8243 6.436 3.92563 3.2638 6.20182
threshold=0.37155499367888756 5.9897579155665364 5.4875000000000007 0.60801587301587312 0.75341604107431437 -7.5605072885504585 0.24264069264069268 44.949220323542178 0.80453190293492349 47.768349583542843 42.500000000000007 9.4962683696237615 108.50000000000001 0.82462278964975766 43.972406310307882 3.8798325511278287 149.50000000000003 203.50000000000003
decision_type=2 10 2 2 2 2 2 8 2 2 2 2 2 2 10 2 2 2
left_child=1 2 -1 4 5 11 7 -2 -8 -5 -11 -4 13 14 -12 -15 -17 -18
right_child=6 -3 3 9 -6 -7 8 -9 -10 10 12 -13 -14 15 -16 16 17 -19
leaf_value=-0.044742566198110581 -0.044973761893999882 0.053735783307565725 0.007070982058604177 0.031180547390665326 -0.039334507950115949 0.030967756919562817 0.023240432702004911 0.0024323038926178761 -0.016163581345431707 -0.020561782829463485 -0.018280016677454113 -0.025043980606521174 0.0272774737595615 0.031441986882551148 0.015578689098358155 0.025153140500187878 -0.017917315739517412 0.014718006035262668
leaf_weight=20 39 20 26 28 32 20 22 22 37 20 32 24 27 22 25 20 24 37
leaf_count=20 39 20 26 28 32 20 22 22 37 20 32 24 27 22 25 20 24 37
internal_value=0 0.00380759 0.00101049 0.0037258 -0.0103584 0.00288779 -0.0148936 -0.0278765 -0.00147056 0.00983896 0.00695217 -0.0083442 0.00989484 0.00696152 -0.00342971 0.012712 0.00762486 0.00187788
internal_weight=0 377 357 337 102 70 120 61 59 235 207 50 187 160 57 103 81 61
internal_count=497 377 357 337 102 70 120 61 59 235 207 50 187 160 57 103 81 61
is_linear=0
shrinkage=0.05


Tree=39
num_leaves=18
num_cat=0
split_feature=3 3 24 0 18 4 1 24 8 3 8 16 1 8 16 0 15
split_gain=12.0825 16.1219 33.3008 11.9536 10.704 7.80324 6.23022 6.0389 5.18598 8.39003 4.74189 4.72642 4.96547 4.51382 2.88258 1.53224 1.06447
threshold=16.500000000000004 122.50000000000001 1.8318817962142571 45.581815352318372 94.310881571282962 48.500000000000007 45.474345782045894 2.803389398572885 0.27570881226053645 201.50000000000003 0.23111161835197447 0.79791463017269482 41.917394717364594 0.32046827169686448 0.79557886719290971 55.59693651376147 8.4958284638358688
decision_type=2 2 2 2 2 2 10 2 2 2 2 2 10 2 2 2 2
left_child=-1 2 -2 -4 5 -3 8 -5 9 -7 -11 -12 -13 14 -10 -16 -17
right_child=1 4 3 7 -6 6 -8 -9 13 10 11 12 -14 -15 15 16 -18
leaf_value=0.029553768134886221 0.025167220538215979 -0.016035958479803342 -0.067981171142309907 -0.041419674471641584 -0.02304836230254487 -0.02103267970838045 0.031644137542694808 -0.0047049959323235925 0.034227060526609419 0.024895440930357348 -0.012494486418712002 -0.0065131178963929422 0.02755166582115319 -0.0044834879072498425 0.0041306647437590145 0.027794932173565032 0.012318940233439208
leaf_weight=31 28 39 24 24 38 38 25 21 22 26 38 20 23 28 27 20 25
leaf_count=31 28 39 24 24 38 38 25 21 22 26 38 20 23 28 27 20 25
internal_value=0 -0.00268315 -0.0208221 -0.0394844 0.00208508 0.0049705 0.00777615 -0.0242862 0.00554132 -0.000850517 0.00631698 0.000353524 0.0117076 0.0131382 0.0183872 0.0135472 0.0191972
internal_weight=0 466 97 69 369 331 292 45 267 145 107 81 43 122 94 72 45
internal_count=497 466 97 69 369 331 292 45 267 145 107 81 43 122 94 72 45
is_linear=0
shrinkage=0.05


Tree=40
num_leaves=17
num_cat=0
split_feature=8 19 24 18 21 0 3 19 16 1 19 0 5 19 19 17
split_gain=32.9479 14.8615 13.438 13.5473 15.3524 9.34758 7.60098 11.1387 15.4427 15.0717 4.08713 4.40076 3.09309 3.21825 4.89627 4.97823
threshold=0.13312236286919835 5.3904761904761918 1.8132020249960452 79.829111645299164 0.49463726680296455 65.9287780112045 201.50000000000003 10.593406593406595 0.86038777606574224 43.950381927975528 16.633333333333336 60.53245477056803 6.5000000000000009 12.779352226720649 8.1455026455026474 0.30443330897449289
decision_type=2 2 2 2 2 2 2 2 2 10 2 2 2 2 2 2
left_child=-1 -2 5 -4 -5 -3 7 8 -6 -9 11 12 -8 14 -14 -16
right_child=1 2 3 4 6 -7 10 9 -10 -11 -12 -13 13 -15 15 -17
leaf_value=-0.052691762811607791 -0.036888610624841285 0.044847161163176809 0.039128081407397985 -0.029273889729563213 -0.043225111395997162 0.0019970503449440002 -0.011440933806200822 -0.01133181796585386 0.0074244581369890114 0.038342645621070495 0.026663947394990829 0.028296900859900883 0.0239736981340684 0.022797706522620642 0.0063656937625063102 -0.023521144451065498
leaf_weight=27 21 35 24 39 34 20 27 37 27 26 32 21 20 26 38 22
leaf_count=27 21 35 24 39 34 20 27 37 27 26 32 21 20 26 38 22
internal_value=0 0.00417814 0.00619309 0.00279102 0.0002922 0.0292653 0.00401181 -0.00557711 -0.0208064 0.00916875 0.0104044 0.00702581 0.00366722 0.00751552 0.00254881 -0.00459281
internal_weight=0 449 428 373 349 55 310 124 61 63 186 154 133 106 80 60
internal_count=476 449 428 373 349 55 310 124 61 63 186 154 133 106 80 60
is_linear=0
shrinkage=0.05


Tree=41
num_leaves=20
num_cat=0
split_feature=8 19 24 18 11 24 4 25 14 11 25 1 24 4 4 9 13 10 18
split_gain=29.7355 13.6237 9.33551 10.7165 15.2793 7.88192 7.12477 7.03073 10.0642 7.34967 6.02321 5.85766 5.73071 6.63777 5.59231 5.4571 3.16097 3.14612 1.33536
threshold=0.13312236286919835 6.8192934782608701 1.8132020249960452 92.961861316365642 2.6378203573449759 1.9203028329534355 63.500000000000007 14056.777036199097 0.076904121403782597 4.3652136752136759 13081.960626185961 43.415653131292238 2.6580882352941182 101.50000000000001 65.500000000000014 0.61386010938681146 0.57741674614849103 2.4017233319708393 85.661652695561045
decision_type=2 2 2 2 2 2 2 2 2 2 2 10 2 2 2 2 2 10 2
left_child=-1 5 14 4 -4 -2 7 8 -6 -10 12 -7 13 -8 -3 -5 -12 18 -14
right_child=1 2 3 15 6 11 10 -9 9 -11 16 -13 17 -15 -16 -17 -18 -19 -20
leaf_value=-0.050057175120821709 0.0083427036181092269 0.048505230434238912 0.043078306832882975 -0.038035978791303937 0.017482083142650397 -0.0098605603910982623 -0.016430264598001603 0.020393023648787114 -0.037754735054776951 -0.0043689560785423968 0.007917797028910302 -0.046859331599072268 0.025274936482310297 0.022955235710833223 0.013337621365029079 -0.0015422533842779343 -0.01985680300742388 0.014320423481005588 0.043546199165284634
leaf_weight=27 20 20 28 20 22 20 23 21 34 32 21 23 20 20 26 21 20 38 20
leaf_count=27 20 20 28 20 22 20 23 21 34 32 21 23 20 20 26 21 20 38 20
internal_value=0 0.00396923 0.00748784 0.00462771 0.00791481 -0.0175892 0.00428169 -0.00560191 -0.0118052 -0.0215677 0.0109318 -0.0296506 0.0165439 0.00188857 0.0286279 -0.0193441 -0.00563079 0.0246231 0.0344106
internal_weight=0 449 386 340 299 63 271 109 88 66 162 43 121 43 46 41 41 78 40
internal_count=476 449 386 340 299 63 271 109 88 66 162 43 121 43 46 41 41 78 40
is_linear=0
shrinkage=0.05


Tree=42
num_leaves=19
num_cat=0
split_feature=8 19 24 4 14 24 3 14 3 11 6 6 16 3 16 17 25 8
split_gain=26.8363 12.8178 11.0211 14.8895 9.99258 10.7173 9.62621 10.3075 8.32986 8.85391 5.58176 8.27134 3.53268 5.76376 3.05977 2.1777 1.74272 1.58432
threshold=0.13312236286919835 5.3904761904761918 1.8132020249960452 61.500000000000007 0.3816447857319793 4.9007352941176476 165.50000000000003 0.42291906682027652 201.50000000000003 2.6378203573449759 11.526521590242499 14.110981871196755 0.79281022753929176 287.50000000000006 0.86813909774436104 0.25905629458261042 6829.9578870673968 0.26703373220548798
decision_type=2 2 2 2 2 2 2 2 2 2 2 2 2 2 2 2 2 2
left_child=-1 -2 3 -3 5 8 -6 -8 9 -4 16 -12 13 -10 17 -15 -11 -14
right_child=1 2 4 -5 6 -7 7 -9 12 10 11 -13 14 15 -16 -17 -18 -19
leaf_value=-0.047554314715994729 -0.034367917211992401 0.058398659290237867 0.018398311986987079 0.0052952482731956421 -0.043266599415801466 0.038793683021018904 -0.032094048764556647 0.012251982029671413 -0.013268241045686106 -0.03813417969271541 0.014534447592651024 -0.027262256359681488 0.036349193126495392 0.0037641720660030842 0.0054779100729602168 0.026817618971247049 -0.017261255644261838 0.018781200468991746
leaf_weight=27 21 22 28 33 20 24 20 38 30 20 29 20 21 20 29 21 20 33
leaf_count=27 21 22 28 33 20 24 20 38 30 20 29 20 21 20 29 21 20 33
internal_value=0 0.00377077 0.00564206 0.0265366 0.00256109 0.00676924 -0.0133543 -0.00303975 0.00393312 -0.00612395 -0.0138388 -0.00252543 0.0115739 0.003386 0.018578 0.015572 -0.0276977 0.0256132
internal_weight=0 449 428 55 373 295 78 58 271 117 89 49 154 71 83 41 40 54
internal_count=476 449 428 55 373 295 78 58 271 117 89 49 154 71 83 41 40 54
is_linear=0
shrinkage=0.05


Tree=43
num_leaves=17
num_cat=0
split_feature=8 19 24 4 1 11 3 19 24 24 17 10 3 1 24 0
split_gain=24.2198 11.5681 9.94652 13.4377 9.49035 10.2936 15.2437 7.33507 11.0605 6.56663 5.39028 8.27529 7.91801 5.78653 3.15162 1.91496
threshold=0.13312236286919835 5.3904761904761918 1.8132020249960452 61.500000000000007 46.253305656560038 2.7987854251012148 203.50000000000003 12.421717171717175 3.4739870534643975 3.1596460176991155 0.25905629458261042 2.4017233319708393 437.50000000000006 41.372499195914109 2.9134707666321167 52.447073257467999
decision_type=2 2 2 2 10 2 2 2 2 2 2 10 2 10 2 2
left_child=-1 -2 3 -3 5 9 7 8 -7 -4 12 -12 13 -8 15 -13
right_child=1 2 4 -5 -6 6 10 -9 -10 -11 11 14 -14 -15 -16 -17
leaf_value=-0.04517660058206982 -0.032649520828965162 0.055478726818480276 0.010479717749533142 0.0050304858747756845 -0.0302196020437848 -0.044023258394251273 0.0045508562781227139 0.0013074852379136965 0.00097629433836449284 0.045152807091786103 0.044522193595767028 0.027296443462061389 0.020172832433686214 -0.0291915991516025 -0.002047923276519501 0.0092559404524141242
leaf_weight=27 21 22 36 33 21 36 24 38 22 22 20 24 27 27 38 38
leaf_count=27 21 22 36 33 21 36 24 38 22 22 20 24 27 27 38 38
internal_value=0 0.00358223 0.00535995 0.0252098 0.00243304 0.00438106 0.000583342 -0.0157674 -0.0269545 0.0236316 0.008511 0.0151622 -0.00172162 -0.0133128 0.00929019 0.0162394
internal_weight=0 449 428 55 373 352 294 96 58 58 198 120 78 51 100 62
internal_count=476 449 428 55 373 352 294 96 58 58 198 120 78 51 100 62
is_linear=0
shrinkage=0.05


Tree=44
num_leaves=20
num_cat=0
split_feature=8 19 15 3 15 4 24 18 1 19 5 24 8 11 16 12 1 13 1
split_gain=21.8583 11.1988 8.25289 12.6746 8.7277 8.02896 6.93577 6.53071 4.64959 4.49711 6.44842 7.02382 4.83534 4.0325 5.09469 4.81188 3.23016 2.77383 1.98483
threshold=0.13312236286919835 6.8192934782608701 11.997815783462771 108.50000000000001 8.5282567854469935 49.500000000000007 1.9203028329534355 87.866506956083569 43.415653131292238 10.346153846153848 7.5000000000000009 2.4684173441734423 0.27326460481099663 3.273814393301413 0.73430852460738494 51.770395588235296 43.972406310307882 3.0571856885478748 42.413940073858235
decision_type=2 2 2 2 2 2 2 2 10 2 2 2 2 2 2 2 10 2 10
left_child=-1 6 3 4 -3 7 -2 -5 -8 10 -7 -12 -13 16 -15 18 -11 -17 -16
right_child=1 2 -4 5 -6 9 8 -9 -10 13 11 12 -14 14 15 17 -18 -19 -20
leaf_value=-0.042917769595428756 0.0081829996407032004 0.012249728847694185 -0.020065807631773944 -0.032972910313907526 0.058401369648054251 -0.021468479673449808 -0.0098254467174410821 0.0051320276815782894 -0.042788892816347276 0.012892945815942117 0.028994830024428667 -0.022441254248842597 0.0099953656567743545 -0.0087634119085006189 0.014864604007452726 -0.0086774217511486739 0.040625343684639249 0.013805033393231603 0.035997185200452801
leaf_weight=27 20 21 27 23 20 26 20 22 23 21 25 20 27 31 20 23 21 34 25
leaf_count=27 20 21 27 23 20 26 20 22 23 21 25 20 27 31 20 23 21 34 25
internal_value=0 0.00340312 0.00659325 0.00859824 0.0347627 0.00522484 -0.0161428 -0.0143438 -0.0274571 0.00845044 -0.000125101 0.00758223 -0.00380745 0.0132527 0.00898757 0.0143825 0.0267591 0.00473317 0.0266049
internal_weight=0 449 386 359 41 318 63 45 43 273 98 72 47 175 133 102 42 57 45
internal_count=476 449 386 359 41 318 63 45 43 273 98 72 47 175 133 102 42 57 45
is_linear=0
shrinkage=0.05


Tree=45
num_leaves=19
num_cat=0
split_feature=16 18 19 15 17 3 12 5 25 18 25 8 17 25 17 5 8 19
split_gain=15.1294 16.5591 14.076 11.8827 8.28367 10.5431 10.5012 7.6976 7.43685 6.69209 5.08598 3.7345 3.59186 3.64309 3.04476 3.01459 2.81969 1.8698
threshold=0.61309523809523825 74.407148426622129 5.2636363636363646 11.997815783462771 0.37738994019021477 247.50000000000003 51.021666436527674 4.5000000000000009 3058.0823235923031 94.471138450344924 16629.89908247631 0.23727351164797242 0.33419243986254299 12546.79123071078 0.41807528409090916 6.5000000000000009 0.3021405677655678 13.960000000000003
decision_type=2 2 2 2 2 2 2 2 2 2 2 2 2 2 2 2 2 2
left_child=-1 -2 -3 4 5 7 -6 -4 -9 10 11 -8 13 16 -13 -10 17 -7
right_child=1 2 3 -5 6 12 9 8 15 -11 -12 14 -14 -15 -16 -17 -18 -19
leaf_value=-0.041708435509353881 0.047208650521934035 -0.036541087642156828 -0.03795352144085843 -0.029835613324450186 0.048006820743903521 0.016671345798919598 0.039014168087901042 -0.02427201116224751 0.018402448024314184 -0.010354973319353479 -0.0066885508969426162 0.00079138512297978871 -0.010307963117957116 -0.0022203119287010414 0.02480172672639451 -0.0056751209902218902 0.0036006442863832817 0.035620132752734686
leaf_weight=20 20 24 23 26 20 30 22 32 26 33 20 23 20 29 31 26 22 23
leaf_count=20 20 24 23 26 20 30 22 32 26 33 20 23 20 29 31 26 22 23
internal_value=0 0.00273516 0.00066663 0.0028661 0.00510359 -0.000825349 0.0142954 -0.0123245 -0.00530707 0.00906885 0.0157458 0.0216496 0.00909733 0.0128291 0.0145751 0.00636366 0.0186482 0.0248944
internal_weight=0 450 430 406 380 231 149 107 84 129 96 76 124 104 54 52 75 53
internal_count=470 450 430 406 380 231 149 107 84 129 96 76 124 104 54 52 75 53
is_linear=0
shrinkage=0.05


Tree=46
num_leaves=18
num_cat=0
split_feature=14 18 1 11 19 18 17 3 0 14 24 11 8 9 0 9 14
split_gain=13.5206 12.3789 20.8012 7.63918 12.7486 9.31538 14.0721 10.2004 6.74738 4.33596 3.81899 3.08339 3.49964 3.50217 4.55081 4.20134 0.618958
threshold=0.55202702702702722 74.407148426622129 37.204744140163932 1.8849828515433613 6.7207792207792219 94.471138450344924 0.38801834130781504 163.50000000000003 46.676158906251779 0.17873898151004045 2.3797010607521702 3.273814393301413 0.23111161835197447 0.59702963071084525 48.705756736606673 0.73139602341648657 0.20836741325027172
decision_type=2 2 10 2 2 2 2 2 2 2 2 2 2 2 2 2 2
left_child=1 -1 -3 -4 10 6 7 8 -6 -8 -5 -9 -13 -14 -15 -16 -17
right_child=-2 2 3 4 5 -7 9 11 -10 -11 -12 12 13 14 15 16 -18
leaf_value=0.039296756549315026 -0.036584186335296739 -0.047685460888204127 0.033481081761419777 -0.0078628706745803353 -0.039169937372207642 -0.02097556141595687 0.04249439085552726 -0.0089745810112127882 -0.00043806351073410197 0.016965270056747472 -0.036703603460531059 0.029159493274055422 -0.0080667321239748305 0.02690621986112092 -0.0078768825243428556 0.0090980013525695548 0.020463464295734531
leaf_weight=22 23 21 20 22 22 31 29 26 23 39 24 20 31 32 37 25 23
leaf_count=22 23 21 20 22 22 31 29 26 23 39 24 20 31 32 37 25 23
internal_value=0 0.00272541 0.000832306 0.00335427 0.00178516 0.00514607 0.00778376 0.00207377 -0.0193736 0.0278527 -0.0229102 0.00704869 0.00952848 0.00687564 0.0108347 0.00478429 0.014544
internal_weight=0 447 425 404 384 338 307 239 45 68 46 194 168 148 117 85 48
internal_count=470 447 425 404 384 338 307 239 45 68 46 194 168 148 117 85 48
is_linear=0
shrinkage=0.05


Tree=47
num_leaves=17
num_cat=0
split_feature=16 9 18 13 1 19 24 3 15 21 21 0 6 18 8 19
split_gain=13.5253 15.7798 11.8215 14.373 13.761 10.0879 7.69144 10.1877 6.96645 5.69512 6.34741 5.35998 6.19894 7.42609 4.95745 2.88065
threshold=0.61309523809523825 0.41031880378050506 94.471138450344924 15.639083156278128 44.482529418230271 6.7207792207792219 2.067053737921682 127.50000000000001 8.9860547667342825 0.60059523809523818 0.55740689528023613 47.768349583542843 13.138484105505674 87.048929184901809 0.271564058539776 9.9736842105263168
decision_type=2 2 2 2 10 2 2 2 2 2 2 2 2 2 2 2
left_child=-1 -2 3 5 -4 8 -7 -8 -3 10 -9 -11 13 -13 -15 -14
right_child=1 2 4 -5 -6 6 7 9 -10 11 -12 12 15 14 -16 -17
leaf_value=-0.039471699199639262 0.042892436100089033 -0.00066679941320961175 -0.047626400710298472 0.044897023094817995 0.001345524995122105 0.027374501932751052 -0.023787023116122276 0.0037615846747007125 -0.040022428260873197 0.028836166999873614 -0.030883922879584136 0.014937333028930695 0.031070806617262189 0.00062763320025185064 -0.029439701670064378 0.0077531758283909697
leaf_weight=20 23 22 26 20 32 33 34 39 23 31 20 39 27 29 26 26
leaf_count=20 23 22 26 20 32 33 34 39 23 31 20 39 27 29 26 26
internal_value=0 0.00254981 0.00037679 0.00367512 -0.0206074 0.00131283 0.00458343 0.00180814 -0.0207819 0.00548002 -0.00798266 0.00994236 0.00595796 -0.00175186 -0.013586 0.019632
internal_weight=0 450 427 369 58 349 304 271 45 237 59 178 147 94 55 53
internal_count=470 450 427 369 58 349 304 271 45 237 59 178 147 94 55 53
is_linear=0
shrinkage=0.05


Tree=48
num_leaves=19
num_cat=0
split_feature=16 9 14 19 6 3 15 24 4 18 16 19 17 17 4 1 13 15
split_gain=12.2066 14.2412 10.8774 8.83358 9.23284 11.9789 14.5726 11.0224 8.25038 8.88732 6.33426 4.00263 3.92502 4.19008 3.10811 4.30803 4.23265 2.72912
threshold=0.61309523809523825 0.41031880378050506 0.5337121212121213 5.3904761904761918 12.140619282136067 247.50000000000003 10.088682047560381 2.7820185677832678 30.500000000000004 94.471138450344924 0.77823315118397096 15.628787878787881 0.30443330897449289 0.23728389444949957 48.500000000000007 44.291749536450489 8.1303166248880405 8.2571628317715753
decision_type=2 2 2 2 2 2 2 2 2 2 2 2 2 2 2 10 2 2
left_child=-1 -2 3 -3 5 6 7 -5 -6 14 -9 12 13 -7 -10 16 -16 -18
right_child=1 2 -4 4 8 11 -8 10 9 -11 -12 -13 -14 -15 15 -17 17 -19
leaf_value=-0.037498115990310908 0.040747814301563351 -0.024973789223336748 -0.035641918424516916 0.025457886625081302 0.042744587045162923 -0.0052678672468353966 -0.053365431300231393 -0.037610649884394977 -0.0035064219896282466 -0.01745166927576065 -0.00089109176842612221 0.024327931339266126 -0.014923285610469371 0.020432429395483009 -0.0030625237947485102 0.035250872029707982 0.0076594626692974054 0.030722691606858685
leaf_weight=20 23 28 20 20 20 29 21 23 21 27 24 27 24 35 30 26 23 29
leaf_count=20 23 28 20 20 20 29 21 23 21 27 24 27 24 35 30 26 23 29
internal_value=0 0.00242232 0.00035795 0.00212699 0.00412915 -0.00313737 -0.0170221 -0.00563095 0.0125104 0.00863425 -0.0188602 0.0074875 0.00232055 0.00878698 0.0140941 0.0175164 0.0118933 0.0205216
internal_weight=0 450 427 407 379 203 88 67 176 156 47 115 88 64 129 108 82 52
internal_count=470 450 427 407 379 203 88 67 176 156 47 115 88 64 129 108 82 52
is_linear=0
shrinkage=0.05


Tree=49
num_leaves=19
num_cat=0
split_feature=18 1 15 11 19 16 17 4 5 17 8 18 19 16 16 6 1 16
split_gain=11.0171 19.7046 9.03467 6.81501 10.6977 7.39254 6.31471 8.38382 7.87925 5.87686 5.97531 4.81796 2.98423 2.80819 4.20207 3.92993 2.69798 2.24697
threshold=74.407148426622129 37.204744140163932 11.997815783462771 1.9035359801488836 6.7207792207792219 0.85113886212604084 0.37738994019021477 55.500000000000007 4.5000000000000009 0.44647693653902254 0.25471772757843103 92.961861316365642 14.725563909774438 0.82796951394880658 0.79358009035428401 7.7322016393994533 42.647855950068177 0.88581016299137116
decision_type=2 10 2 2 2 2 2 2 2 2 2 2 2 2 2 2 10 2
left_child=-1 -2 3 -3 5 -5 8 -8 -6 10 -9 12 13 14 15 -10 -14 -15
right_child=1 2 -4 4 6 -7 7 9 11 -11 -12 -13 16 17 -16 -17 -18 -19
leaf_value=0.033687583170831203 -0.046158910915255549 0.030419672263616866 -0.025085673816502098 -0.043464088300243023 -0.024927139392605536 -0.0036631502610232148 0.040600233286619186 0.038791503179818394 0.020424787311450296 -0.010442659348763268 0.0021248256200924517 -0.018762033911687986 0.0048734231883744627 0.021743856254464913 -0.019665796707536525 -0.0070463109295815229 0.029114473378285766 0.00071739802757898972
leaf_weight=24 23 22 30 20 27 28 25 20 23 29 25 21 22 27 26 30 24 24
leaf_count=24 23 22 30 20 27 28 25 20 23 29 25 21 22 27 26 30 24 24
internal_value=0 -0.00108839 0.00136225 0.00338117 0.00177781 -0.0202469 0.00505083 0.0155669 0.00040312 0.00710964 0.0184211 0.00387478 0.00657576 0.00270286 -0.00320164 0.00487511 0.0175209 0.0118491
internal_weight=0 446 423 393 371 48 323 99 224 74 45 197 176 130 79 53 46 51
internal_count=470 446 423 393 371 48 323 99 224 74 45 197 176 130 79 53 46 51
is_linear=0
shrinkage=0.05


Tree=50
num_leaves=19
num_cat=0
split_feature=16 18 10 14 19 5 14 1 18 16 25 25 21 16 13 3 25 4
split_gain=12.9158 13.7037 9.43751 9.25605 7.86617 8.87594 7.51099 6.70118 6.18932 5.1694 4.50538 7.50779 4.39663 2.78242 3.59306 2.30275 2.872 1.793
threshold=0.61309523809523825 92.351415579790583 5.3412876311839916 0.11696306429548566 7.7371794871794881 7.5000000000000009 0.37155499367888756 44.597137140543602 94.978895613556787 0.82462278964975766 190.91390116962341 3058.0823235923031 0.72808865891390173 0.79176547231270378 -6.971327363296985 275.00000000000006 5738.9598136645973 74.500000000000014
decision_type=2 2 8 2 2 2 2 10 2 2 2 2 2 2 2 2 2 2
left_child=-1 2 4 -3 5 -2 8 9 17 10 -6 -12 -11 14 -13 16 -14 -5
right_child=1 3 -4 6 7 -7 -8 -9 -10 12 11 13 15 -15 -16 -17 -18 -19
leaf_value=-0.038900357889740361 -0.037176175927743318 -0.042477695884493488 0.037381620953480403 -0.019238844082098118 0.012854648793511321 0.0030483079695841301 -0.026992614150923844 0.029602524691394402 0.022870446514824165 0.030047648597078831 -0.035780983380973345 -0.0055046868059904349 -0.015040872974786908 -0.016469669524979379 0.02167793042957783 0.018020103964954615 0.011433748826606289 0.0011866740172817595
leaf_weight=23 24 24 21 22 33 32 34 28 23 26 20 31 20 21 20 24 21 21
leaf_count=23 24 24 21 22 33 32 34 28 23 26 20 31 20 21 20 24 21 21
internal_value=0 -0.000475683 0.00497772 -0.014593 0.00270945 -0.0141908 -0.00790063 0.00658819 0.00193463 0.00360485 -0.00299493 -0.0086801 0.0126705 -0.00115208 0.00515516 0.0057196 -0.0014807 -0.00926359
internal_weight=0 445 321 124 300 56 100 244 66 216 125 92 91 72 51 65 41 43
internal_count=468 445 321 124 300 56 100 244 66 216 125 92 91 72 51 65 41 43
is_linear=0
shrinkage=0.05


Tree=51
num_leaves=19
num_cat=0
split_feature=8 18 5 0 3 13 18 8 5 25 19 4 4 5 21 4 14 9
split_gain=12.6809 26.6862 27.1655 9.03619 7.18657 5.03173 7.7557 15.4601 6.83846 5.38501 5.32342 5.44133 3.82329 4.13608 3.46802 3.41863 2.28218 1.39931
threshold=0.19915611814345993 86.574830806870565 5.5000000000000009 39.388273480949465 272.50000000000006 15.305725037601812 92.351415579790583 0.22798719568213141 7.5000000000000009 4177.3072536990267 12.779352226720649 48.500000000000007 85.500000000000014 7.5000000000000009 0.65698471270426995 69.500000000000014 0.3532821824381927 0.70033259423503336
decision_type=2 2 2 2 2 2 2 2 2 2 2 2 2 2 2 2 2 2
left_child=1 -1 -3 4 -2 6 7 -5 9 -8 11 -9 13 -13 -12 -15 -14 -16
right_child=3 2 -4 5 -6 -7 8 10 -10 -11 14 12 16 15 17 -17 -18 -19
leaf_value=0.023914916932582856 -0.037237403638660911 -0.077462894961237913 -0.0096171550452709212 0.045650881464066713 0.0024387886126836142 0.023697011877271919 -0.043727560453116897 -0.025472589606500191 0.00890351552516222 -0.0074756715801500145 0.029381572487561597 0.027423237018021091 -0.018356104121254435 -0.012341243968694472 -0.0042971227574162187 0.01528279908511433 0.0027342268873168079 0.012370307833257625
leaf_weight=25 25 25 36 23 21 31 20 23 23 21 23 21 29 24 20 21 23 34
leaf_count=25 25 25 36 23 21 31 20 23 23 21 23 21 29 24 20 21 23 34
internal_value=0 -0.0195921 -0.0374228 0.00165929 -0.0191244 0.00450467 0.00255398 0.00666275 -0.0129181 -0.0251595 0.00254932 -0.00322463 0.00111184 0.00910056 0.0131224 0.000549976 -0.00902769 0.00619719
internal_weight=0 86 61 382 46 336 305 241 64 41 218 141 118 66 77 45 52 54
internal_count=468 86 61 382 46 336 305 241 64 41 218 141 118 66 77 45 52 54
is_linear=0
shrinkage=0.05


Tree=52
num_leaves=18
num_cat=0
split_feature=8 3 5 0 9 3 12 25 13 25 25 24 6 24 21 11 6
split_gain=11.4445 10.8637 15.4785 8.15517 6.73639 6.48588 4.64675 6.61092 11.1789 8.05104 6.38811 5.74463 5.25059 4.30135 2.9505 2.11144 2.98867
threshold=0.19915611814345993 16.500000000000004 5.5000000000000009 39.388273480949465 0.55983895076908252 272.50000000000006 44.707457676369522 5738.9598136645973 -2.2819479853590496 2005.9945278611947 11134.553487137127 2.803389398572885 16.969520178441751 3.3843599033816427 0.7336194563662376 3.3170881226053646 10.393938864986808
decision_type=2 2 2 2 2 2 2 2 2 2 2 2 2 2 2 2 2
left_child=1 -1 -3 5 -4 -2 -5 8 -8 12 11 -9 15 14 -12 -10 -17
right_child=3 2 4 6 -6 -7 7 10 9 -11 13 -13 -14 -15 -16 16 -18
leaf_value=0.012652391425910452 -0.035375533726066354 -0.060604126118899641 0.0097330002912453251 0.02240272014460061 -0.030813269056379794 0.0023168491997889113 -0.036646706673174934 0.03980130468096052 0.026413254164159301 -0.018549226305614681 -0.013267554852586145 0.0056587854569608515 -0.01149900201931954 0.018833803056083898 0.010353365875780583 0.02033386196209384 -0.0029808206259514447
leaf_weight=21 25 24 21 32 20 21 23 28 25 39 39 22 26 27 20 28 27
leaf_count=21 25 24 21 32 20 21 23 28 25 39 39 22 26 27 20 28 27
internal_value=0 -0.0186125 -0.0287134 0.00157633 -0.0100457 -0.0181681 0.00427944 0.00237172 -0.00426233 0.000874507 0.0105667 0.0247786 0.00802097 0.00230402 -0.00526046 0.014365 0.00888847
internal_weight=0 86 65 382 41 46 336 304 168 145 136 50 106 86 59 80 55
internal_count=468 86 65 382 41 46 336 304 168 145 136 50 106 86 59 80 55
is_linear=0
shrinkage=0.05


Tree=53
num_leaves=18
num_cat=0
split_feature=16 13 9 8 12 15 19 6 19 25 1 25 16 8 3 11 25
split_gain=10.594 11.0259 16.103 9.39138 9.81711 7.38129 6.12059 6.71929 4.85938 7.07212 8.38195 7.89497 8.80904 2.87053 2.18754 2.10585 2.03927
threshold=0.61309523809523825 -20.206317780343781 0.48803418803418808 0.19694543999126751 56.501236803329128 11.642000095606866 6.7207792207792219 6.6961972398261915 14.47916666666667 4762.8321787893792 43.182315551134799 11134.553487137127 0.83492855834401913 0.30397807538000793 275.00000000000006 3.1920179727765299 -60750.104850516254
decision_type=2 2 2 2 2 2 2 2 2 2 10 2 2 2 2 2 2
left_child=-1 -2 -3 4 -4 6 -5 -8 9 10 14 15 -13 -10 -9 -11 -12
right_child=1 2 3 5 -6 -7 7 8 13 11 16 12 -14 -15 -16 -17 -18
leaf_value=-0.035116681035446087 0.035964091466739775 -0.035567976400312604 0.0049068480730056763 -0.018769709223552661 -0.042524740255127355 0.026837791694748786 -0.018283620655476566 -0.0019391952510419731 0.028897671412789462 0.040822006892412901 -0.013085837569087745 -0.019861124043485948 0.018268557253053808 0.0048918090586084874 0.018265478069051391 0.017877236241474748 -0.035664953850209714
leaf_weight=23 20 33 20 34 24 31 31 37 33 20 20 28 33 20 21 20 20
leaf_count=23 20 33 20 34 24 31 31 37 33 20 20 28 33 20 21 20 20
internal_value=0 -0.00031664 -0.00202397 0.000799889 -0.0209649 0.00355176 0.00127458 0.00368273 0.00638494 0.00280173 -0.00676726 0.0120865 0.000766408 0.0198389 0.00537629 0.0293496 -0.0243754
internal_weight=0 445 425 392 44 348 317 283 252 199 98 101 61 53 58 40 40
internal_count=468 445 425 392 44 348 317 283 252 199 98 101 61 53 58 40 40
is_linear=0
shrinkage=0.05


Tree=54
num_leaves=19
num_cat=0
split_feature=16 13 9 8 12 15 19 11 19 25 1 11 11 25 6 6 16 14
split_gain=9.56112 9.95085 14.533 8.47572 8.85995 6.66162 5.52383 6.0688 4.34964 4.08368 7.82467 7.15614 4.85485 4.3908 3.17635 3.122 2.55172 2.90215
threshold=0.61309523809523825 -20.206317780343781 0.48803418803418808 0.19694543999126751 56.501236803329128 11.642000095606866 6.7207792207792219 6.9685881771106084 15.788888888888891 4762.8321787893792 43.031469491989867 4.6178943741477658 3.273814393301413 8484.7238024151648 16.875968840150289 13.361835079058269 0.85138996138996148 0.20707508439011041
decision_type=2 2 2 2 2 2 2 2 2 2 10 2 2 2 2 2 2 2
left_child=-1 -2 -3 4 -4 6 -5 8 9 10 16 13 -12 -11 15 -15 -8 -18
right_child=1 2 3 5 -6 -7 7 -9 -10 11 12 -13 -14 14 -16 -17 17 -19
leaf_value=-0.033360846713185309 0.034165887311100963 -0.033789577295608594 0.0046615049242973326 -0.017831223269047982 -0.040398503413113462 0.025495902460909659 0.022676451611332596 -0.020554587772736947 0.021353576056610205 0.03430856056511402 -0.033578220726205754 -0.015817212114449253 -0.0016642886975949461 0.013620998352766037 0.025391499219196187 -0.012882761597866194 -0.012739048577786889 0.013874168871414095
leaf_weight=23 20 33 20 34 24 31 20 24 38 24 26 22 22 25 21 20 20 21
leaf_count=23 20 33 20 34 24 31 20 24 38 24 26 22 22 25 21 20 20 21
internal_value=0 -0.000300808 -0.00192277 0.000759895 -0.0199167 0.00337417 0.00121085 0.00349859 0.00572746 0.00304061 -0.00384901 0.0097457 -0.018951 0.0159944 0.00933472 0.00184155 0.00803452 0.000892112
internal_weight=0 445 425 392 44 348 317 283 259 221 109 112 48 90 66 45 61 41
internal_count=468 445 425 392 44 348 317 283 259 221 109 112 48 90 66 45 61 41
is_linear=0
shrinkage=0.05


Tree=55
num_leaves=18
num_cat=0
split_feature=4 8 9 6 14 19 17 4 11 3 24 11 25 6 13 25 1
split_gain=20.7862 17.2501 10.1554 7.72754 7.4866 4.31063 3.41194 9.63252 8.69231 6.95114 3.38942 4.81993 2.56895 3.93763 2.1191 2.66201 2.34629
threshold=2.5000000000000004 0.13701201201201205 0.4841229838709678 6.5757913435241013 0.039135840285410554 6.3791866028708144 0.41410375893134516 61.500000000000007 2.4452794357026595 153.50000000000003 4.0446937821411888 6.0476950790141659 15627.072156250002 8.5874538523274495 7.6856114384635896 -130614.10301677488 44.050467098497357
decision_type=2 2 2 2 2 2 2 2 2 2 2 2 2 2 2 2 10
left_child=-1 -2 3 -3 -4 -6 9 -8 -9 -7 11 12 13 -11 15 -15 -17
right_child=1 2 4 -5 5 6 7 8 -10 10 -12 -13 -14 14 -16 16 -18
leaf_value=0.049382439681461887 -0.04468811770731753 -0.0033295562835755177 0.031682036783207544 -0.043770358253580832 -0.014530568026207589 -0.023090958828106523 0.031826883678634961 -0.025812535868449643 0.014522351439603988 0.025425048731267455 0.016944243431728529 -0.016740269510244783 -0.011645935972531636 0.012986746210266242 0.015648685613026223 -0.017101241943651233 0.0048438235296912142
leaf_weight=21 22 27 22 21 37 28 36 22 34 24 38 33 21 22 24 29 21
leaf_count=21 22 27 22 21 37 28 36 22 34 24 38 33 21 22 24 29 21
internal_value=0 -0.00148283 0.000682354 -0.0210224 0.00334688 0.00165752 0.00346161 0.0116484 -0.0013235 0.000323347 0.0034158 0.000461315 0.00448722 0.00731052 0.00278189 -0.00150705 -0.00788431
internal_weight=0 461 439 48 391 369 332 92 56 240 212 174 141 120 96 72 50
internal_count=482 461 439 48 391 369 332 92 56 240 212 174 141 120 96 72 50
is_linear=0
shrinkage=0.05


Tree=56
num_leaves=18
num_cat=0
split_feature=3 8 9 15 14 19 17 5 24 5 9 22 8 1 25 24 8
split_gain=18.1991 16.1555 10.4388 10.3058 4.95625 3.66792 10.5021 6.64046 6.07002 5.16859 4.31333 4.23309 4.12038 3.21073 2.86863 2.66974 2.83112
threshold=16.500000000000004 0.14714904366654641 0.4841229838709678 9.7763351298383174 0.039135840285410554 11.947860962566848 0.40751879699248122 7.5000000000000009 3.3132666735388105 9.5000000000000018 0.65471679938350891 0.3531532805429865 0.23425099206349209 42.840470659513947 2204.950274725275 2.803389398572885 0.25891412390198804
decision_type=2 2 2 2 2 2 2 2 2 2 2 2 2 10 2 2 2
left_child=-1 -2 3 -3 -4 7 8 12 15 -9 -10 14 -6 -14 -11 16 -7
right_child=1 2 4 -5 5 6 -8 9 10 11 -12 -13 13 -15 -16 -17 -18
leaf_value=0.037130241967679466 -0.045822438374161722 -0.04814168109248082 0.027109806705266238 -0.0010479902418760153 -0.026919602311681959 -0.013679438318940813 0.040452841704800013 0.02253462783410214 0.032529890384863723 0.017116469833999875 0.0015623172785600892 -0.018845661139736573 0.0063106197529123166 -0.015755673503393637 -0.0036892620934727231 -0.018738818093801717 0.010951194419924704
leaf_weight=32 20 21 20 26 32 20 21 32 22 30 23 24 32 34 37 28 28
leaf_count=32 20 21 20 26 32 20 21 32 22 30 23 24 32 34 37 28 28
internal_value=0 -0.00189421 0.000148964 -0.0220899 0.00287801 0.00154292 0.00781309 -0.00248587 0.00214834 0.00525044 0.016702 -0.000827522 -0.0121957 -0.00505686 0.00562674 -0.00646898 0.000688431
internal_weight=0 450 430 47 383 363 142 221 121 123 45 91 98 66 67 76 48
internal_count=482 450 430 47 383 363 142 221 121 123 45 91 98 66 67 76 48
is_linear=0
shrinkage=0.05


Tree=57
num_leaves=20
num_cat=0
split_feature=4 16 5 3 19 5 11 3 11 9 19 4 8 25 25 25 4 8 9
split_gain=17.3099 14.9166 5.2328 5.9362 6.76198 7.01814 5.69879 5.91483 4.51658 4.42303 3.6778 3.72231 3.15885 4.53533 10.3893 4.50894 3.34054 2.27262 4.49896
threshold=2.5000000000000004 0.63728332808068078 3.5000000000000004 51.500000000000007 7.7371794871794881 7.5000000000000009 2.130554732632203 146.50000000000003 2.9578488372093026 0.69789381307591059 8.602011494252876 110.50000000000001 0.25616934899231553 -82135.019050305869 8484.7238024151648 171.24679342934297 85.500000000000014 0.3106203007518798 0.65323515769944351
decision_type=2 2 2 2 2 2 2 2 2 2 2 2 2 2 2 2 2 2 2
left_child=-1 -2 -3 -4 5 -5 -6 8 -8 -7 -9 12 13 -12 -15 -14 17 18 -17
right_child=1 2 3 4 6 9 7 10 -10 -11 11 -13 15 14 -16 16 -18 -19 -20
leaf_value=0.045056804872694471 -0.038920686252415182 -0.022968849709088152 0.02862987053114921 -0.028201760537922383 -0.021755281277000906 -0.016332106068730354 0.037323072832077746 0.023350850720889868 0.0055714716513951624 0.01521439841389656 -0.027033355506137016 0.021583464313298467 0.020418274312490419 0.021848665270954373 -0.022044169822973865 0.027242562808429023 -0.018129628265033598 -0.0098568414549597295 -0.0025411831404198895
leaf_weight=21 25 22 20 37 20 20 24 20 21 25 24 20 31 26 28 21 23 22 32
leaf_count=21 25 22 20 37 20 20 24 20 21 25 24 20 31 26 28 21 23 22 32
internal_value=0 -0.00136054 0.00079314 0.00205585 0.00070692 -0.0120701 0.00406498 0.00583349 0.0225057 0.00119373 0.00279605 0.000985056 -0.00100513 -0.00894836 -0.000910583 0.00379776 -0.00145976 0.00365234 0.00925992
internal_weight=0 461 436 414 394 82 312 292 45 45 247 227 207 78 54 129 98 75 53
internal_count=482 461 436 414 394 82 312 292 45 45 247 227 207 78 54 129 98 75 53
is_linear=0
shrinkage=0.05


Tree=58
num_leaves=19
num_cat=0
split_feature=4 8 9 24 14 4 24 24 9 12 12 25 5 3 5 8 12 8
split_gain=15.6222 14.3685 7.63685 7.32224 6.21611 3.07669 3.64884 3.32282 3.9782 5.10198 7.64303 5.98484 4.93869 3.56866 4.72567 3.83568 2.18276 1.92658
threshold=2.5000000000000004 0.13701201201201205 0.4841229838709678 2.8884391028864531 0.039135840285410554 108.50000000000001 4.1516831578109672 3.5336893635959061 0.58847248576850109 55.539978130360211 52.696207169594011 2533.2843269230775 7.5000000000000009 146.50000000000003 5.5000000000000009 0.25891412390198804 52.452828931203939 0.25398190045248875
decision_type=2 2 2 2 2 2 2 2 2 2 2 2 2 2 2 2 2 2
left_child=-1 -2 3 -3 -4 6 7 8 -6 10 11 -10 13 14 -11 -15 -8 -14
right_child=1 2 4 -5 5 -7 16 -9 9 12 -12 -13 17 15 -16 -17 -18 -19
leaf_value=0.042803963876905896 -0.040724310473623598 0.0040050643008379709 0.028813376887278128 -0.035360912588873396 0.015036290566864853 0.016271081339073134 0.0035811093976148047 -0.017220891127362848 0.015795936736349877 0.023184549843981155 -0.034780563090820442 -0.015685480498036166 0.027932425737380986 -0.030013069259002809 -0.010775535218417646 -7.3419535613578307e-05 0.025552146853879094 0.0078981640205408148
leaf_weight=21 22 21 22 27 37 32 26 32 26 21 26 36 20 20 20 23 20 30
