tree
version=v4
num_class=1
num_tree_per_iteration=1
label_index=0
max_feature_idx=15
objective=regression
feature_names=total_submissions scored_rate code_run_rate score_mean score_std active_days submissions_per_day excellent_rate zero_score_rate unique_problems unique_assignments avg_wrong_cases avg_attempts improvement_rate problem_solving_efficiency learning_intensity
feature_infos=[1:1022] [0.076899999999999996:1] [0:1] [0:100] [0:70.710700000000003] [0:364.89599537037037] [1:42.142857142857146] [0:1] [0:1] [1:131] [1:23] [0:23.5] [1:16.4115] [0:0.5] [0:90.909099999999995] [0.053900000000000003:348.42610000000002]
tree_sizes=1623 1635 1801 1631 1549 1626 1625 1711 1626 1648 1565 1724 1810 1645 1641 1558 1643 1644 1555 1638 1723 1722 1637 1638 1649 1728 1644 1729 1643 1643 1642 1722 1561 1886 1733 1884 1656 1548 1735 1569 1736 1816 1822 1727 1646 1900 1814 1902 1649 1649 1814 1737 1737 1732 1731 1747 1571 1817 1742 1734 1735 1817 1736 1656 1656 1659 1729 1815 1746 1908 1831 1738 1656 1652 1664 1564 1641 1742 1658

Tree=0
num_leaves=19
num_cat=0
split_feature=7 10 9 5 9 5 11 9 10 10 13 13 0 9 9 15 14 13
split_gain=62.5416 50.596 24.6222 24.3144 37.4609 31.223 20.6961 17.8998 15.8024 14.1008 17.2031 10.913 7.54169 5.80468 6.11833 4.71632 3.48577 2.5822
threshold=0.52210000000000012 12.500000000000002 46.500000000000007 349.84769675925935 19.500000000000004 307.44111111111118 2.8884000000000003 47.500000000000007 9.5000000000000018 9.5000000000000018 0.26245000000000002 0.26680000000000009 259.50000000000006 48.500000000000007 64.500000000000014 3.6092500000000007 10.507750000000001 0.26820000000000005
decision_type=2 2 2 2 2 2 2 2 2 2 2 2 2 2 2 2 2 2
left_child=2 3 6 4 -2 -6 -1 -7 13 10 -9 -3 -10 -5 -15 17 -14 -16
right_child=1 11 -4 8 5 7 -8 9 12 -11 -12 -13 16 14 15 -17 -18 -19
leaf_value=8.224949064806891 8.2776633502452928 8.2004133504956318 8.2425864270954676 8.2385204929099967 8.2127221740881549 8.2235479659008792 8.1877787345470647 8.2447422978593465 8.2570919219071737 8.2296633505403349 8.2748568985539421 8.2313776358522901 8.2706633505637512 8.2697542593101918 8.2389242198975836 8.2634133497356732 8.2881633508085564 8.2536633505850396
leaf_weight=28 25 20 26 21 34 26 26 38 21 20 31 21 21 22 23 20 20 20
leaf_count=28 25 20 26 21 34 26 26 38 21 20 31 21 21 22 23 20 20 20
internal_value=8.24295 8.24777 8.2186 8.25154 8.24368 8.23798 8.20705 8.24545 8.25968 8.25184 8.25827 8.21627 8.27171 8.25264 8.25613 8.25138 8.2792 8.24578
internal_weight=0 383 80 342 174 149 54 115 168 89 69 41 62 106 85 63 41 43
internal_count=463 383 80 342 174 149 54 115 168 89 69 41 62 106 85 63 41 43
is_linear=0
shrinkage=1


Tree=1
num_leaves=18
num_cat=0
split_feature=8 10 9 5 9 5 4 9 10 10 13 13 6 14 0 1 14
split_gain=58.8454 47.6058 23.1671 22.8774 35.2469 29.3777 20.3637 16.8419 14.8684 13.2674 16.1864 10.2681 7.90149 7.69174 7.09597 6.58467 3.27976
threshold=0.47790000000000005 12.500000000000002 46.500000000000007 349.84769675925935 19.500000000000004 307.44111111111118 44.402550000000012 47.500000000000007 9.5000000000000018 9.5000000000000018 0.26245000000000002 0.26680000000000009 7.0238095238095246 16.735850000000003 259.50000000000006 0.29225000000000007 10.507750000000001
decision_type=2 2 2 2 2 2 2 2 2 2 2 2 2 2 2 2 2
left_child=1 3 6 4 -1 -6 -2 -7 12 10 -9 -3 -5 15 -10 -14 -16
right_child=2 11 -4 8 5 7 -8 9 14 -11 -12 -13 13 -15 16 -17 -18
leaf_value=0.033670099639892578 -0.048952238165280396 -0.04126240164041519 -0.0003545152682524461 -0.0066030310229821636 -0.029322841123623006 -0.018821823195769236 -0.0108024273365736 0.0017366785987427359 0.01371581420302391 -0.012889901094138621 0.03094784075214017 -0.011227043228490011 0.01529744958648315 0.023581596938403029 0.026880099049636296 -0.0075988569706678388 0.043855100624263288
leaf_weight=25 34 20 26 22 34 26 20 38 21 20 31 21 26 38 21 20 20
leaf_count=25 34 20 26 22 34 26 20 38 21 20 31 21 26 38 21 20 20
internal_value=0 0.00466887 -0.0236205 0.00833098 0.000706824 -0.00482393 -0.0348227 0.00241923 0.0162274 0.00862448 0.0148605 -0.0258784 0.0094018 0.0135935 0.027897 0.00534253 0.0351606
internal_weight=0 383 80 342 174 149 54 115 168 89 69 41 106 84 62 46 41
internal_count=463 383 80 342 174 149 54 115 168 89 69 41 106 84 62 46 41
is_linear=0
shrinkage=0.03


Tree=2
num_leaves=20
num_cat=0
split_feature=7 10 9 5 9 5 11 9 10 10 7 9 0 2 0 5 4 3 14
split_gain=55.3677 44.7923 21.7979 21.5254 33.1638 27.6415 19.3238 15.8465 13.9897 12.4833 9.4027 7.91801 6.6766 5.36023 7.88654 8.63106 5.26231 4.16018 3.08593
threshold=0.52210000000000012 12.500000000000002 46.500000000000007 349.84769675925935 19.500000000000004 307.44111111111118 2.8884000000000003 47.500000000000007 9.5000000000000018 9.5000000000000018 0.72765000000000002 57.500000000000007 259.50000000000006 0.83760000000000012 287.50000000000006 357.81588541666673 42.411350000000006 62.293200000000006 10.507750000000001
decision_type=2 2 2 2 2 2 2 2 2 2 2 2 2 2 2 2 2 2 2
left_child=2 3 6 4 -2 -6 -1 -7 13 11 -3 -9 -10 14 15 -5 -13 -15 -14
right_child=1 10 -4 8 5 7 -8 9 12 -11 -12 16 18 17 -16 -17 -18 -19 -20
leaf_value=-0.01648468735494784 0.032659996962547302 -0.039823525071144103 -0.00034388079093052791 0.0098835317417979244 -0.028443156875231686 -0.018257168955527817 -0.052401561674017175 0.030321697980165482 0.013304339136396136 -0.012503203064203262 -0.011081663540431431 -0.0025307630585587539 0.02607369725193296 0.0087069148570299137 0.018386909046343394 -0.017653724551200869 0.017168812132798708 0.027232968293130398 0.042539445407688614
leaf_weight=28 25 20 26 20 34 26 26 20 21 20 21 23 21 24 21 21 26 20 20
leaf_count=28 25 20 26 20 34 26 26 20 21 20 21 23 21 24 21 21 26 20 20
internal_value=0 0.00452881 -0.0229119 0.00808105 0.000685619 -0.00467921 -0.033778 0.00234665 0.0157406 0.00836575 -0.0251021 0.0144147 0.0270601 0.00911974 0.00343657 -0.00422092 0.00792207 0.0171278 0.0341058
internal_weight=0 383 80 342 174 149 54 115 168 89 41 69 62 106 62 41 49 44 41
internal_count=463 383 80 342 174 149 54 115 168 89 41 69 62 106 62 41 49 44 41
is_linear=0
shrinkage=0.03


Tree=3
num_leaves=18
num_cat=0
split_feature=7 10 5 0 9 7 0 5 8 1 11 4 9 10 3 15 9
split_gain=49.1711 38.7454 23.7683 41.3659 29.3088 26.4684 25.188 20.894 25.0867 12.1303 11.6658 8.06604 7.20142 6.9066 9.09389 9.50936 4.83721
threshold=0.53935000000000011 12.500000000000002 322.21118634259267 42.500000000000007 44.500000000000007 0.77785000000000004 122.50000000000001 351.02124421296304 0.54020000000000012 0.26600000000000007 2.4337000000000004 44.624050000000004 97.500000000000014 9.5000000000000018 47.622350000000004 2.7191000000000005 89.500000000000014
decision_type=2 2 2 2 2 2 2 2 2 2 2 2 2 2 2 2 2
left_child=7 2 3 -2 -4 6 -5 8 -1 -10 11 12 -6 14 -12 -16 -15
right_child=1 -3 4 5 10 -7 -8 -9 9 -11 13 -13 -14 16 15 -17 -18
leaf_value=-0.056110410434859141 0.027787817173770494 -0.025033355253083363 -0.016706766967590041 -0.051850766965321128 0.023154607442292301 0.011779509149491788 -0.010291406584637505 0.0017444540294153351 0.00090213868394494053 -0.032139162048697469 0.032485218583182852 -0.0074327993867072195 0.0020434183627367018 0.022275544982403517 0.019814282179840149 -0.0067187049239873882 0.03951755674348937
leaf_weight=21 28 35 26 21 33 24 35 28 20 20 22 22 26 32 31 20 27
leaf_count=21 28 35 26 21 33 24 35 28 20 20 22 22 26 32 31 20 27
internal_value=0 0.00505027 0.00808464 -0.00359535 0.0133626 -0.0145795 -0.0258762 -0.0197103 -0.0295583 -0.0156185 0.0170331 0.00807049 0.0138514 0.0225328 0.0163636 0.00940919 0.030166
internal_weight=0 382 347 108 239 80 56 89 61 40 213 81 59 132 73 51 59
internal_count=471 382 347 108 239 80 56 89 61 40 213 81 59 132 73 51 59
is_linear=0
shrinkage=0.03


Tree=4
num_leaves=17
num_cat=0
split_feature=5 11 7 4 9 15 10 14 11 10 4 4 1 5 9 13
split_gain=46.3094 53.5359 34.3327 39.4093 30.2329 43.0246 25.6771 14.7486 14.1002 9.87297 8.5992 8.07528 7.81286 5.35196 4.67649 4.29562
threshold=322.6855555555556 4.831900000000001 0.72670000000000001 43.632750000000009 44.500000000000007 0.66605000000000014 12.500000000000002 14.375950000000001 2.4337000000000004 9.5000000000000018 40.739950000000007 41.900250000000007 0.48980000000000007 352.05643518518525 89.500000000000014 0.25375000000000009
decision_type=2 2 2 2 2 2 2 2 2 2 2 2 2 2 2 2
left_child=1 2 3 -1 5 -2 8 -5 11 10 -10 -6 -4 -12 -11 -13
right_child=4 -3 12 7 6 -7 -8 -9 9 14 13 15 -14 -15 -16 -17
leaf_value=-0.05326637765294627 0.013990037590265273 0.031117001717740837 -0.010576148480176926 0.0034400487005710597 0.018021399887471364 -0.046737410958324156 -0.015604310076812216 -0.027313104872591792 -0.0021975521743297574 0.021640119295228608 0.029991692411899567 -0.0080691788920334399 0.013630554489791393 0.011923219723006088 0.038309135455638167 0.0080290570797828514
leaf_weight=38 21 22 24 25 29 21 29 32 23 33 25 35 24 36 28 26
leaf_count=38 21 22 24 25 29 21 29 32 23 33 25 35 24 36 28 26
internal_value=0 -0.0124501 -0.0191527 -0.0296015 0.00726797 -0.0163737 0.0110291 -0.0138249 0.0143158 0.0201053 0.0134343 0.00498839 0.0015272 0.0193283 0.0292915 -0.00120764
internal_weight=0 165 143 95 306 42 264 57 235 145 84 90 48 61 61 61
internal_count=471 165 143 95 306 42 264 57 235 145 84 90 48 61 61 61
is_linear=0
shrinkage=0.03


Tree=5
num_leaves=18
num_cat=0
split_feature=7 10 9 9 5 5 8 7 11 1 1 4 5 5 10 9 9
split_gain=44.1612 35.01 21.2526 45.7526 28.7932 18.7858 23.9133 14.5478 12.5481 11.4435 10.0081 7.22188 6.78647 9.58299 7.08735 6.68679 2.57138
threshold=0.53935000000000011 12.500000000000002 47.500000000000007 21.500000000000004 321.31804976851856 351.02124421296304 0.54020000000000012 0.72670000000000001 2.4337000000000004 0.26600000000000007 0.43345000000000006 44.624050000000004 341.71504050925932 356.36450810185187 7.5000000000000009 97.500000000000014 97.500000000000014
decision_type=2 2 2 2 2 2 2 2 2 2 2 2 2 2 2 2 2
left_child=5 2 3 -2 7 6 -1 -4 11 -8 -5 15 -10 -14 -15 -6 -16
right_child=1 -3 4 10 8 -7 9 -9 12 -11 -12 -13 13 14 16 -17 -18
leaf_value=-0.053943393134645051 0.025411311686038971 -0.02381317568676812 -0.026685742512345314 -0.032799507588148119 0.022225172217003999 0.0016618525769029346 0.00163637725263834 0.0056657801979574669 0.037377164545266524 -0.030455965798348184 -0.0076231654650635184 -0.00714335719292814 0.0031551233053207397 0.010246292547039364 0.024872996335228284 0.0017426919421324363 0.03771447620152131
leaf_weight=21 29 35 22 30 32 28 20 29 23 20 27 22 25 23 36 26 23
leaf_count=21 29 35 22 30 32 28 20 29 23 20 27 22 25 23 36 26 23
internal_value=0 0.00478355 0.00766795 -0.00526608 0.0119297 -0.0186817 -0.0280197 -0.00828978 0.0168402 -0.0144098 -0.0208739 0.00749202 0.0225929 0.019415 0.0243723 0.0130434 0.029879
internal_weight=0 382 347 86 261 89 61 51 210 40 57 80 130 107 82 58 59
internal_count=471 382 347 86 261 89 61 51 210 40 57 80 130 107 82 58 59
is_linear=0
shrinkage=0.03


Tree=6
num_leaves=18
num_cat=0
split_feature=7 11 5 6 9 14 15 9 5 8 7 0 13 3 4 13 15
split_gain=51.2399 30.4513 36.395 41.9432 29.4046 18.8771 9.39869 10.1499 18.7351 12.3644 13.0769 10.1671 9.61435 12.9677 8.14834 4.97436 4.29359
threshold=0.54775000000000007 4.1675000000000013 311.35674768518521 10.379487179487182 52.500000000000007 7.4986000000000006 3.6567000000000003 81.500000000000014 360.2930208333334 0.29420000000000007 0.61245000000000005 187.50000000000003 0.24805000000000002 61.262600000000013 42.301100000000005 0.30795 4.5436500000000004
decision_type=2 2 2 2 2 2 2 2 2 2 2 2 2 2 2 2 2
left_child=4 2 3 -2 5 -1 7 9 -9 12 -11 -12 -4 -14 -10 -3 -8
right_child=1 15 6 -5 -6 -7 16 8 14 10 11 -13 13 -15 -16 -17 -18
leaf_value=-0.01455651476746425 0.0047466276518323205 0.01858035385608673 0.031393413686981571 -0.054527510755828443 0.0026114411652088166 -0.046659583586322911 0.028042788662016392 -0.02180667425816258 -0.0084754884243011478 0.018387894853949545 0.0018762173503637314 -0.024010184989734128 0.026224289685487748 -0.0064840472862124441 0.015429371751167558 0.038211364150047306 0.0099745615571737289
leaf_weight=32 22 26 26 21 36 34 20 36 21 24 36 22 20 24 33 21 29
leaf_count=32 22 26 26 21 36 34 20 36 21 24 36 22 20 24 33 21 29
internal_value=0 0.00474243 0.00156089 -0.0242012 -0.0191983 -0.0310945 0.00536766 0.00294161 -0.00504285 0.00766925 -0.000236229 -0.00794276 0.01693 0.00838338 0.00613304 0.0273517 0.0173493
internal_weight=0 381 334 43 102 66 291 242 90 152 82 58 70 44 54 47 49
internal_count=483 381 334 43 102 66 291 242 90 152 82 58 70 44 54 47 49
is_linear=0
shrinkage=0.03


Tree=7
num_leaves=19
num_cat=0
split_feature=2 9 9 2 5 10 5 2 9 1 4 15 6 1 10 4 15 6
split_gain=59.8563 30.198 52.6997 36.3785 34.2315 32.9265 28.7582 25.259 10.3141 7.74594 10.6862 8.61796 14.3699 6.32696 6.32445 4.0402 3.91105 3.84585
threshold=0.63660000000000017 19.500000000000004 47.500000000000007 0.89255000000000007 328.7134143518519 12.500000000000002 314.28992476851857 0.7743000000000001 53.500000000000007 0.40135000000000004 43.753450000000008 1.7345000000000002 11.207142857142857 0.32110000000000005 10.500000000000002 41.498700000000007 1.5497000000000003 13.728506787330319
decision_type=2 2 2 2 2 2 2 2 2 2 2 2 2 2 2 2 2 2
left_child=-1 16 3 4 7 6 -4 -3 -8 10 14 -11 -13 -12 15 -10 -2 -17
right_child=1 2 5 -5 -6 -7 8 -9 9 11 13 12 -14 -15 -16 17 -18 -19
leaf_value=-0.037517866360334058 0.036272825891418115 0.005606452756162201 -0.015103859248276995 0.011205302619415781 -0.065246351614594467 -0.020889235320123465 0.030074885200176916 -0.041501792013645171 0.0067755175914083208 0.017956890016794205 -0.0093787090826247411 -0.017917934029266752 0.014667556349720272 0.012957948178052901 0.032960351914740525 0.012924191085621714 0.017736017324030399 0.030289365974339573
leaf_weight=36 21 21 38 23 20 37 28 20 28 23 21 29 21 25 26 24 20 22
leaf_count=36 21 21 38 23 20 37 28 20 28 23 21 29 21 25 26 24 20 22
internal_value=0 0.00269312 0.000215212 -0.0209465 -0.0330693 0.00573566 0.00919222 -0.0173732 0.0129301 0.0107381 0.0147276 0.002759 -0.00423203 0.00276078 0.0202323 0.0157603 0.0272305 0.0212293
internal_weight=0 447 406 84 61 322 285 41 247 219 146 73 50 46 100 74 41 46
internal_count=483 447 406 84 61 322 285 41 247 219 146 73 50 46 100 74 41 46
is_linear=0
shrinkage=0.03


Tree=8
num_leaves=18
num_cat=0
split_feature=2 9 9 2 13 10 5 5 2 9 11 13 5 11 13 15 3
split_gain=56.3188 28.4133 49.5852 34.2286 32.7586 35.9254 34.8935 32.2084 23.7662 12.8241 7.10814 7.01303 5.55161 5.80671 3.99701 3.6799 2.64773
threshold=0.63660000000000017 19.500000000000004 47.500000000000007 0.89255000000000007 0.27505000000000007 12.500000000000002 314.28992476851857 328.7134143518519 0.7743000000000001 58.500000000000007 3.6452500000000003 0.29975000000000002 362.06604166666676 2.4042500000000007 0.2492 1.5497000000000003 54.844850000000008
decision_type=2 2 2 2 2 2 2 2 2 2 2 2 2 2 2 2 2
left_child=-1 15 3 7 5 6 -4 8 -3 -8 11 16 13 -11 -15 -2 -6
right_child=1 2 4 -5 10 -7 9 -9 -10 12 -12 -13 -14 14 -16 -17 -18
leaf_value=-0.036392329561834531 0.035184641448514797 0.0054382591109190664 -0.029272610662648312 0.010869143968043121 0.027710175472311676 -0.036228992417454718 0.026669970596475263 -0.063288963407278062 -0.040256738439202307 -0.0084894212908469702 0.029654294052435196 0.0028702585245756538 0.014148800169738631 0.014172688468503926 -0.0030129311765943255 0.01720393545180559 0.014015366724795765
leaf_weight=36 21 21 26 23 24 24 28 20 20 39 34 34 36 29 21 20 27
leaf_count=36 21 21 26 23 24 24 28 20 20 39 34 34 36 29 21 20 27
internal_value=0 0.00261233 0.000208756 -0.0203181 0.00556359 -0.00176265 0.00285853 -0.0320772 -0.016852 0.00831873 0.0180613 0.0134241 0.00420805 0.000187067 0.00695473 0.0264136 0.02046
internal_weight=0 447 406 84 322 203 179 61 41 153 119 85 125 89 50 41 51
internal_count=483 447 406 84 322 203 179 61 41 153 119 85 125 89 50 41 51
is_linear=0
shrinkage=0.03


Tree=9
num_leaves=18
num_cat=0
split_feature=2 13 9 9 9 10 13 13 14 6 3 10 13 10 6 4 15
split_gain=41.5534 31.8031 40.3222 30.4934 29.4525 28.4994 18.6873 7.98707 6.65858 7.34166 5.66632 5.13686 4.2946 3.79421 2.64245 2.27946 1.69668
threshold=0.63495000000000013 0.27505000000000007 24.500000000000004 46.500000000000007 42.500000000000007 12.500000000000002 0.18780000000000002 0.22705000000000003 10.507750000000001 11.34848484848485 53.619050000000009 11.500000000000002 0.21165000000000003 8.5000000000000018 9.1109022556390986 40.613600000000012 3.4975500000000004
decision_type=2 2 2 2 2 2 2 2 2 2 2 2 2 2 2 2 2
left_child=-1 2 10 -3 -4 6 -6 12 -9 13 -2 14 -8 -10 -5 -16 -17
right_child=1 3 4 11 5 -7 7 8 9 -11 -12 -13 -14 -15 15 16 -18
leaf_value=-0.034289648200252223 0.013760185146571268 -0.013339069930130038 -0.036011108138181015 0.031756206991580813 -0.026035232565232685 -0.033059817862052185 0.0062103273756802082 -0.01261094076615148 0.0069606600701808928 0.015070426870476114 0.034667498812079423 0.006871619526296854 0.024613047636978861 -0.0099084176942706107 0.012261260747909545 0.027662098816520455 0.016985714094979423
leaf_weight=28 28 29 29 26 21 26 25 29 20 33 20 20 21 30 21 37 21
leaf_count=28 28 29 29 26 21 26 25 29 20 33 20 20 21 30 21 37 21
internal_value=0 0.00341207 -0.00257547 0.0143763 -0.00771332 -0.00371022 0.000552848 0.00408671 -0.000236005 0.00408777 0.0224716 0.0208062 0.0146116 -0.00316079 0.0234604 0.0207302 0.0237965
internal_weight=0 436 282 154 234 205 179 158 112 83 48 125 46 50 105 79 58
internal_count=464 436 282 154 234 205 179 158 112 83 48 125 46 50 105 79 58
is_linear=0
shrinkage=0.03


Tree=10
num_leaves=17
num_cat=0
split_feature=2 13 11 15 10 5 11 11 5 4 15 13 7 13 6 11
split_gain=39.0976 29.9235 28.0566 25.0256 24.752 25.5656 16.7041 9.44587 18.9296 7.79346 7.12799 6.80049 7.77762 5.2395 3.67476 2.03564
threshold=0.63495000000000013 0.27505000000000007 1.7919000000000003 0.9831000000000002 12.500000000000002 319.01049768518527 3.1855000000000007 4.2355500000000008 319.55215277777785 42.013300000000008 1.5623500000000001 0.22705000000000003 0.6422000000000001 0.29975000000000002 10.207142857142857 2.5844000000000005
decision_type=2 2 2 2 2 2 2 2 2 2 2 2 2 2 2 2
left_child=-1 2 10 -4 5 6 -5 8 -3 13 -2 -7 -13 -10 -14 -11
right_child=1 7 3 4 -6 11 -8 -9 9 15 -12 12 14 -15 -16 -17
leaf_value=-0.033260957987180775 0.023923982110890474 -0.015828619173594884 -0.037568803170452941 -0.034834671076387165 -0.032190854358673089 0.018759729709914501 0.0011390450171061923 0.028172119537537749 0.016888302085655074 0.015252291966229677 0.0049795479900561837 -0.0090330477593646881 0.0019598257899284361 -0.0038378653578136275 0.01822582316994667 0.027189396740868687
leaf_weight=28 33 21 23 26 25 34 21 33 21 20 39 31 25 23 25 36
leaf_count=28 33 21 23 26 25 34 21 33 21 20 39 31 25 23 25 36
internal_value=0 0.00330971 -0.00249821 -0.00803899 -0.00440698 -0.000119345 -0.0187613 0.013945 0.0100648 0.0155025 0.0136624 0.00749954 0.00277305 0.00605417 0.0100928 0.0229261
internal_weight=0 436 282 210 187 162 47 154 121 100 72 115 81 44 50 56
internal_count=464 436 282 210 187 162 47 154 121 100 72 115 81 44 50 56
is_linear=0
shrinkage=0.03


Tree=11
num_leaves=19
num_cat=0
split_feature=2 13 9 5 9 10 9 5 0 6 14 13 9 3 10 9 9 10
split_gain=36.7869 28.155 37.1175 28.2191 29.8716 32.228 28.1387 9.82581 12.2791 7.60316 9.09571 6.46905 6.32787 5.26391 4.70444 2.48068 1.91039 4.12929
threshold=0.63495000000000013 0.27505000000000007 24.500000000000004 300.02170138888897 43.500000000000007 12.500000000000002 46.500000000000007 362.06604166666676 190.50000000000003 11.34848484848485 9.7531000000000017 0.24805000000000002 59.500000000000007 53.619050000000009 11.500000000000002 103.50000000000001 68.500000000000014 7.5000000000000009
decision_type=2 2 2 2 2 2 2 2 2 2 2 2 2 2 2 2 2 2
left_child=-1 2 13 -4 -5 7 -3 8 11 -10 -11 12 -6 -2 15 16 17 -8
right_child=1 6 3 4 5 -7 14 -9 9 10 -12 -13 -14 -15 -16 -17 -18 -19
leaf_value=-0.032263130185061266 0.013211481804942844 -0.013097106667942013 -0.040531878697552849 -0.035608765371143818 0.027499534222094908 -0.031096092932499375 0.029629071625796231 0.019772542134742253 -0.023051976407212869 -0.014254970172928138 0.013698631815612315 -0.0037730210168021067 0.005478914398699998 0.033362732380628583 0.0063681286498904225 0.013021009250410965 0.029408739899786616 0.011449242575984933
leaf_weight=28 28 29 21 24 23 26 22 32 21 22 20 21 24 20 20 21 39 23
leaf_count=28 28 29 21 24 23 26 22 32 21 22 20 21 24 20 20 21 39 23
internal_value=0 0.00321042 -0.00242326 -0.00735272 -0.00408153 -7.80714e-05 0.0135266 0.00486959 0.00122917 -0.00831315 -0.000943731 0.0100698 0.016255 0.0216078 0.0197033 0.0222434 0.024549 0.0203372
internal_weight=0 436 282 234 213 189 154 163 131 63 42 68 47 48 125 105 84 45
internal_count=464 436 282 234 213 189 154 163 131 63 42 68 47 48 125 105 84 45
is_linear=0
shrinkage=0.03


Tree=12
num_leaves=20
num_cat=0
split_feature=2 15 13 10 9 15 4 10 8 5 9 15 15 5 11 15 10 8 6
split_gain=46.6288 26.9808 18.8938 20.7396 20.4423 19.2797 12.2671 10.8954 11.88 9.83735 24.7884 7.00063 8.02196 6.39426 4.81733 3.97279 5.34367 5.31945 2.87352
threshold=0.7250000000000002 1.5497000000000003 0.27505000000000007 12.500000000000002 46.500000000000007 8.2696000000000023 39.271800000000006 6.5000000000000009 0.56025000000000003 322.6855555555556 53.500000000000007 3.6092500000000007 1.8344500000000001 360.13932870370377 2.1727500000000002 2.4570500000000002 8.5000000000000018 0.24680000000000005 6.732057416267943
decision_type=2 2 2 2 2 2 2 2 2 2 2 2 2 2 2 2 2 2 2
left_child=1 -1 3 5 -4 6 -2 8 -3 10 -8 12 18 -14 -6 17 -17 -16 -11
right_child=2 7 4 -5 14 -7 9 -9 -10 11 -12 -13 13 -15 15 16 -18 -19 -20
leaf_value=-0.05014701001745249 0.025548933351581746 0.014751885694451631 -0.0092091108276508744 -0.030453598693013187 0.0041689635962247843 -0.025175571055574848 0.0075772462018898548 -0.028716467566788195 -0.017946789152920247 0.0047567971585237455 -0.032515121829574521 0.022038033806972883 -0.014574457305882658 0.0073246101316596776 0.0019633958972990512 0.015049146448906795 0.033116329224670636 0.022720939401537181 0.019752943781406983
leaf_weight=21 22 20 32 20 20 22 35 20 20 23 23 22 28 21 20 26 34 25 23
leaf_count=21 22 20 32 20 20 22 35 20 20 23 23 22 28 21 20 26 34 25 23
internal_value=0 -0.0208804 0.00410102 -0.00121008 0.0121861 0.00146056 0.00443515 -0.0106371 -0.00159745 0.00178085 -0.00832145 0.00678883 0.00325743 -0.00518914 0.0176632 0.0202336 0.0252872 0.0134954 0.0122549
internal_weight=0 81 396 239 157 219 197 60 40 175 58 117 95 49 125 105 60 45 46
internal_count=477 81 396 239 157 219 197 60 40 175 58 117 95 49 125 105 60 45 46
is_linear=0
shrinkage=0.03


Tree=13
num_leaves=18
num_cat=0
split_feature=2 15 13 10 9 5 12 15 12 1 3 7 3 11 15 10 8
split_gain=43.8731 25.3862 17.7772 19.5139 19.2341 18.2797 17.5615 8.54059 12.3035 5.67883 9.38373 7.70629 8.30015 4.53263 3.738 5.02786 5.00507
threshold=0.7250000000000002 1.5497000000000003 0.27505000000000007 12.500000000000002 46.500000000000007 279.41696759259264 3.6625000000000005 3.6092500000000007 4.3509000000000011 0.35830000000000001 67.134700000000024 0.75040000000000007 55.285100000000007 2.1727500000000002 2.4570500000000002 8.5000000000000018 0.24680000000000005
decision_type=2 2 2 2 2 2 2 2 2 2 2 2 2 2 2 2 2
left_child=1 -1 3 5 -4 -2 -3 8 9 -7 11 12 -11 -6 16 -16 -15
right_child=2 6 4 -5 13 7 -8 -9 -10 10 -12 -13 -14 14 15 -17 -18
leaf_value=-0.048642599747649264 -0.017806153579338176 0.010267578810453414 -0.0089328373514581463 -0.029539991587400435 0.0040438947603106496 0.019124698964506387 -0.023114457422414341 0.020565606582510682 -0.016708311474323272 -0.010464736362514288 0.018808668086735099 -0.018060429677367207 0.012734854383128028 0.0019044941067695618 0.014597672241775748 0.032122839255368005 0.022039311012066902
leaf_weight=21 37 23 32 20 20 25 37 28 25 23 26 20 35 20 26 34 25
leaf_count=21 37 23 32 20 20 25 37 28 25 23 26 20 35 20 26 34 25
internal_value=0 -0.020254 0.00397799 -0.00117378 0.0118205 0.00141674 -0.010318 0.00532469 0.00255362 0.00628655 0.00320046 -0.00200228 0.00353502 0.0171333 0.0196266 0.0245286 0.0130905
internal_weight=0 81 396 239 157 219 60 182 154 129 104 78 58 125 105 60 45
internal_count=477 81 396 239 157 219 60 182 154 129 104 78 58 125 105 60 45
is_linear=0
shrinkage=0.03


Tree=14
num_leaves=18
num_cat=0
split_feature=2 15 13 10 15 12 4 5 4 11 5 15 15 15 15 6 10
split_gain=41.2802 23.8859 16.7266 18.3606 17.5557 16.5236 11.4373 8.89009 15.744 8.07503 12.7113 6.19883 7.3952 6.23716 5.91827 2.57183 2.41505
threshold=0.7250000000000002 1.5497000000000003 0.27505000000000007 12.500000000000002 8.2696000000000023 3.6625000000000005 39.271800000000006 322.6855555555556 43.700200000000002 4.4856000000000007 325.5476793981482 3.6092500000000007 1.8344500000000001 2.7829500000000005 2.0735000000000006 6.732057416267943 6.5000000000000009
decision_type=2 2 2 2 2 2 2 2 2 2 2 2 2 2 2 2 2
left_child=1 -1 3 4 6 -3 -2 8 -8 10 -4 12 15 -14 -12 -9 -16
right_child=2 5 9 -5 -6 -7 7 11 -10 -11 14 -13 13 -15 16 -17 -18
leaf_value=-0.047183321756975989 0.02459988002072681 0.0099595512303969139 -0.0065988142375607746 -0.028653790757060048 -0.024043093215335501 -0.022421023448979532 -0.025293976518397144 0.0046327690294255377 0.0061350260814651844 0.025759725149335531 0.0038672560517443344 0.020759923901747572 -0.014291692333562032 0.007336692841989653 0.012018732642754913 0.018819860203758528 0.024570299419196875
leaf_weight=21 22 23 37 20 22 37 26 23 32 29 32 22 28 21 22 23 37
leaf_count=21 22 23 37 20 22 37 26 23 32 29 32 22 28 21 22 23 37
internal_value=0 -0.0196464 0.00385865 -0.00113857 0.00137424 -0.0100085 0.00421272 0.00164977 -0.00795384 0.0114659 0.00822742 0.00641053 0.00308751 -0.00502238 0.0142557 0.0117263 0.0198901
internal_weight=0 81 396 239 219 60 197 175 58 157 128 117 95 49 91 46 59
internal_count=477 81 396 239 219 60 197 175 58 157 128 117 95 49 91 46 59
is_linear=0
shrinkage=0.03


Tree=15
num_leaves=17
num_cat=0
split_feature=8 9 2 6 13 9 10 3 15 13 8 8 6 11 12 9
split_gain=67.1266 33.9639 22.8753 36.15 15.2634 22.6781 18.3191 12.1058 23.3794 16.5969 12.7953 13.1803 7.28443 5.86215 3.0488 3.08835
threshold=0.45225000000000004 59.500000000000007 0.63495000000000013 10.020833333333334 0.27505000000000007 46.500000000000007 12.500000000000002 61.04460000000001 1.6575000000000002 0.23550000000000001 0.33995000000000003 0.39355000000000007 9.9736842105263168 2.4337000000000004 3.8274500000000002 72.500000000000014
decision_type=2 2 2 2 2 2 2 2 2 2 2 2 2 2 2 2
left_child=4 2 -2 -4 6 -6 7 10 -9 -10 12 -12 -1 -7 -15 -16
right_child=1 -3 3 -5 5 13 -8 8 9 -11 11 -13 -14 14 15 -17
leaf_value=0.0081886820338274297 -0.061333327811211341 0.0053856161961125006 0.0015691854117008354 -0.047992342727051843 -0.012246592382675614 0.0068598163577594925 -0.026644115705381739 0.011195735361646203 -0.039473985337206849 -0.002106842391192913 -0.014498637323932988 0.011727508917889174 0.028153512891510434 0.02793098620617309 0.0084734960868144815 0.023309840772833143
leaf_weight=38 20 27 26 27 29 35 22 34 23 20 35 34 29 37 23 28
leaf_count=38 20 27 26 27 29 35 22 34 23 20 35 34 29 37 23 28
internal_value=0 -0.0233625 -0.0339954 -0.0236791 0.00421009 0.0116181 -0.000581486 0.00211043 -0.00739459 -0.0220939 0.00749195 -0.00157561 0.0168302 0.0172448 0.0213751 0.0166189
internal_weight=0 100 73 53 387 152 235 213 77 43 136 69 67 123 88 51
internal_count=487 100 73 53 387 152 235 213 77 43 136 69 67 123 88 51
is_linear=0
shrinkage=0.03


Tree=16
num_leaves=18
num_cat=0
split_feature=7 9 12 6 13 9 10 1 1 5 9 6 5 12 5 12 15
split_gain=63.1594 32.2659 17.6794 36.9835 14.3613 21.3378 17.2365 13.7818 14.1808 25.5998 13.4496 10.661 5.31432 4.51274 2.54356 1.81414 3.00344
threshold=0.54775000000000007 57.500000000000007 2.9039000000000006 10.020833333333334 0.27505000000000007 46.500000000000007 12.500000000000002 0.62645000000000006 0.48980000000000007 321.31804976851856 52.500000000000007 13.114177489177491 360.46602430555561 3.0368500000000007 361.02813657407415 4.6819500000000014 2.7991500000000005
decision_type=2 2 2 2 2 2 2 2 2 2 2 2 2 2 2 2 2
left_child=1 2 -1 -4 6 -6 7 8 9 -2 -10 12 -11 -7 15 16 -15
right_child=4 -3 3 -5 5 13 -8 -9 10 11 -12 -13 -14 14 -16 -17 -18
leaf_value=-0.057655881694634446 -0.023182267053052784 0.0033688237629830834 0.0073177489712834354 -0.04534879701398313 -0.011879194247825391 0.0058920765668153754 -0.025844792872667312 -0.016442964105836805 0.033200962841510771 -0.0063770689987219294 0.00074249859899282449 0.02191369127947837 0.010118489886517637 0.027702960525851018 0.026845883635743972 0.0091478672942944938 0.012027001726779748
leaf_weight=20 32 30 20 30 29 27 22 31 27 39 20 32 32 22 31 21 22
leaf_count=20 32 30 20 30 29 27 22 31 27 39 20 32 32 22 31 21 22
internal_value=0 -0.0226616 -0.0338175 -0.0242822 0.00408379 0.0112696 -0.000564042 0.00204712 0.00519652 0.000255493 0.0193889 0.00753713 0.00105755 0.0167274 0.0197749 0.0164025 0.019865
internal_weight=0 100 70 50 387 152 235 213 182 135 47 103 71 123 96 65 44
internal_count=487 100 70 50 387 152 235 213 182 135 47 103 71 123 96 65 44
is_linear=0
shrinkage=0.03


Tree=17
num_leaves=18
num_cat=0
split_feature=7 9 12 11 13 9 10 1 0 5 11 5 4 13 11 12 9
split_gain=59.4267 30.359 16.6346 29.118 13.5125 20.0768 16.2178 12.9673 13.571 19.6105 12.3016 9.81336 8.65465 8.67757 5.42723 2.87168 2.91663
threshold=0.54775000000000007 57.500000000000007 2.9039000000000006 3.5488000000000004 0.27505000000000007 46.500000000000007 12.500000000000002 0.62645000000000006 69.000000000000014 321.31804976851856 1.9715500000000004 343.54666087962966 42.519000000000005 0.24715000000000001 2.4337000000000004 3.8274500000000002 72.500000000000014
decision_type=2 2 2 2 2 2 2 2 2 2 2 2 2 2 2 2 2
left_child=1 2 -1 -4 6 -6 7 8 -2 -10 -11 -12 -13 -14 -7 -16 -17
right_child=4 -3 3 -5 5 14 -8 -9 9 10 11 12 13 -15 15 16 -18
leaf_value=-0.055926205012947316 0.027132853730158373 0.0032677591126412152 -0.0048610310573130849 -0.051592738327570262 -0.011522818674044363 0.0062333080332194054 -0.025069448866627434 -0.015949675145168457 -0.016815945874703558 -0.011385363768786192 0.029721725343362142 0.020156672833294705 0.014086454914882779 -0.012197919728664252 0.026562366799728288 0.0076680798893389484 0.022086052048419201
leaf_weight=20 22 30 30 20 29 35 22 31 38 24 23 29 20 26 37 23 28
leaf_count=20 22 30 30 20 29 35 22 31 38 24 23 29 20 26 37 23 28
internal_value=0 -0.0219818 -0.032803 -0.0235537 0.00396128 0.0109315 -0.00054712 0.0019857 0.00504063 0.00200295 0.00786457 0.0125788 0.00732169 -0.000769931 0.0162256 0.0201998 0.0155838
internal_weight=0 100 70 50 387 152 235 213 182 160 122 98 75 46 123 88 51
internal_count=487 100 70 50 387 152 235 213 182 160 122 98 75 46 123 88 51
is_linear=0
shrinkage=0.03


Tree=18
num_leaves=17
num_cat=0
split_feature=7 5 10 15 11 5 4 15 2 10 13 5 5 13 4 0
split_gain=38.9856 27.8875 26.6785 20.0052 15.5079 20.7338 22.1276 16.5699 15.0297 5.82915 6.64279 7.01407 4.93898 4.67783 4.4295 3.95849
threshold=0.54360000000000008 351.02124421296304 12.500000000000002 1.6814500000000001 4.1675000000000013 321.31804976851856 43.790300000000009 2.6631000000000005 0.68280000000000018 9.5000000000000018 0.29615000000000008 357.81588541666673 360.13932870370377 0.24405000000000002 40.315650000000012 287.50000000000006
decision_type=2 2 2 2 2 2 2 2 2 2 2 2 2 2 2 2
left_child=1 3 4 -1 5 6 7 -2 -5 10 11 13 -13 -7 -6 -11
right_child=2 -3 -4 8 14 9 -8 -9 -10 15 -12 12 -14 -15 -16 -17
leaf_value=-0.052760684967041019 -0.003782584449010236 0.0067831876062818108 -0.019025837855564581 0.00080464883876795118 0.033825451174581592 0.008064479927221934 0.010656164629678977 -0.037752760690636933 -0.035128501944243912 0.011421548795575897 -0.005991470784481083 -0.008371446092020382 0.0094898275442813571 0.024790282595683548 0.014996342710826708 0.026461475205474667
leaf_weight=20 28 31 37 22 22 27 38 24 20 36 28 22 38 34 23 28
leaf_count=20 28 31 37 22 22 27 38 24 20 36 28 22 38 34 23 28
internal_value=0 -0.0164495 0.00519341 -0.0280658 0.00776845 0.00532787 -0.00674494 -0.0194611 -0.0163064 0.0104291 0.00717645 0.0102236 0.00294069 0.0173871 0.0242017 0.0180015
internal_weight=0 93 385 62 348 303 90 52 42 213 149 121 60 61 45 64
internal_count=478 93 385 62 348 303 90 52 42 213 149 121 60 61 45 64
is_linear=0
shrinkage=0.03


Tree=19
num_leaves=18
num_cat=0
split_feature=7 12 10 11 11 13 4 1 9 7 11 7 9 1 9 4 4
split_gain=36.6816 26.223 25.1018 23.799 14.5914 12.9723 9.47787 8.61728 14.4597 7.82693 7.31479 7.81143 11.259 9.77645 4.20546 4.16772 3.58007
threshold=0.54360000000000008 2.8043500000000003 12.500000000000002 3.2079500000000007 4.1675000000000013 0.18890000000000004 44.402550000000012 0.47760000000000008 42.500000000000007 0.78665000000000018 3.3165000000000004 0.67975000000000008 78.500000000000014 0.41195000000000009 50.500000000000007 40.315650000000012 42.779450000000004
decision_type=2 2 2 2 2 2 2 2 2 2 2 2 2 2 2 2 2
left_child=1 -1 4 6 5 -2 -3 8 -7 10 11 12 -10 16 -9 -6 -13
right_child=2 3 -4 -5 15 7 -8 14 9 -11 -12 13 -14 -15 -16 -17 -18
leaf_value=-0.045452990939042398 -0.013219029278524459 -0.0076042531430721271 -0.018455062955617905 -0.028355168961108949 0.032810687812214544 -0.01487282905791854 0.020572429091923614 0.029578812506049868 -0.012926792136859148 -0.0066031431278278079 0.023182244051713496 0.014699217933767404 0.011530016422038897 -0.0017293724935987722 0.010952202649787069 0.014546452333097872 0.031353250614234385
leaf_weight=21 31 21 37 29 22 29 22 20 32 29 32 26 36 23 24 23 21
leaf_count=21 31 21 37 29 22 29 22 20 32 29 32 26 36 23 24 23 21
internal_value=0 -0.015956 0.00503761 -0.00735272 0.00753539 0.00516803 0.00681172 0.00726362 0.00491787 0.00780194 0.0102593 0.00726265 2.093e-05 0.0142975 0.0194188 0.0234756 0.0221404
internal_weight=0 93 385 72 348 303 43 272 228 199 170 138 68 70 44 45 47
internal_count=478 93 385 72 348 303 43 272 228 199 170 138 68 70 44 45 47
is_linear=0
shrinkage=0.03


Tree=20
num_leaves=19
num_cat=0
split_feature=7 5 10 15 2 11 5 0 5 9 7 5 5 11 9 15 13 12
split_gain=34.5137 25.6129 23.6183 18.8748 14.2088 13.729 18.9581 19.3916 14.2723 7.34276 5.80505 9.10123 8.8802 4.87634 4.24116 3.41961 2.97234 1.09513
threshold=0.54360000000000008 351.02124421296304 12.500000000000002 1.6814500000000001 0.68280000000000018 4.1675000000000013 321.31804976851856 75.500000000000014 303.16369791666671 42.500000000000007 0.78665000000000018 328.49939236111118 353.06383101851856 2.4337000000000004 57.500000000000007 3.4423500000000007 0.30585000000000007 3.4833000000000003
decision_type=2 2 2 2 2 2 2 2 2 2 2 2 2 2 2 2 2 2
left_child=1 3 5 -1 -5 6 7 -2 -9 -8 11 -11 -13 -14 -10 17 -7 -15
right_child=2 -3 -4 4 -6 16 9 8 14 10 -12 12 13 15 -16 -17 -18 -19
leaf_value=-0.050596880167722701 0.017950885160402819 0.0067877699350637772 -0.017901411374678482 0.0014496662112122231 -0.033488362317904828 0.015875170290470121 -0.0069514807842538827 -0.035744100272655482 0.0037168775952380632 0.029239563253419153 -0.00015493419862562611 -0.0067205565727569841 0.0056360117460672668 0.018035754052922126 -0.014133624677360058 0.009328704761422198 0.031391608502715829 0.027227149770728178
leaf_weight=20 22 31 37 22 20 25 21 20 23 29 31 22 39 20 25 23 20 28
leaf_count=20 22 31 37 22 20 25 21 20 23 29 31 22 39 20 25 23 20 28
internal_value=0 -0.0154773 0.00488648 -0.0266099 -0.0151875 0.00730933 0.00501299 -0.00653128 -0.014452 0.00989085 0.011733 0.014022 0.0106787 0.0141585 -0.00558026 0.0188399 0.0227714 0.0233974
internal_weight=0 93 385 62 42 348 303 90 68 213 192 161 132 110 48 71 45 48
internal_count=478 93 385 62 42 348 303 90 68 213 192 161 132 110 48 71 45 48
is_linear=0
shrinkage=0.03


Tree=21
num_leaves=19
num_cat=0
split_feature=9 9 2 0 13 5 4 2 9 15 5 9 11 0 9 12 5 5
split_gain=24.669 39.5256 34.1121 29.3236 23.8605 16.5337 10.0656 7.61849 11.5514 10.4167 13.8018 9.27656 6.03757 5.81661 3.74049 3.72202 2.02475 1.54779
threshold=43.500000000000007 19.500000000000004 0.8882500000000001 100.50000000000001 0.27505000000000007 313.54546875000005 45.482250000000008 0.7250000000000002 53.500000000000007 2.8130500000000005 359.12543402777789 70.500000000000014 2.5340000000000003 281.50000000000006 77.500000000000014 3.8274500000000002 359.97983796296302 359.28193287037044
decision_type=2 2 2 2 2 2 2 2 2 2 2 2 2 2 2 2 2 2
left_child=1 6 3 -3 5 -2 -1 -7 -9 10 11 -10 -11 14 15 -6 -14 -15
right_child=4 2 -4 -5 13 7 -8 8 9 12 -12 -13 16 17 -16 -17 -18 -19
leaf_value=-0.0019114977595481007 -0.023452378799175395 -0.061568422338366506 0.0083132776245474806 -0.018205121154896916 0.019087728689755161 -0.011574543880651125 0.025060105361044405 0.021847097478950254 -0.00484752958374364 0.020962663842365142 0.0063673829706385725 -0.033045639736311777 0.0086792712919414039 0.015149261927604676 -0.0029719476643949748 0.0035297284081578255 -0.0048198966868221761 0.025045369504527612
leaf_weight=33 29 25 20 32 31 37 20 26 21 24 36 21 20 25 20 25 20 33
leaf_count=33 29 25 20 32 31 37 20 26 21 24 36 21 20 25 20 25 20 33
internal_value=0 -0.0116722 -0.0253962 -0.0372241 0.00353033 -0.00225039 0.00826647 0.000748913 0.00346301 9.6906e-05 -0.00726321 -0.0189466 0.00906705 0.013625 0.00816479 0.0121422 0.00192969 0.0207798
internal_weight=0 130 77 57 368 234 53 205 168 142 78 42 64 134 76 56 40 58
internal_count=498 130 77 57 368 234 53 205 168 142 78 42 64 134 76 56 40 58
is_linear=0
shrinkage=0.03


Tree=22
num_leaves=18
num_cat=0
split_feature=9 9 2 0 13 5 10 2 4 9 15 5 0 10 10 0 5
split_gain=23.211 37.1896 32.096 27.5906 22.4504 15.5566 14.9257 10.3172 9.47071 8.09104 9.12687 12.7809 5.47285 3.92825 3.68484 1.55254 1.45632
threshold=43.500000000000007 19.500000000000004 0.8882500000000001 100.50000000000001 0.27505000000000007 313.54546875000005 12.500000000000002 0.7250000000000002 45.482250000000008 53.500000000000007 2.8130500000000005 359.12543402777789 281.50000000000006 7.5000000000000009 6.5000000000000009 227.00000000000003 359.28193287037044
decision_type=2 2 2 2 2 2 2 2 2 2 2 2 2 2 2 2 2
left_child=1 8 3 -3 5 -2 7 -7 -1 -9 11 -11 14 -12 -6 -16 -14
right_child=4 2 -4 -5 12 6 -8 9 -10 10 13 -13 16 -15 15 -17 -18
leaf_value=-0.0018541523949666455 -0.022748807041809475 -0.059721370223164552 0.0080638793036341659 -0.017658967855386436 0.016099631473422051 -0.010797478459775448 -0.020513433017409762 0.022877154287695885 0.024308301866054531 -0.01656945359977809 0.0062486340514113824 0.010039426259463653 0.014694783899188041 0.022612004349737064 -0.0036987807489931579 0.0074190304242074488 0.024294008287516509
leaf_weight=33 29 25 20 32 30 35 26 25 20 33 31 32 25 23 20 26 33
leaf_count=33 29 25 20 32 30 35 26 25 20 33 31 32 25 23 20 26 33
internal_value=0 -0.011322 -0.0246343 -0.0361074 0.00342442 -0.00218288 0.000726445 0.00381157 0.00801847 0.00736238 0.00410297 -0.0034697 0.0132163 0.0132182 0.00791984 0.0025852 0.0201564
internal_weight=0 130 77 57 368 234 205 179 53 144 119 65 134 54 76 46 58
internal_count=498 130 77 57 368 234 205 179 53 144 119 65 134 54 76 46 58
is_linear=0
shrinkage=0.03


Tree=23
num_leaves=18
num_cat=0
split_feature=9 9 2 0 13 5 10 6 2 9 6 7 0 9 10 7 5
split_gain=21.8393 34.9917 30.1992 25.96 21.1236 14.6372 14.0748 9.33171 7.07371 7.35159 7.99613 13.2768 5.1494 3.51098 3.99348 2.71231 1.37025
threshold=43.500000000000007 19.500000000000004 0.8882500000000001 100.50000000000001 0.27505000000000007 313.54546875000005 11.500000000000002 6.4833333333333343 0.73000000000000009 53.500000000000007 11.288690476190478 0.71210000000000007 281.50000000000006 77.500000000000014 6.5000000000000009 0.6805000000000001 359.28193287037044
decision_type=2 2 2 2 2 2 2 2 2 2 2 2 2 2 2 2 2
left_child=1 7 3 -3 5 -2 8 -1 -7 -10 11 -11 13 14 -6 -12 -14
right_child=4 2 -4 -5 12 6 -8 -9 9 10 15 -13 16 -15 -16 -17 -18
leaf_value=-0.0032442528009414672 -0.022066343036191215 -0.057929728639125821 0.0078219627588987355 -0.017129198857583103 0.020141216957798368 -0.0079873994331468232 -0.015774366577204907 0.022154661779818327 0.022190840338915586 0.012514462257921697 0.006563079968094826 -0.016869520290244008 0.014253940545022487 -0.003107413563877344 0.0040775837451219555 0.020256257513942926 0.023565188070589844
leaf_weight=30 29 25 20 32 26 33 38 23 25 25 30 31 25 20 30 23 33
leaf_count=30 29 25 20 32 26 33 38 23 25 25 30 31 25 20 30 23 33
internal_value=0 -0.0109824 -0.0238953 -0.0350242 0.00332169 -0.00211739 0.000704652 0.00777792 0.00445437 0.00751839 0.00415314 -0.00375167 0.0128198 0.00768225 0.0115357 0.0125054 0.0195517
internal_weight=0 130 77 57 368 234 205 53 167 134 109 56 134 76 56 53 58
internal_count=498 130 77 57 368 234 205 53 167 134 109 56 134 76 56 53 58
is_linear=0
shrinkage=0.03


Tree=24
num_leaves=18
num_cat=0
split_feature=1 10 9 11 1 0 11 5 9 13 13 11 9 10 0 1 6
split_gain=32.7291 33.2255 37.5279 33.9324 35.6857 29.4897 18.0438 15.5715 14.3425 10.2012 7.54487 4.88743 5.67001 11.6996 4.59241 4.38088 2.55082
threshold=0.70135000000000003 1.5000000000000002 47.500000000000007 1.1929000000000001 0.43345000000000006 119.50000000000001 3.8214500000000005 321.31804976851856 61.500000000000007 0.24320000000000003 0.22295000000000004 2.9054500000000005 87.500000000000014 8.5000000000000018 333.50000000000006 0.36120000000000002 10.516666666666667
decision_type=2 2 2 2 2 2 2 2 2 2 2 2 2 2 2 2 2
left_child=1 -1 3 -3 5 -5 7 9 -9 -4 -10 12 13 -12 -13 -14 -8
right_child=-2 2 6 4 -6 -7 16 8 10 -11 11 14 15 -15 -16 -17 -18
leaf_value=0.038153695061802863 -0.037960995882749551 0.01917909023165703 -0.027807363939285276 -0.058254041946653658 0.0059371603509554491 -0.018083901477879596 0.011139838987961411 0.02245261331850832 -0.01336844004424555 -0.0016571736130221136 0.014223004281520842 -0.013609997555613517 0.020460482483560388 -0.017837722482159733 0.0045884452215754065 0.0046205087043344967 0.024642016596215611
leaf_weight=20 21 20 25 29 26 38 20 33 28 29 21 24 33 20 26 30 34
leaf_count=20 21 20 25 29 26 38 20 33 28 29 21 24 33 20 26 30 34
internal_value=0 0.000344011 -0.00139038 -0.0162709 -0.0238945 -0.035471 0.00381549 0.000638577 0.0042559 -0.0137637 0.000956501 0.00356104 0.00726673 -0.00141637 -0.00414681 0.0129176 0.0196412
internal_weight=0 456 436 113 93 67 323 269 215 54 182 154 104 41 50 63 54
internal_count=477 456 436 113 93 67 323 269 215 54 182 154 104 41 50 63 54
is_linear=0
shrinkage=0.03


Tree=25
num_leaves=19
num_cat=0
split_feature=1 10 9 11 1 9 11 5 15 9 13 11 15 11 7 13 6 9
split_gain=30.7948 31.2619 35.31 31.927 33.5767 17.4228 16.9774 14.6512 13.7459 13.4948 7.09897 4.59858 5.70862 7.43855 5.94083 3.74843 2.40007 1.99206
threshold=0.70135000000000003 1.5000000000000002 47.500000000000007 1.1929000000000001 0.43345000000000006 37.500000000000007 3.8214500000000005 321.31804976851856 2.6410500000000003 61.500000000000007 0.22295000000000004 2.9054500000000005 2.7829500000000005 2.4716500000000003 0.68235000000000012 0.27325000000000005 10.516666666666667 90.500000000000014
decision_type=2 2 2 2 2 2 2 2 2 2 2 2 2 2 2 2 2 2
left_child=1 -1 3 -3 5 -5 7 8 -4 -9 -11 12 13 17 -14 -13 -8 -12
right_child=-2 2 6 4 -6 -7 16 9 -10 10 11 15 14 -15 -16 -17 -18 -19
leaf_value=0.037009084314107897 -0.036822166144847866 0.018603717729449271 0.0017851379844877455 -0.051918834519797355 0.0057590453040141324 -0.021042437271067971 0.010805643578991293 0.02177903488278389 -0.028486800922287833 -0.012967386828469379 -0.012945331357419491 -0.0116036960358421 0.0050218948268372079 0.016147063043899835 0.027378212213516235 0.0048773750751886676 0.023902756435906183 0.00028405542884554183
leaf_weight=20 21 20 27 29 26 38 20 33 27 28 20 27 23 20 20 23 34 21
leaf_count=20 21 20 27 29 26 38 20 33 27 28 20 27 23 20 20 23 34 21
internal_value=0 0.000333691 -0.00134867 -0.0157827 -0.0231777 -0.0344068 0.00370102 0.00061942 -0.0133508 0.00412823 0.000927806 0.0034542 0.00704873 0.00114754 0.0154202 -0.0040224 0.019052 -0.0061693
internal_weight=0 456 436 113 93 67 323 269 54 215 182 154 104 61 43 50 54 41
internal_count=477 456 436 113 93 67 323 269 54 215 182 154 104 61 43 50 54 41
is_linear=0
shrinkage=0.03


Tree=26
num_leaves=18
num_cat=0
split_feature=1 10 9 11 1 0 11 10 5 5 13 14 3 9 12 14 2
split_gain=28.9749 29.4143 33.2232 30.0401 31.5923 26.8363 15.9741 14.4214 16.4116 10.6055 7.68285 14.8343 15.1276 7.4467 3.85087 3.46635 1.77508
threshold=0.70135000000000003 1.5000000000000002 47.500000000000007 1.1929000000000001 0.43345000000000006 119.50000000000001 3.8214500000000005 11.500000000000002 354.70652199074078 316.28832754629633 0.25880000000000009 10.111950000000002 58.872650000000007 102.50000000000001 3.3078500000000006 14.059700000000001 0.88060000000000016
decision_type=2 2 2 2 2 2 2 2 2 2 2 2 2 2 2 2 2
left_child=1 -1 3 -3 5 -5 7 9 -9 -4 11 -11 14 15 -13 -12 -8
right_child=-2 2 6 4 -6 -7 16 8 -10 10 13 12 -14 -15 -16 -17 -18
leaf_value=0.035898811563849442 -0.035717503385884419 0.018045606203377248 -0.012557176027446984 -0.055108560888931665 0.0055862735784970793 -0.0167882309604044 0.014141445246271112 -0.034907401666045189 -0.00026498239254578947 -0.019716381430625915 0.025725173346698282 0.010438715129026343 -0.0086226432248949995 -0.00076187182504397163 0.028832357704639433 0.011917603031421701 0.025298795189176288
leaf_weight=20 21 20 30 29 26 38 33 20 32 24 30 21 30 26 20 36 21
leaf_count=20 21 20 30 29 26 38 33 20 32 24 30 21 30 26 20 36 21
internal_value=0 0.00032368 -0.00130821 -0.0153093 -0.0224823 -0.0333746 0.00358999 0.000600837 -0.013589 0.00400116 0.00665758 0.000673555 0.00756593 0.0128367 0.0194112 0.0181938 0.0184804
internal_weight=0 456 436 113 93 67 323 269 52 217 187 95 71 92 41 66 54
internal_count=477 456 436 113 93 67 323 269 52 217 187 95 71 92 41 66 54
is_linear=0
shrinkage=0.03


Tree=27
num_leaves=19
num_cat=0
split_feature=5 0 10 2 0 6 2 13 0 13 14 3 6 5 0 7 11 5
split_gain=25.2393 45.3143 15.9858 16.2491 18.3303 16.4391 12.4752 8.77953 8.27195 11.1434 5.63378 5.56043 5.58681 5.39403 7.31427 3.88534 5.52764 2.83173
threshold=59.85624421296297 42.500000000000007 12.500000000000002 0.7250000000000002 166.00000000000003 6.6862745098039227 0.88275000000000003 0.27125000000000005 108.50000000000001 0.21565000000000004 8.0220500000000019 47.063250000000004 15.875000000000002 328.49939236111118 287.50000000000006 0.76565000000000005 2.4939000000000004 317.55642361111114
decision_type=2 2 2 2 2 2 2 2 2 2 2 2 2 2 2 2 2 2
left_child=1 -1 3 4 -2 6 -5 -4 -7 -10 -11 -12 13 17 15 16 -15 -13
right_child=2 -3 7 5 -6 8 -8 -9 9 10 11 12 -14 14 -16 -17 -18 -19
leaf_value=0.0035808531939983367 -0.033614966399967673 -0.055117113143205644 -0.028972988644880907 -0.026159666852856225 0.0020323718661392053 0.023905172492377461 0.0061667614004441672 -0.001199897713959217 -0.010495436050825648 -0.0019373654153558514 0.026037813419137489 0.011739840745925902 -0.0040948614274913617 -0.012492065018285875 0.021377015593979094 0.012853265386074781 0.0080891193589195613 0.026519819402268954
leaf_weight=29 20 20 21 22 37 32 21 20 27 31 22 20 22 23 27 24 24 28
leaf_count=29 20 20 21 22 37 32 21 20 27 31 22 20 22 23 27 24 24 28
internal_value=0 -0.0203775 0.00237188 0.00429209 -0.0104755 0.00689813 -0.0103723 -0.0154251 0.00955038 0.00769815 0.00992089 0.0118557 0.00999848 0.0121221 0.00808652 0.00303239 -0.00198252 0.0203615
internal_weight=0 49 421 380 57 323 43 41 280 248 221 190 168 146 98 71 47 48
internal_count=470 49 421 380 57 323 43 41 280 248 221 190 168 146 98 71 47 48
is_linear=0
shrinkage=0.03


Tree=28
num_leaves=18
num_cat=0
split_feature=5 0 2 9 6 5 0 13 5 11 14 2 9 4 13 15 9
split_gain=23.7476 42.6362 14.2791 19.3807 12.9241 9.12474 8.2829 9.26456 7.00519 5.61073 5.28771 6.14513 7.83175 5.94953 5.78602 4.3215 1.3981
threshold=59.85624421296297 42.500000000000007 0.7250000000000002 55.500000000000007 7.1483516483516496 322.85704282407409 108.50000000000001 0.21565000000000004 361.02813657407415 4.0447000000000015 9.7531000000000017 0.86935000000000007 59.500000000000007 44.624050000000004 0.27325000000000005 2.3624500000000004 103.50000000000001
decision_type=2 2 2 2 2 2 2 2 2 2 2 2 2 2 2 2 2
left_child=1 -1 3 -2 5 -4 -6 -8 -7 10 14 12 -12 15 -9 -14 -17
right_child=2 -3 4 -5 6 8 7 9 -10 -11 11 -13 13 -15 -16 16 -18
leaf_value=0.0034734276861980045 -0.032148584774695337 -0.053463600307703016 -0.023387193509510584 0.0028533315711787768 0.023222682426373164 0.0091676918273010562 -0.011597771528363226 -0.014458285888487642 -0.012967170449820431 0.018335384505020605 0.025229333738485973 -0.0048808967570463813 0.00084499766118824478 -0.0050193035023079983 0.0078368106074631211 0.020789207805480273 0.0109216893883422
leaf_weight=29 24 20 21 35 27 31 25 22 22 37 27 27 24 27 20 28 24
leaf_count=29 24 20 21 35 27 31 25 22 22 37 27 27 24 27 20 28 24
internal_value=0 -0.0197662 0.00230073 -0.0113847 0.00453123 -0.00665149 0.00740457 0.00576821 -2.03642e-05 0.00760783 0.00561326 0.00814258 0.0108475 0.00707745 -0.00384157 0.011375 0.016235
internal_weight=0 49 421 59 362 74 288 261 53 236 199 157 130 103 42 76 52
internal_count=470 49 421 59 362 74 288 261 53 236 199 157 130 103 42 76 52
is_linear=0
shrinkage=0.03


Tree=29
num_leaves=18
num_cat=0
split_feature=5 0 10 2 9 6 2 13 15 13 15 14 3 2 7 5 6
split_gain=22.3442 40.1164 14.8142 14.3647 21.4838 14.7855 11.5717 8.0882 7.77615 8.52176 7.38436 5.31427 5.26235 5.43142 3.80149 2.88701 1.85532
threshold=59.85624421296297 42.500000000000007 12.500000000000002 0.7250000000000002 59.500000000000007 6.6862745098039227 0.88275000000000003 0.27125000000000005 1.2165000000000001 0.23725000000000004 2.6410500000000003 8.0220500000000019 50.861950000000007 0.81265000000000009 0.79625000000000012 343.54666087962966 13.585714285714287
decision_type=2 2 2 2 2 2 2 2 2 2 2 2 2 2 2 2 2
left_child=1 -1 3 4 -2 6 -5 -4 -7 10 -10 -11 16 -14 15 -15 -13
right_child=2 -3 7 5 -6 8 -8 -9 9 11 -12 12 13 14 -16 -17 -18
leaf_value=0.0033692248062840821 -0.029218791222406757 -0.051859692089259626 -0.027904246824660469 -0.025053292255509983 0.0076680341064929956 0.023214937996479772 0.0060806334497673174 -0.0012470547035336494 0.0069847274415435331 -0.0020325091232856114 -0.014694687767097583 0.027159975151652877 -0.0010395806315628921 0.025189110463857651 0.0041848207342213596 0.011759542548371587 0.014666413349099456
leaf_weight=29 27 20 21 22 30 31 21 20 31 27 26 23 34 25 29 34 20
leaf_count=29 27 20 21 22 30 31 21 20 31 27 26 23 34 25 29 34 20
internal_value=0 -0.0191732 0.00223171 0.00408021 -0.00980467 0.00653048 -0.00984835 -0.0149007 0.0090458 0.00728177 -0.00290413 0.0103057 0.0123247 0.00914399 0.0130785 0.01745 0.021349
internal_weight=0 49 421 380 57 323 43 41 280 249 57 192 165 122 88 59 43
internal_count=470 49 421 380 57 323 43 41 280 249 57 192 165 122 88 59 43
is_linear=0
shrinkage=0.03


Tree=30
num_leaves=18
num_cat=0
split_feature=15 2 10 5 14 14 3 5 11 13 12 0 7 13 10 12 14
split_gain=24.0432 46.3164 18.5147 15.7343 13.3446 10.4835 16.1332 22.7515 4.98846 4.8605 4.95893 5.86494 4.73732 3.96771 6.73994 1.48634 0.885817
threshold=1.0408500000000001 0.85650000000000015 2.5000000000000004 349.84769675925935 9.7531000000000017 14.535250000000001 64.58335000000001 315.96778356481485 2.9395500000000006 0.27325000000000005 4.0544000000000002 333.50000000000006 0.74480000000000013 0.29615000000000008 9.5000000000000018 3.0689000000000006 11.198350000000001
decision_type=2 2 2 2 2 2 2 2 2 2 2 2 2 2 2 2 2
left_child=1 -1 -2 4 -4 8 7 -7 -6 10 12 -12 15 16 -15 -5 -11
right_child=2 -3 3 9 5 6 -8 -9 -10 13 11 -13 -14 14 -16 -17 -18
leaf_value=-0.040327957149814152 0.026185386508703234 0.010374023947984942 -0.021966813910642969 0.0083848824771121135 0.0016280809383500707 -0.039926161095499992 0.011297182783484459 -0.001590850153251698 0.022329627871513366 0.014237175216632231 -0.016175047361424992 0.0051409535124324838 -0.0022359935079629607 -0.0067946100756525992 0.016785998363047838 0.018943074606504521 0.02267410082509741
leaf_weight=34 30 31 34 24 22 22 30 38 20 21 21 26 26 20 24 24 24
leaf_count=34 30 31 34 24 22 22 30 38 20 21 21 26 26 20 24 24 24
internal_value=0 -0.016147 0.00350503 0.00169543 -0.00520707 -0.000890167 -0.00666569 -0.0156471 0.011486 0.00715169 0.00323739 -0.00438322 0.0080775 0.0124734 0.00606754 0.013664 0.0187369
internal_weight=0 65 406 376 166 132 90 60 42 210 121 47 74 89 44 48 45
internal_count=471 65 406 376 166 132 90 60 42 210 121 47 74 89 44 48 45
is_linear=0
shrinkage=0.03


Tree=31
num_leaves=19
num_cat=0
split_feature=15 2 11 14 12 9 2 3 3 7 7 4 3 3 1 4 9 1
split_gain=22.6222 43.5791 17.7485 12.5135 23.6666 10.5846 7.27549 10.9102 16.371 9.70395 13.0864 7.41019 7.05224 6.61775 5.14877 3.83903 2.84825 4.58128
threshold=1.0408500000000001 0.85650000000000015 4.4856000000000007 10.398550000000002 5.4857000000000005 67.500000000000014 0.78490000000000004 67.134700000000024 61.943050000000007 0.7149000000000002 0.68910000000000016 42.013300000000008 39.545100000000005 52.144000000000005 0.44675000000000004 40.739950000000007 61.500000000000007 0.35900000000000004
decision_type=2 2 2 2 2 2 2 2 2 2 2 2 2 2 2 2 2 2
left_child=1 -1 3 4 5 -2 16 8 9 10 13 -11 -6 -8 -10 -4 -5 -18
right_child=2 -3 15 6 12 -7 7 -9 14 11 -12 -13 -14 -15 -16 -17 17 -19
leaf_value=-0.039118118919432163 -0.035907902428163933 0.01006280335687822 0.03107375879372869 0.019460120028065096 0.020137900899164379 -0.0076343174329535531 -0.0065586451292037962 0.016831264018135911 -0.0072565632909536359 0.0028565817844608552 -0.022829675206116267 0.027210390964861619 -0.0023126594503136244 0.017036990971182997 -0.02852523822869573 0.012708415165543555 0.017456842913575795 -0.0010956187984440474
leaf_weight=34 26 31 21 31 20 22 20 34 20 23 21 22 34 23 21 20 23 25
leaf_count=34 26 31 21 31 20 22 20 34 20 23 21 22 34 23 21 20 23 25
internal_value=0 -0.0156626 0.00339988 0.00129763 -0.00762189 -0.0229492 0.00475691 0.00148743 -0.00199051 0.00408793 -0.0034179 0.0147629 0.00600236 0.00606228 -0.0181503 0.0221151 0.0123719 0.0077941
internal_weight=0 65 406 365 102 48 263 184 150 109 64 45 54 43 41 41 79 48
internal_count=471 65 406 365 102 48 263 184 150 109 64 45 54 43 41 41 79 48
is_linear=0
shrinkage=0.03


Tree=32
num_leaves=17
num_cat=0
split_feature=15 2 10 9 13 14 13 7 10 5 9 9 15 3 11 4
split_gain=21.2852 41.2852 17.058 18.3155 13.8829 9.95392 20.8015 8.2847 5.49927 6.7627 5.31814 6.31189 4.26979 5.0491 4.09483 2.4425
threshold=1.0408500000000001 0.84520000000000006 2.5000000000000004 41.500000000000007 0.25720000000000004 10.507750000000001 0.22705000000000003 0.73915000000000008 5.5000000000000009 323.57128472222229 102.50000000000001 108.50000000000001 2.7191000000000005 51.982900000000008 2.0055500000000008 44.167400000000008
decision_type=2 2 2 2 2 2 2 2 2 2 2 2 2 2 2 2
left_child=1 -1 -2 -4 5 6 -5 14 -6 -10 12 -12 13 -11 -7 -16
right_child=2 -3 3 4 8 7 -8 -9 9 10 11 -13 -14 -15 15 -17
leaf_value=-0.043557004150417113 0.025067743197083471 0.0049608433089758219 -0.023248670690506696 0.0065242948383092874 0.01917801883267729 -0.0037140149138867851 -0.030817615831720414 -0.0092834777698705077 -0.0058205042383633549 -0.0012343867339326866 -0.0097855946743352837 0.013500636722892522 0.026120781047003609 0.017945368684828281 0.0043947043744000519 0.017299522718583996
leaf_weight=27 30 38 25 25 38 20 29 38 32 21 22 20 21 30 22 33
leaf_count=27 30 38 25 25 38 20 29 38 32 21 22 20 21 30 22 33
internal_value=0 -0.0151927 0.00329788 0.00156093 0.00332799 -0.00293466 -0.0135297 0.00212845 0.00901203 0.00636609 0.00978689 0.00130309 0.0147358 0.0100478 0.0079105 0.0121376
internal_weight=0 65 406 376 351 167 54 113 184 146 114 42 72 51 75 55
internal_count=471 65 406 376 351 167 54 113 184 146 114 42 72 51 75 55
is_linear=0
shrinkage=0.03


Tree=33
num_leaves=21
num_cat=0
split_feature=1 6 10 9 11 9 10 5 13 5 5 10 9 6 9 5 9 13 14 7
split_gain=15.5236 16.0093 15.2077 16.149 44.0986 16.2912 15.6801 9.20882 8.12322 5.28173 16.3158 8.03106 13.3563 6.9039 4.68401 3.39801 6.98895 2.21824 1.98553 0.666827
threshold=0.67500000000000016 23.017857142857146 2.5000000000000004 42.500000000000007 2.3797000000000001 36.500000000000007 12.500000000000002 303.16369791666671 0.26480000000000009 328.7134143518519 353.84372685185195 9.5000000000000018 97.500000000000014 13.064777327935223 89.500000000000014 321.31804976851856 58.500000000000007 0.27090000000000009 16.893900000000006 0.69505000000000006
decision_type=2 2 2 2 2 2 2 2 2 2 2 2 2 2 2 2 2 2 2 2
left_child=1 2 -1 4 -4 -6 7 -5 -8 15 13 12 17 -11 -13 16 -9 -12 -17 -16
right_child=-2 -3 3 6 5 -7 8 9 -10 10 11 14 -14 -15 19 18 -18 -19 -20 -21
leaf_value=0.026941768527030945 -0.026801360674202444 -0.026060779184103013 0.016953377816183814 -0.012168258976936339 -0.046665716528892516 -0.011680529060895027 -0.028166234512813391 0.018876576542176983 -0.0014513846593243735 -0.024728886527674538 0.018237807783815597 0.0058092323496937749 -0.011788533491747719 -0.00010050224885344505 0.025442049419507385 0.012073427215218544 -0.005319254329161984 0.0054047464850273995 0.024997946775477863 0.01802496052533388
leaf_weight=20 20 20 29 25 25 23 20 22 21 21 27 25 35 20 24 20 21 22 23 20
leaf_count=20 20 20 29 25 25 23 20 22 21 21 27 25 35 20 24 20 21 22 23 20
internal_value=0 0.000193765 0.00137907 0.000170434 -0.0122552 -0.029902 0.00293567 0.00527719 -0.014483 0.00683482 0.00409149 0.0085952 0.00236579 -0.012715 0.0161788 0.0130233 0.00706001 0.012476 0.0189865 0.0220706
internal_weight=0 463 443 423 77 48 346 305 41 280 194 153 84 41 69 86 43 49 43 44
internal_count=483 463 443 423 77 48 346 305 41 280 194 153 84 41 69 86 43 49 43 44
is_linear=0
shrinkage=0.03


Tree=34
num_leaves=19
num_cat=0
split_feature=2 4 1 4 5 10 12 13 7 1 12 10 13 9 4 4 1 4
split_gain=18.9717 11.6481 16.2785 13.9385 19.4007 14.5733 11.5739 11.2893 20.3858 11.2811 9.8835 8.568 8.16549 6.10143 5.89672 3.41589 1.93152 1.53003
threshold=0.63495000000000013 47.301250000000003 0.62645000000000006 39.47955000000001 311.35674768518521 12.500000000000002 3.8161000000000005 0.20015000000000002 0.54775000000000007 0.37470000000000003 2.5235500000000006 8.5000000000000018 0.25880000000000009 87.500000000000014 41.634050000000009 43.729150000000004 0.38835000000000003 43.390250000000009
decision_type=2 2 2 2 2 2 2 2 2 2 2 2 2 2 2 2 2 2
left_child=-1 2 3 6 9 7 -2 -6 -9 -5 -10 12 16 -13 -14 -16 -12 -15
right_child=1 -3 -4 4 5 -7 -8 8 10 -11 11 13 14 17 15 -17 -18 -19
leaf_value=-0.02400044669955969 0.030402243919670582 0.017795733375982805 -0.023247663428386051 -0.033210007779300207 0.022978400480747223 -0.017076243996784528 0.0030220916799523611 -0.027191402764990925 -0.014531152703883972 -0.0033838861967836107 -0.016195059277117254 0.0049865167175193095 -0.0061169256046414372 0.026606135526672004 0.020919109922647474 0.0047106941992586309 -0.0030103445425629614 0.015517920785184415
leaf_weight=30 24 33 27 25 25 34 33 20 22 21 20 37 20 24 25 22 20 21
leaf_count=30 24 33 27 25 25 34 33 20 22 21 20 37 20 24 25 22 20 21
internal_value=0 0.00063375 -0.000714691 0.000833375 -0.00149365 0.0013774 0.0145506 0.00382827 0.00175575 -0.0195937 0.00449955 0.00671477 0.00112305 0.0140113 0.00752649 0.0133322 -0.0096027 0.0214316
internal_weight=0 453 420 393 336 290 57 256 231 46 211 189 107 82 67 47 40 45
internal_count=483 453 420 393 336 290 57 256 231 46 211 189 107 82 67 47 40 45
is_linear=0
shrinkage=0.03


Tree=35
num_leaves=21
num_cat=0
split_feature=1 6 10 9 11 9 10 5 0 5 5 10 9 6 4 9 3 5 11 7
split_gain=13.9734 14.6906 14.4294 14.9483 40.2265 15.2551 14.0569 8.19693 6.07269 5.06725 15.1194 7.2043 12.3623 6.6085 5.02095 4.1111 2.71281 2.59799 2.11703 0.631077
threshold=0.67500000000000016 23.017857142857146 2.5000000000000004 42.500000000000007 2.3797000000000001 36.500000000000007 12.500000000000002 303.16369791666671 300.50000000000006 328.7134143518519 353.84372685185195 9.5000000000000018 97.500000000000014 13.064777327935223 43.194050000000011 89.500000000000014 52.624700000000004 319.75590277777786 2.5595000000000003 0.69505000000000006
decision_type=2 2 2 2 2 2 2 2 2 2 2 2 2 2 2 2 2 2 2 2
left_child=1 2 -1 4 -4 -6 7 -5 -8 14 13 12 18 -11 17 -13 -16 -9 -12 -17
right_child=-2 -3 3 6 5 -7 8 9 -10 10 11 15 -14 -15 16 19 -18 -19 -20 -21
leaf_value=0.026226533085107803 -0.025420761711895466 -0.024958836391568182 0.016091262502916925 -0.011432400530576705 -0.044881701019406313 -0.011027295027211632 -0.025513606555759905 -0.0021533613379246422 -0.0024153530970215799 -0.024123453157288689 0.0044625456333160394 0.0056125696465373033 -0.011372851099286759 -2.7726911008358003e-05 0.012352713053779944 0.024126874334178865 0.027601532127176014 0.012441252327483632 0.017149833263508205 0.016911344840191304
leaf_weight=20 20 20 29 25 25 23 20 21 21 21 20 25 35 20 21 24 21 23 29 20
leaf_count=20 20 20 29 25 25 23 20 21 21 21 20 25 35 20 21 24 21 23 29 20
internal_value=0 0.000191098 0.00132654 0.00014923 -0.0118055 -0.0286598 0.00280968 0.0050267 -0.0136828 0.00649626 0.0038092 0.00814466 0.0022446 -0.0123694 0.0125578 0.0153273 0.0199771 0.00547564 0.0119713 0.0208471
internal_weight=0 463 443 423 77 48 346 305 41 280 194 153 84 41 86 69 42 44 49 44
internal_count=483 463 443 423 77 48 346 305 41 280 194 153 84 41 86 69 42 44 49 44
is_linear=0
shrinkage=0.03


Tree=36
num_leaves=18
num_cat=0
split_feature=2 0 5 10 13 6 2 14 6 10 6 13 11 11 10 11 5
split_gain=22.382 17.6626 17.3275 12.559 13.1961 8.55979 7.99183 3.8234 3.71282 6.41205 4.89835 3.96168 5.65708 4.28779 3.64952 4.77998 2.2282
threshold=0.63495000000000013 16.500000000000004 55.849774305555563 12.500000000000002 0.16350000000000003 20.47727272727273 0.70895000000000008 8.0220500000000019 7.5727272727272732 8.5000000000000018 8.7573529411764728 0.21295000000000003 3.6774000000000004 2.9054500000000005 8.5000000000000018 2.3047000000000009 349.17394097222228
decision_type=2 2 2 2 2 2 2 2 2 2 2 2 2 2 2 2 2
left_child=-1 -2 -3 4 -4 6 -6 -8 9 -9 -10 -12 13 14 15 -13 -15
right_child=1 2 3 -5 5 -7 7 8 10 -11 11 12 -14 16 -16 -17 -18
leaf_value=-0.025425441580323071 0.030067867019346783 -0.025375451593659816 -0.016507985228672622 -0.012935107092444713 0.023020015787333249 -0.012519189471378922 -0.0043010357181940753 -0.010690171443298459 0.019882670498918741 0.011258409755385439 -0.0054427782353013753 0.021001283240815002 0.022149919271469115 0.0051763003282248969 0.0003991477605369356 0.0053159928628626991 -0.0089848435688763845
leaf_weight=26 21 20 24 39 28 20 28 25 32 23 20 36 24 20 27 34 20
leaf_count=26 21 20 24 39 28 20 28 25 32 23 20 36 24 20 27 34 20
internal_value=0 0.00321786 0.00187536 0.0032379 0.00498512 0.00651579 0.00771673 0.00623406 0.00736427 -0.000173143 0.00906284 0.00714994 0.00871425 0.00636056 0.00976873 0.0133827 -0.00190427
internal_weight=0 441 420 400 361 337 317 289 261 48 213 181 161 137 97 70 40
internal_count=467 441 420 400 361 337 317 289 261 48 213 181 161 137 97 70 40
is_linear=0
shrinkage=0.03


Tree=37
num_leaves=17
num_cat=0
split_feature=2 6 10 10 5 6 6 10 6 5 13 13 5 11 11 7
split_gain=21.0592 15.6209 14.9049 12.3138 16.5808 25.8657 5.83466 11.3404 5.33051 3.23538 6.32868 5.72199 8.24332 6.96111 5.60759 1.56347
threshold=0.63495000000000013 21.58260869565218 12.500000000000002 2.5000000000000004 303.16369791666671 11.449891067538127 7.5727272727272732 9.5000000000000018 8.7321428571428594 327.49956018518526 0.2492 0.25375000000000009 359.44620370370376 2.9054500000000005 3.6452500000000003 0.68110000000000015
decision_type=2 2 2 2 2 2 2 2 2 2 2 2 2 2 2 2
left_child=-1 2 3 -2 5 -5 7 -6 -8 10 -10 12 -11 15 -15 -13
right_child=1 -3 -4 4 6 -7 8 -9 9 11 -12 13 -14 14 -16 -17
leaf_value=-0.024662678333429187 0.026485853862762448 -0.022783551312983034 -0.013568644779489228 0.0073717287846375252 -0.010625071842223405 -0.036672850730163714 0.020515462810342961 0.017160183683037757 0.021679736875618496 -0.014060370397887059 0.0041267596420488861 0.012874185457252539 0.0093983118178752739 -0.0096492523183538143 0.012023931805576597 0.02403107314556837
leaf_weight=26 25 20 38 28 39 21 33 20 36 28 38 26 26 22 21 20
leaf_count=26 25 20 38 28 39 21 33 20 36 28 38 26 26 22 21 20
internal_value=0 0.00312132 0.00435196 0.00612998 0.00470848 -0.0115045 0.00727948 -0.00120634 0.00928213 0.00757384 0.012666 0.00493871 -0.00276545 0.00961314 0.000935326 0.017725
internal_weight=0 441 421 383 358 49 309 59 250 217 74 143 54 89 43 46
internal_count=467 441 421 383 358 49 309 59 250 217 74 143 54 89 43 46
is_linear=0
shrinkage=0.03


Tree=38
num_leaves=19
num_cat=0
split_feature=2 0 6 1 10 11 0 14 11 2 14 14 12 10 15 11 1 4
split_gain=19.8146 15.8042 13.2812 13.0117 14.1847 7.46914 10.2624 21.6638 5.42477 5.28743 7.96527 4.73724 3.20424 2.57084 3.21409 2.98975 1.83564 0.656063
threshold=0.63495000000000013 16.500000000000004 21.58260869565218 0.62645000000000006 12.500000000000002 1.3702000000000003 120.50000000000001 19.680300000000006 1.9715500000000004 0.74950000000000017 8.0220500000000019 18.047850000000004 2.7466000000000004 9.5000000000000018 2.6410500000000003 2.7113000000000005 0.27425000000000005 43.015450000000008
decision_type=2 2 2 2 2 2 2 2 2 2 2 2 2 2 2 2 2 2
left_child=-1 -2 3 4 5 -3 7 -7 -8 16 -11 13 -13 14 -12 -16 -10 -15
right_child=1 2 -4 -5 -6 6 8 -9 9 10 11 12 -14 17 15 -17 -18 -19
leaf_value=-0.023922798232390328 0.02842586725950241 0.023493581414222718 -0.022100045643746853 -0.020035622049389138 -0.013161585310008377 -0.023633330026941912 -0.0041430591287151455 0.012127848945558071 0.012250147722238166 -0.010900859545916318 0.015534006151798608 0.009272848506542768 -0.0065777453547343611 0.022378305763006211 0.011468047969043254 -0.0049355465322732921 0.024371355373574339 0.014694190255366264
leaf_weight=26 21 21 20 21 38 31 31 30 22 20 37 22 24 20 20 20 23 20
leaf_count=26 21 21 20 21 38 31 31 30 22 20 37 22 24 20 20 20 23 20
internal_value=0 0.00302768 0.00175778 0.00295067 0.00422431 0.00616174 0.00502434 -0.00604586 0.00763161 0.00923255 0.00696709 0.00915948 0.00100297 0.0123663 0.00916115 0.00326625 0.0184454 0.0185362
internal_weight=0 441 420 400 379 341 320 61 259 228 183 163 46 117 77 40 45 40
internal_count=467 441 420 400 379 341 320 61 259 228 183 163 46 117 77 40 45 40
is_linear=0
shrinkage=0.03


Tree=39
num_leaves=17
num_cat=0
split_feature=13 10 5 9 11 6 5 13 10 11 5 4 6 7 10 11
split_gain=15.1934 18.9495 25.3079 10.0341 24.4471 15.5627 9.04327 7.90045 7.05778 8.77978 5.77733 4.63916 7.56688 3.4513 3.88789 7.92612
threshold=0.11650000000000001 2.5000000000000004 63.234780092592601 47.500000000000007 3.4672000000000005 8.2196969696969706 319.55215277777785 0.24095000000000003 13.500000000000002 1.9984000000000002 328.7134143518519 43.753450000000008 12.170289855072467 0.67205000000000015 10.500000000000002 2.7922000000000007
decision_type=2 2 2 2 2 2 2 2 2 2 2 2 2 2 2 2
left_child=-1 -2 -3 4 5 -4 7 -5 9 -8 -11 13 -13 -12 15 -15
right_child=1 2 3 6 -6 -7 8 -9 -10 10 11 12 -14 14 -16 -17
leaf_value=-0.02231787517093695 0.026135557672152154 -0.033193939589895305 -0.013704176109961488 -0.021929354880537304 -0.034220375849905865 0.014456564857575453 -0.0059112903274394371 0.0017516744069871492 -0.0071753208576278253 0.020523691989089314 0.020013546002097427 0.0099937579065964028 -0.010893765240907669 0.015572351844838031 0.017444888376113438 -0.0072387963353559891
leaf_weight=26 26 20 33 21 23 38 37 32 33 38 30 37 27 26 27 29
leaf_count=26 26 20 33 21 23 38 37 32 33 38 30 37 27 26 27 29
internal_value=0 0.00123194 -0.000203747 0.00132712 -0.00733997 0.00136777 0.00374465 -0.00763137 0.00586764 0.00758245 0.00991548 0.00762507 0.00118183 0.0113069 0.00812156 0.00354466
internal_weight=0 477 451 431 94 71 337 53 284 251 214 176 64 112 82 55
internal_count=503 477 451 431 94 71 337 53 284 251 214 176 64 112 82 55
is_linear=0
shrinkage=0.03


Tree=40
num_leaves=19
num_cat=0
split_feature=2 0 15 2 0 6 0 11 5 11 14 11 7 14 6 2 10 11
split_gain=18.8847 9.99907 15.914 13.2327 11.1528 8.38951 7.58157 8.30935 12.1803 8.20385 8.13642 6.47784 5.09395 5.35771 4.64064 2.90522 2.17542 1.83225
threshold=0.63495000000000013 59.000000000000007 8.4352000000000018 0.7229000000000001 166.00000000000003 6.6862745098039227 100.50000000000001 4.0248500000000007 319.55215277777785 2.9054500000000005 17.022000000000002 1.9984000000000002 0.75585000000000013 10.507750000000001 6.4833333333333343 0.85030000000000017 7.5000000000000009 5.1529000000000007
decision_type=2 2 2 2 2 2 2 2 2 2 2 2 2 2 2 2 2 2
left_child=-1 14 3 4 -3 -5 -7 8 10 11 -8 -10 13 -11 -2 16 -13 -9
right_child=1 2 -4 5 -6 6 7 17 9 12 -12 15 -14 -15 -16 -17 -18 -19
leaf_value=-0.021923123706470836 0.0069545119967969029 -0.030672889723442492 -0.026131470769643783 -0.010649284938084227 -0.0008746411723013107 0.022247411268098014 0.0010669698093884758 0.022718990474939346 -0.0045015690661966796 -0.0075249423906207083 -0.024502928904257714 0.0044186582819030085 -0.015410443948847908 0.0099922065572305152 0.025166297213640065 0.020308831650381762 0.015100381923839449 0.0098775548078119755
leaf_weight=33 34 20 20 35 26 21 21 20 24 30 24 37 21 33 20 32 32 20
leaf_count=33 34 20 20 35 26 21 21 20 24 30 24 37 21 33 20 32 32 20
internal_value=0 0.00155449 -2.20372e-05 0.00129662 -0.0138304 0.00328474 0.00483297 0.00358908 0.00158763 0.00463599 -0.0125703 0.00950838 -0.00261458 0.00165071 0.0136996 0.0128375 0.0093725 0.0162983
internal_weight=0 470 416 396 46 350 315 294 254 209 45 125 84 63 54 101 69 40
internal_count=503 470 416 396 46 350 315 294 254 209 45 125 84 63 54 101 69 40
is_linear=0
shrinkage=0.03


Tree=41
num_leaves=20
num_cat=0
split_feature=2 9 9 11 11 11 13 15 13 13 10 0 1 1 0 0 7 11 9
split_gain=17.7686 11.0418 14.6365 32.0038 10.302 9.08227 7.72345 12.9249 5.5981 6.79974 6.41751 7.18562 5.50768 5.16705 4.27702 4.24291 3.47621 2.28091 1.88092
threshold=0.63495000000000013 17.500000000000004 46.500000000000007 3.4672000000000005 4.0248500000000007 2.4481000000000006 0.23825000000000005 1.6575000000000002 0.24530000000000005 0.25720000000000004 5.5000000000000009 259.50000000000006 0.56150000000000011 0.43080000000000007 307.50000000000006 384.50000000000006 0.71925000000000006 5.362750000000001 63.500000000000007
decision_type=2 2 2 2 2 2 2 2 2 2 2 2 2 2 2 2 2 2 2
left_child=-1 12 3 5 6 -3 7 -4 -8 -10 18 16 -2 -9 -13 -16 -12 -6 -11
right_child=1 2 4 -5 17 -7 8 13 9 10 11 14 -14 -15 15 -17 -18 -19 -20
leaf_value=-0.021265430369160392 0.027112393485648291 -0.011847939159600964 0.012874290438538247 -0.040318912714719768 0.022367067593336107 0.010304612684994935 0.017606995883397755 -0.022259999971138311 -0.010139267972924493 0.021707876190310341 -0.01784371531382203 0.017195819979533553 0.0051149230599403378 -0.0047762861918529556 -0.0062306914312971959 0.011517660690640859 -0.0001559077575802803 0.0087746534273028375 0.0086970110312104224
leaf_weight=33 21 31 22 24 25 36 24 32 33 20 20 24 20 29 27 22 20 20 20
leaf_count=33 21 31 22 24 25 36 24 32 33 20 20 24 20 29 27 22 20 20 20
internal_value=0 0.00150786 8.63281e-05 -0.0105931 0.00296156 5.49245e-05 0.000909007 -0.00683853 0.00397113 0.00221166 0.00487559 0.00122006 0.0163819 -0.0139481 0.00681999 0.00173796 -0.00899981 0.016326 0.0152024
internal_weight=0 470 429 91 338 67 293 83 210 186 153 113 41 61 73 49 40 45 40
internal_count=503 470 429 91 338 67 293 83 210 186 153 113 41 61 73 49 40 45 40
is_linear=0
shrinkage=0.03


Tree=42
num_leaves=20
num_cat=0
split_feature=1 5 2 6 15 6 0 13 1 9 5 0 1 15 14 3 13 6 13
split_gain=24.601 12.3541 16.5699 13.4248 14.8846 12.3378 10.8013 5.54636 5.03064 9.07094 7.02288 4.42747 4.35367 5.05506 4.27342 3.47072 4.4839 3.39836 2.60242
threshold=0.70135000000000003 25.270497685185187 0.63495000000000013 7.5727272727272732 1.2165000000000001 5.8377192982456148 140.50000000000003 0.18780000000000002 0.43080000000000007 46.500000000000007 317.20222800925927 183.50000000000003 0.33420000000000005 2.6631000000000005 10.398550000000002 40.448650000000008 0.27505000000000007 10.414215686274511 0.28015000000000007
decision_type=2 2 2 2 2 2 2 2 2 2 2 2 2 2 2 2 2 2 2
left_child=1 -1 -3 5 -5 -4 -7 -6 9 -9 -11 -12 14 -14 15 -13 -17 -10 -16
right_child=-2 2 3 4 7 6 -8 8 17 10 11 12 13 -15 18 16 -18 -19 -20
leaf_value=0.021710847243827221 -0.031231271937489511 -0.023291829403327861 0.0084775789680757684 0.026589025495839972 -0.010794763243333859 -0.030583647859096525 -0.0040802233930557008 -0.015219273939728736 0.0052333650402724748 -0.0091953666580633989 0.019824483228678053 0.014007834697142243 0.0078628184764899973 -0.012251970537978669 0.023769195187836885 -0.0098068923084065306 0.0094264522120356548 0.022142098837572594 0.0093750036343072472
leaf_weight=29 20 23 28 28 22 25 31 22 20 27 22 20 22 23 20 24 20 23 26
leaf_count=29 20 23 28 28 22 25 31 22 20 27 22 20 22 23 20 24 20 23 26
internal_value=0 0.00276444 0.00147466 0.00288813 0.00569788 -0.00778221 -0.0159121 0.00368774 0.00487218 0.00308266 0.0050564 0.00723039 0.00544285 -0.00241807 0.00865868 0.00364563 -0.00106446 0.0142776 0.0156333
internal_weight=0 455 426 403 319 84 56 291 269 226 204 177 155 45 110 64 44 43 46
internal_count=475 455 426 403 319 84 56 291 269 226 204 177 155 45 110 64 44 43 46
is_linear=0
shrinkage=0.03


Tree=43
num_leaves=19
num_cat=0
split_feature=1 11 6 3 6 12 10 10 3 8 6 9 6 6 3 0 7 8
split_gain=23.1471 13.361 12.3271 14.8876 10.8705 12.493 9.38115 8.75023 13.4741 11.8649 6.84084 7.20181 4.30479 6.2541 5.85563 7.81783 6.90415 5.43406
threshold=0.70135000000000003 5.7765000000000013 7.5727272727272732 49.807950000000005 5.8377192982456148 2.6519500000000007 12.500000000000002 4.5000000000000009 48.517150000000008 0.50940000000000007 14.607692307692309 69.500000000000014 13.114177489177491 12.122399020807835 54.690250000000006 142.50000000000003 0.75155000000000005 0.35315000000000002
decision_type=2 2 2 2 2 2 2 2 2 2 2 2 2 2 2 2 2 2
left_child=1 2 3 -1 -5 -6 7 8 -4 10 12 -12 13 14 17 -16 -17 -9
right_child=-2 -3 6 4 5 -7 -8 9 -10 -11 11 -13 -14 -15 15 16 -18 -19
leaf_value=-0.030436902131353104 -0.030294333681464194 0.024961425790806176 -0.018624762549996378 0.013759594697218675 -0.028278983116149899 0.0035318556614220139 -0.01283538775001135 0.028767047289758919 0.013164481345564126 0.026620735807551275 -0.016443640180741962 0.0055645641731098296 0.018062409868135169 -0.0081505258547385096 0.018106448904357173 -0.01445409293230623 0.0080726624280214321 0.008949528397484259
leaf_weight=21 20 23 30 26 20 25 27 20 20 27 23 32 34 23 22 25 24 33
leaf_count=21 20 23 30 26 20 25 27 20 20 27 23 32 34 23 22 25 24 33
internal_value=0 0.00268151 0.00149531 -0.00824683 -0.00168357 -0.0106063 0.00413142 0.00559501 -0.00590906 0.00778209 0.00562683 -0.00363887 0.00844237 0.00621732 0.00888233 0.00324977 -0.00342058 0.0164278
internal_weight=0 455 432 92 71 45 340 313 50 263 236 55 181 147 124 71 49 53
internal_count=475 455 432 92 71 45 340 313 50 263 236 55 181 147 124 71 49 53
is_linear=0
shrinkage=0.03


Tree=44
num_leaves=18
num_cat=0
split_feature=2 3 6 6 9 5 0 14 0 15 5 11 2 4 4 15 13
split_gain=17.4823 14.1717 8.2371 17.7876 10.5582 13.4494 10.202 5.73827 6.12756 5.08613 4.61758 2.28988 4.88872 4.28282 2.25813 1.36872 0.659171
threshold=0.63495000000000013 33.594000000000008 7.5727272727272732 5.8377192982456148 30.500000000000004 303.16369791666671 140.50000000000003 8.7250500000000013 367.50000000000006 1.5623500000000001 319.01049768518527 2.8736000000000006 0.85650000000000015 44.083900000000007 44.007450000000013 2.3624500000000004 0.27455000000000007
decision_type=2 2 2 2 2 2 2 2 2 2 2 2 2 2 2 2 2
left_child=-1 -2 3 14 -4 -6 -5 8 -7 -9 -11 13 -13 15 -3 -12 -17
right_child=1 2 4 6 5 7 -8 9 -10 10 11 12 -14 -15 -16 16 -18
leaf_value=-0.020912057161331175 0.025171269173733891 0.002114588376134634 0.024350624462323528 -0.030720488395040421 -0.016711549334228037 -0.014027352829995962 -0.0054207097319886087 0.019117252064438966 0.0058199347638791159 -0.0056219952211024301 0.0086769230756908663 0.0090181729303939005 -0.0092910204189164299 0.0016887077140180689 0.016370527200400831 0.021595406156033278 0.013985355521685311
leaf_weight=30 24 20 21 26 30 28 32 26 28 31 24 35 21 38 20 20 21
leaf_count=30 24 20 21 26 30 28 32 26 28 31 24 35 21 38 20 20 21
internal_value=0 0.00274862 0.00147037 -0.00614789 0.00378179 0.00235151 -0.016762 0.00445405 -0.00410371 0.00667273 0.00496979 0.00703486 0.00215223 0.00968949 0.00924256 0.0143669 0.0176976
internal_weight=0 445 421 98 323 302 58 272 56 216 190 159 56 103 40 65 41
internal_count=475 445 421 98 323 302 58 272 56 216 190 159 56 103 40 65 41
is_linear=0
shrinkage=0.03


Tree=45
num_leaves=21
num_cat=0
split_feature=1 0 5 6 10 2 13 12 12 12 4 13 10 15 5 3 1 4 1 6
split_gain=22.0435 20.0773 18.6821 16.5823 21.0135 11.8074 10.8479 10.6414 16.3965 9.3449 5.74218 8.42893 4.77179 4.1923 4.12761 4.00307 2.93895 2.52998 2.30514 1.22867
threshold=0.67500000000000016 16.500000000000004 45.226510416666677 7.5727272727272732 7.5000000000000009 0.87380000000000013 0.25720000000000004 3.6625000000000005 5.536150000000001 4.3509000000000011 42.519000000000005 0.21565000000000004 5.5000000000000009 1.8678000000000001 323.57128472222229 53.848450000000007 0.34630000000000005 42.485600000000012 0.26805000000000007 13.389655172413795
decision_type=2 2 2 2 2 2 2 2 2 2 2 2 2 2 2 2 2 2 2 2
left_child=1 -1 -3 4 5 -4 7 10 9 -9 -5 -12 19 -14 -15 -13 18 -6 -16 -8
right_child=-2 2 3 6 17 -7 12 8 -10 -11 11 15 13 14 16 -17 -18 -19 -20 -21
leaf_value=0.028827652686408588 -0.032001588603481644 -0.027520316429436205 -0.042793828376701898 0.017757116757009341 -0.0042535116949251718 -0.010585754161700605 0.022583846027031541 -0.0075474894824235327 0.0063753780105616897 -0.034044397348165507 -0.013775179128570016 0.018203869611024857 -0.004758004051234041 -0.0027303996961563826 0.014037099062435089 -0.00077708408609032632 0.021096637355429784 0.010472512042948178 0.0026445303840393368 0.012194075613681759
leaf_weight=21 20 23 21 23 21 20 20 23 32 25 24 20 28 24 31 20 21 21 33 21
leaf_count=21 20 23 21 23 21 20 20 23 32 25 24 20 28 24 31 20 21 21 33 21
internal_value=0 0.000154088 -0.00118104 0.000234384 -0.0118047 -0.0270826 0.00313073 -0.00236135 -0.0102586 -0.021348 0.00490052 0.000280178 0.00828341 0.00559632 0.00825614 0.00871339 0.0113582 0.0031095 0.00816281 0.0172623
internal_weight=0 472 451 428 83 41 345 167 80 48 87 64 178 137 109 40 85 42 64 41
internal_count=492 472 451 428 83 41 345 167 80 48 87 64 178 137 109 40 85 42 64 41
is_linear=0
shrinkage=0.03


Tree=46
num_leaves=20
num_cat=0
split_feature=1 0 9 11 13 6 4 11 5 9 9 13 10 6 10 0 4 13 6
split_gain=20.7407 18.8907 19.8428 28.2212 21.1527 17.7304 10.9659 10.5493 18.7986 6.86534 9.66696 13.7454 8.30997 6.80502 6.44918 5.97043 2.22398 1.57851 1.11744
threshold=0.67500000000000016 16.500000000000004 47.500000000000007 3.9451000000000005 0.27925000000000005 8.4068965517241399 44.402550000000012 3.8214500000000005 321.31804976851856 63.500000000000007 85.500000000000014 0.25720000000000004 7.5000000000000009 11.927272727272729 13.500000000000002 151.50000000000003 43.632750000000009 0.26935000000000003 12.574175824175827
decision_type=2 2 2 2 2 2 2 2 2 2 2 2 2 2 2 2 2 2 2
left_child=1 -1 3 4 5 -3 -7 8 15 17 11 -11 13 -12 16 -4 -14 -10 -9
right_child=-2 2 7 -5 -6 6 -8 18 9 10 12 -13 14 -15 -16 -17 -18 -19 -20
leaf_value=0.02796282332922731 -0.031041540384292604 -0.014095068261559519 -0.0023954327325336634 -0.044032188361510634 -0.03117587929422205 0.0013923200227033633 0.030939843781292439 0.011523758929967879 0.019809848803281783 -0.023422290629574231 -0.017011792615056035 0.0091408222988247877 0.022639793023990933 0.0048136876896023749 -0.0020459010185939924 -0.023052394734147715 0.010697724390774965 0.0085023771040141586 0.020794199840589001
leaf_weight=21 20 35 20 20 22 26 20 25 25 28 20 20 32 36 21 34 25 20 22
leaf_count=21 20 35 20 20 22 26 20 25 25 28 20 20 32 36 21 34 25 20 22
internal_value=0 0.000149466 -0.00114561 -0.0114215 -0.00508932 0.00199592 0.0142391 0.00270784 0.000507493 0.00429205 0.00169781 -0.00985433 0.00583589 -0.00298113 0.0121661 -0.0154017 0.017402 0.0147843 0.0158631
internal_weight=0 472 451 123 103 81 46 328 281 227 182 48 134 56 78 54 57 45 47
internal_count=492 472 451 123 103 81 46 328 281 227 182 48 134 56 78 54 57 45 47
is_linear=0
shrinkage=0.03


Tree=47
num_leaves=21
num_cat=0
split_feature=1 0 9 11 13 5 11 5 15 9 9 13 10 10 10 15 7 12 13 7
split_gain=19.5149 17.7743 18.6701 26.5533 19.9026 10.0317 9.92581 17.6876 9.79145 6.4596 9.09565 12.933 7.81885 6.06803 5.72579 4.6594 2.93949 1.84764 0.80579 0.769091
threshold=0.67500000000000016 16.500000000000004 47.500000000000007 3.9451000000000005 0.27925000000000005 320.53222800925931 3.8214500000000005 321.31804976851856 2.0283500000000001 63.500000000000007 85.500000000000014 0.25720000000000004 7.5000000000000009 13.500000000000002 8.5000000000000018 5.3316000000000008 0.5636500000000001 3.3215000000000003 0.29780000000000006 0.6674000000000001
decision_type=2 2 2 2 2 2 2 2 2 2 2 2 2 2 2 2 2 2 2 2
left_child=1 -1 3 4 5 8 7 14 -3 17 11 -11 15 19 -4 -12 -7 -9 -8 -14
right_child=-2 2 6 -5 -6 16 18 9 -10 10 12 -13 13 -15 -16 -17 -18 -19 -20 -21
leaf_value=0.027123938120369399 -0.030110295306891202 0.027467582389712333 -0.0071467985145070335 -0.04271122271893546 -0.030240603140131991 -0.016723168677650391 0.01907211075425148 0.0078421731665730479 -0.0022179493904113767 -0.022719622171883072 -0.0093416345864534376 0.0088665977418422685 0.012484613123603843 -0.0019845241042120119 -0.027185476997068948 0.0087182018458843227 -0.00065283760162336481 0.020027054818347097 0.011199846166101368 0.019642785631120204
leaf_weight=21 20 20 33 20 22 20 25 21 20 28 36 20 22 21 21 20 21 24 22 35
leaf_count=21 20 20 33 20 22 20 25 21 20 28 36 20 22 21 21 20 21 24 22 35
internal_value=0 0.000144982 -0.00111124 -0.0110788 -0.00493664 0.00193605 0.00262661 0.000492268 0.0126248 0.00416329 0.00164688 -0.0095587 0.00566081 0.0118011 -0.0149396 -0.00289169 -0.00849202 0.0143408 0.0153872 0.01688
internal_weight=0 472 451 123 103 81 328 281 40 227 182 48 134 78 54 56 41 45 47 57
internal_count=492 472 451 123 103 81 328 281 40 227 182 48 134 78 54 56 41 45 47 57
is_linear=0
shrinkage=0.03


Tree=48
num_leaves=18
num_cat=0
split_feature=6 2 2 15 10 2 6 0 13 5 5 13 7 15 15 10 0
split_gain=18.1933 14.5766 13.7504 13.0616 11.9711 8.35707 12.8844 6.6252 8.59255 7.37939 15.5262 5.58222 5.51935 2.42093 4.25897 2.15697 2.27408
threshold=23.482517482517487 0.63495000000000013 0.67480000000000018 8.2696000000000023 12.500000000000002 0.90050000000000019 6.6862745098039227 107.50000000000001 0.25720000000000004 359.12543402777789 336.74988425925932 0.30035000000000006 0.67805000000000015 1.7345000000000002 0.79965000000000008 9.5000000000000018 197.00000000000003
decision_type=2 2 2 2 2 2 2 2 2 2 2 2 2 2 2 2 2
left_child=1 -1 -3 4 5 6 -4 -8 9 10 12 15 -9 14 -7 16 -10
right_child=-2 2 3 -5 -6 13 7 8 11 -11 -12 -13 -14 -15 -16 -17 -18
leaf_value=-0.020493577784962125 -0.028358384974300863 0.02652137374319136 -0.017917101341817114 -0.02091683606090753 -0.014629092450418017 0.0082438518789131193 0.018877378376200793 -0.0093208401484621891 0.023619030534289775 0.0065642824826332236 -0.031276886111923627 -0.0016888821927400735 0.011185788001332964 0.0061546615697443486 0.0275876090994903 0.0055489903092384336 0.01093794106479202
leaf_weight=27 20 20 27 23 34 20 24 27 20 39 21 39 21 24 21 30 35
leaf_count=27 20 20 27 23 34 20 24 27 20 39 21 39 21 24 21 30 35
internal_value=0 0.000880734 0.00223863 0.00103948 0.00236146 0.00402146 0.00179342 0.00387227 0.00232001 -0.00386638 -0.00976197 0.00770816 -0.00034919 0.013722 0.0181516 0.0120197 0.0155492
internal_weight=0 452 425 405 382 348 283 256 232 108 69 124 48 65 41 85 55
internal_count=472 452 425 405 382 348 283 256 232 108 69 124 48 65 41 85 55
is_linear=0
shrinkage=0.03


Tree=49
num_leaves=18
num_cat=0
split_feature=6 2 2 10 7 1 0 5 2 2 5 2 3 5 0 10 13
split_gain=17.1181 13.7151 12.9378 8.39459 9.28302 6.6477 8.70267 8.56219 7.48304 10.8693 7.40672 4.42497 4.69638 6.5991 5.6587 4.06781 0.838044
threshold=23.482517482517487 0.63495000000000013 0.67480000000000018 12.500000000000002 0.54775000000000007 0.62645000000000006 69.000000000000014 321.31804976851856 0.85805000000000009 0.8045000000000001 328.7134143518519 0.89140000000000008 47.622350000000004 359.89646990740749 187.50000000000003 7.5000000000000009 0.27735000000000004
decision_type=2 2 2 2 2 2 2 2 2 2 2 2 2 2 2 2 2
left_child=1 -1 -3 4 -4 6 -6 8 9 -8 16 12 -12 14 -14 -15 -9
right_child=-2 2 3 -5 5 -7 7 10 -10 -11 11 -13 13 15 -16 -17 -18
leaf_value=-0.019878770891163081 -0.027507633626461026 0.02572573233023286 -0.01260140436098856 -0.013034715165783252 0.021411023034403721 -0.0098813026989328454 0.002895378677174449 0.022416948275640607 0.0071081344382121006 -0.027344344932100046 0.012183538230601698 0.016708834682192121 0.0037733678859861002 -0.0037633176097138358 -0.015276425865789256 0.012610624621932704 0.013836262875369617
leaf_weight=27 20 20 34 35 27 29 20 20 26 23 32 21 23 22 36 36 21
leaf_count=27 20 20 34 35 27 29 20 20 26 23 32 21 23 22 36 36 21
internal_value=0 0.000854312 0.00217147 0.0010083 0.00233669 0.00384829 0.00514522 0.00357673 -0.00559711 -0.0132794 0.00657671 0.00381638 0.00199932 -0.000786106 -0.00785024 0.00639982 0.018022
internal_weight=0 452 425 405 370 336 307 280 69 43 211 170 149 117 59 58 41
internal_count=472 452 425 405 370 336 307 280 69 43 211 170 149 117 59 58 41
is_linear=0
shrinkage=0.03


Tree=50
num_leaves=20
num_cat=0
split_feature=6 2 2 15 10 2 6 0 0 1 1 1 6 6 4 14 15 15 4
split_gain=16.1064 12.9045 12.1732 12.2432 10.6919 7.59542 12 6.08743 4.5291 4.52018 6.20963 8.35789 4.13836 3.35345 3.10399 2.67661 2.27994 3.99393 0.818089
threshold=23.482517482517487 0.63495000000000013 0.67480000000000018 8.2696000000000023 12.500000000000002 0.90050000000000019 6.6862745098039227 107.50000000000001 287.50000000000006 0.31010000000000004 0.40135000000000004 0.42910000000000004 15.71904761904762 10.414215686274511 42.998550000000002 22.330950000000005 1.7345000000000002 0.79965000000000008 42.723650000000013
decision_type=2 2 2 2 2 2 2 2 2 2 2 2 2 2 2 2 2 2 2
left_child=1 -1 -3 4 5 6 -4 -8 9 14 13 -12 18 -11 -9 -13 17 -7 -10
right_child=-2 2 3 -5 -6 16 7 8 12 10 11 15 -14 -15 -16 -17 -18 -19 -20
leaf_value=-0.019282407197687361 -0.026682404525578018 0.024953960498794912 -0.01731934369438224 -0.020279276202554288 -0.013799178332213641 0.0077788504650816315 0.018092121116351337 -0.0007532105807747159 0.018259861780838535 0.018486951252688531 -0.020045678872615099 0.011435247380286454 -0.0020174345374107359 0.0038220968035360173 -0.017064444936279739 -0.0031626811043287701 0.0057309982925653454 0.026511037924460003 0.010078508647328073
leaf_weight=27 20 20 27 23 34 20 24 21 22 23 20 20 21 36 21 26 24 21 22
leaf_count=27 20 20 27 23 34 20 24 21 22 23 20 20 21 36 21 26 24 21 22
internal_value=0 0.000828682 0.00210633 0.00097805 0.00225794 0.00382674 0.00170266 0.00370889 0.00222097 -0.000394094 0.00246686 -0.00385513 0.00893966 0.0095389 -0.00890883 0.00318424 0.0130747 0.0173734 0.0141692
internal_weight=0 452 425 405 382 348 283 256 232 167 125 66 65 59 42 46 65 41 44
internal_count=472 452 425 405 382 348 283 256 232 167 125 66 65 59 42 46 65 41 44
is_linear=0
shrinkage=0.03


Tree=51
num_leaves=19
num_cat=0
split_feature=6 10 10 9 10 6 4 10 0 0 13 13 10 7 7 0 1 6
split_gain=15.6995 12.5813 16.8443 19.5825 8.39575 9.94303 9.60736 7.91701 6.82397 6.0081 4.66773 6.38664 5.22532 3.6822 4.69128 4.95955 1.70647 0.82984
threshold=23.975000000000005 2.5000000000000004 4.5000000000000009 49.500000000000007 11.500000000000002 7.5727272727272732 41.515950000000011 7.5000000000000009 107.50000000000001 104.50000000000001 0.23515000000000003 0.24845000000000003 6.5000000000000009 0.61875000000000013 0.75155000000000005 259.50000000000006 0.28820000000000007 11.288690476190478
decision_type=2 2 2 2 2 2 2 2 2 2 2 2 2 2 2 2 2 2
left_child=1 -1 3 -3 5 7 -6 8 -4 -7 12 -12 -11 -13 15 -15 -17 -16
right_child=-2 2 4 -5 6 9 -8 -9 -10 10 11 13 -14 14 17 16 -18 -19
leaf_value=0.019757937880499021 -0.024055412903960259 -0.038453420788049697 -0.0011571568037782396 0.0017405242100358008 0.007816736513505812 0.020648923518200375 -0.017005114898784087 0.0069285910800099366 -0.025342099773032326 -0.0098894110512919714 0.022312596927468592 0.016292297991995625 0.0084854731952341712 -0.0096050738115445716 0.0077074622958898543 -0.00011731131188571454 0.012127103188208171 0.016349545173346997
leaf_weight=35 21 20 21 24 23 29 36 30 21 30 26 26 26 32 20 20 21 20
leaf_count=35 21 20 21 24 23 29 36 30 21 30 26 26 26 32 20 20 21 20
internal_value=0 0.00246911 0.00104533 -0.0165295 0.00307496 0.00498124 -0.0073288 -0.00484204 -0.0132496 0.00781035 0.00612565 0.00866562 -0.00135821 0.00611295 0.0037708 -0.000753965 0.00615422 0.0120285
internal_weight=0 460 425 44 381 322 59 72 42 250 221 165 56 139 113 73 41 40
internal_count=481 460 425 44 381 322 59 72 42 250 221 165 56 139 113 73 41 40
is_linear=0
shrinkage=0.03


Tree=52
num_leaves=19
num_cat=0
split_feature=6 10 10 9 10 6 4 10 0 0 13 13 10 2 7 0 12 6
split_gain=14.7716 11.8377 15.8488 18.4251 7.89956 9.3554 9.03957 7.44911 6.42067 5.65302 4.39186 6.00919 4.91651 4.40247 4.83129 6.35088 2.38437 0.780796
threshold=23.975000000000005 2.5000000000000004 4.5000000000000009 49.500000000000007 11.500000000000002 7.5727272727272732 41.515950000000011 7.5000000000000009 107.50000000000001 104.50000000000001 0.23515000000000003 0.24845000000000003 6.5000000000000009 0.76355000000000006 0.75155000000000005 259.50000000000006 4.8060000000000009 11.288690476190478
decision_type=2 2 2 2 2 2 2 2 2 2 2 2 2 2 2 2 2 2
left_child=1 -1 3 -3 5 7 -6 8 -4 -7 12 -12 -11 -13 15 -15 -17 -16
right_child=-2 2 4 -5 6 9 -8 -9 -10 10 11 13 -14 14 17 16 -18 -19
leaf_value=0.019165199645927972 -0.023333749997296503 -0.03729981767758727 -0.0011224424626146044 0.0016883088834583758 0.0075822346965255943 0.020029455942487149 -0.016494961502030493 0.0067207333035767076 -0.024581836270434514 -0.009592729436233639 0.021643219257776552 0.016803557442294226 0.008230908900642625 -0.011878323276992887 0.0074762384891510006 0.013342199857745853 -0.00095376302621194293 0.015859058819711207
leaf_weight=35 21 20 21 24 23 29 36 30 21 30 26 27 26 30 20 21 21 20
leaf_count=35 21 20 21 24 23 29 36 30 21 30 26 27 26 30 20 21 21 20
internal_value=0 0.00239504 0.00101397 -0.0160336 0.00298271 0.00483181 -0.00710894 -0.00469678 -0.0128521 0.00757604 0.00594188 0.00840566 -0.00131747 0.00592956 0.00330816 -0.00133601 0.00619422 0.0116676
internal_weight=0 460 425 44 381 322 59 72 42 250 221 165 56 139 112 72 42 40
internal_count=481 460 425 44 381 322 59 72 42 250 221 165 56 139 112 72 42 40
is_linear=0
shrinkage=0.03


Tree=53
num_leaves=19
num_cat=0
split_feature=6 10 10 9 10 6 4 10 0 0 14 7 4 3 14 4 4 11
split_gain=13.8986 11.1381 14.9122 17.3362 7.4327 8.8025 8.50533 7.00887 6.04121 5.31893 3.33482 6.0048 4.42136 5.39719 4.79923 3.25625 2.74589 1.56912
threshold=23.975000000000005 2.5000000000000004 4.5000000000000009 49.500000000000007 11.500000000000002 7.5727272727272732 41.515950000000011 7.5000000000000009 107.50000000000001 104.50000000000001 6.370000000000001 0.58795000000000008 41.361600000000003 60.116600000000005 10.398550000000002 40.194600000000008 43.471850000000011 2.4481000000000006
decision_type=2 2 2 2 2 2 2 2 2 2 2 2 2 2 2 2 2 2
left_child=1 -1 3 -3 5 7 -6 8 -4 -7 -11 -12 15 14 -14 -13 -16 -18
right_child=-2 2 4 -5 6 9 -8 -9 -10 10 11 12 13 -15 16 -17 17 -19
leaf_value=0.018590243377855847 -0.022633737799312385 -0.036180823411792511 -0.0010887691804340907 0.0016376598365604876 0.0073547675071851063 0.019428572253291976 -0.016000112622665864 0.0065191111452877525 -0.023844380910907473 -0.005048973787090052 0.020167455746688774 0.0057746402919292448 -0.0080970006263149635 -0.012331037515774369 -0.00081617413453109885 0.021525674898709567 0.0054959198320284489 0.01545538893342018
leaf_weight=35 21 20 21 24 23 29 36 30 21 23 27 27 21 20 23 21 24 35
leaf_count=35 21 20 21 24 23 29 36 30 21 23 27 27 21 20 23 21 24 35
internal_value=0 0.00232319 0.000983551 -0.0155526 0.00289323 0.00468685 -0.00689567 -0.00455587 -0.0124666 0.00734876 0.00576362 0.00701963 0.00494366 0.00193017 0.00469934 0.0126657 0.00797645 0.0114041
internal_weight=0 460 425 44 381 322 59 72 42 250 221 198 171 123 103 48 82 59
internal_count=481 460 425 44 381 322 59 72 42 250 221 198 171 123 103 48 82 59
is_linear=0
shrinkage=0.03


Tree=54
num_leaves=19
num_cat=0
split_feature=1 11 8 12 1 6 5 14 3 4 3 0 1 5 10 2 15 12
split_gain=18.5901 11.6273 10.8188 10.085 22.8774 13.9148 8.2638 9.96976 7.18108 5.94494 8.60037 15.1084 8.0066 4.87169 4.51613 5.40205 2.1392 1.9473
threshold=0.67500000000000016 5.7765000000000013 0.33995000000000003 5.536150000000001 0.24925000000000003 17.345652173913049 359.12543402777789 18.047850000000004 48.425150000000009 43.471850000000011 67.134700000000024 152.50000000000003 0.38690000000000008 330.50965277777783 9.5000000000000018 0.84630000000000016 2.4297000000000004 6.7333000000000007
decision_type=2 2 2 2 2 2 2 2 2 2 2 2 2 2 2 2 2 2
left_child=1 2 9 4 -4 6 7 8 -6 10 11 -1 14 -11 15 -13 -16 -5
right_child=-2 -3 3 17 5 -7 -8 -9 -10 13 -12 12 -14 -15 16 -17 -18 -19
leaf_value=-0.021912534245186379 -0.027871804301227838 0.020887454701960084 -0.036870477172461419 0.014856240598484874 -0.010954008472932351 0.018543481081724166 0.0044860973379441671 0.0024949561789010962 -0.03176731226742268 0.019965348993154133 0.015890073295682667 -0.010569476952776312 -0.012796372215856205 0.0030672223742918246 0.0078620308265089991 0.010973157909783449 0.021737477548420429 0.0019221369177103041
leaf_weight=27 21 25 22 20 37 21 35 27 25 34 30 20 22 28 20 22 20 22
leaf_count=27 21 25 22 20 37 21 35 27 25 34 30 20 22 28 20 22 20 22
internal_value=0 0.000995656 -0.00015549 -0.00505947 -0.00836432 -0.00403925 -0.00786374 -0.0127204 -0.0193465 0.00444062 0.00140095 -0.00191716 0.00327394 0.0123339 0.00758549 0.00071476 0.0147998 0.00808123
internal_weight=0 457 432 209 167 145 124 89 62 223 161 131 104 62 82 42 40 42
internal_count=478 457 432 209 167 145 124 89 62 223 161 131 104 62 82 42 40 42
is_linear=0
shrinkage=0.03


Tree=55
num_leaves=19
num_cat=0
split_feature=1 11 8 11 9 6 2 5 13 9 14 14 15 5 14 10 13 10
split_gain=17.4914 10.9401 10.1794 9.74374 19.7611 19.4861 9.00559 8.87534 12.6049 3.99177 4.19307 6.16068 9.44187 6.47076 5.43249 5.22908 2.62868 2.00391
threshold=0.67500000000000016 5.7765000000000013 0.33995000000000003 0.68930000000000013 43.500000000000007 12.187719298245616 0.71590000000000009 359.12543402777789 0.26040000000000002 109.50000000000001 30.106350000000003 15.213950000000002 1.6814500000000001 323.04672453703711 9.6308000000000025 6.5000000000000009 0.28805000000000008 7.5000000000000009
decision_type=2 2 2 2 2 2 2 2 2 2 2 2 2 2 2 2 2 2
left_child=1 2 9 -4 5 -5 -6 8 -8 10 11 14 15 -14 -1 -13 -16 -15
right_child=-2 -3 3 4 6 -7 7 -9 -10 -11 -12 12 13 17 16 -17 -18 -19
leaf_value=-0.0037435219330447058 -0.027035650802510126 0.020260830701887608 0.015004866074770688 -0.040455068821708358 0.011092508260447245 -0.0033030999731272458 -0.023943591270268565 0.0062187466334019392 0.0030150478974812558 0.015121687054634094 0.015834369331598281 0.019348445858806372 -0.020570209468233173 -0.0086729055102914565 0.021788463359293728 -0.0016259285645640414 0.0069172844924032684 0.0047566166594624516
leaf_weight=21 21 25 20 27 39 24 37 35 27 27 20 20 29 20 23 23 20 20
leaf_count=21 21 25 20 27 39 24 37 35 27 27 20 20 29 20 23 23 20 20
internal_value=0 0.000965786 -0.000150825 -0.00490769 -0.00701484 -0.0229718 -0.0011177 -0.00592778 -0.0125704 0.0043074 0.00281768 0.00133851 -0.00290437 -0.00978061 0.00876354 0.00812959 0.0148716 -0.00195814
internal_weight=0 457 432 209 189 51 138 99 64 223 196 176 112 69 64 43 43 40
internal_count=478 457 432 209 189 51 138 99 64 223 196 176 112 69 64 43 43 40
is_linear=0
shrinkage=0.03


Tree=56
num_leaves=17
num_cat=0
split_feature=1 11 3 9 4 7 15 1 13 6 13 5 3 1 1 5
split_gain=16.4577 10.2935 9.65877 14.399 10.301 7.37551 12.3278 15.1744 10.2458 5.98797 11.6886 10.5678 5.5855 4.25617 3.54535 2.31122
threshold=0.67500000000000016 5.7765000000000013 55.285100000000007 87.500000000000014 40.506100000000011 0.41940000000000005 0.90795000000000015 0.36120000000000002 0.25880000000000009 10.283333333333335 0.22090000000000001 325.9433680555556 60.630400000000002 0.32425000000000004 0.41810000000000008 361.02813657407415
decision_type=2 2 2 2 2 2 2 2 2 2 2 2 2 2 2 2
left_child=1 2 3 4 -1 -6 -7 8 -8 10 -4 -12 -11 15 -13 -5
right_child=-2 -3 9 13 5 6 7 -9 -10 12 11 14 -14 -15 -16 -17
leaf_value=-0.026965560708194971 -0.026224581705672399 0.019653006075136363 0.017689006354840886 0.018493419646878135 0.010248076062310825 -0.029576601428644995 -0.023861521437764165 0.012134184112553211 -0.0015029641907984535 0.020783877539831925 -0.024013365291059015 -0.0065542366045216712 0.0039400304801057318 -0.0044209979911861213 0.0084303830713033674 0.0062146196957375546
leaf_weight=24 21 25 27 22 22 21 35 34 39 34 20 27 37 23 30 37
leaf_count=24 21 25 27 22 22 21 35 34 39 34 20 27 37 23 30 37
internal_value=0 0.000936812 -0.000146301 -0.00384793 -0.00870875 -0.005807 -0.00854508 -0.00445562 -0.012078 0.00528981 0.000704644 -0.00525091 0.0120061 0.00652577 0.00133241 0.0107932
internal_weight=0 457 432 257 175 151 129 108 74 175 104 77 71 82 57 59
internal_count=478 457 432 257 175 151 129 108 74 175 104 77 71 82 57 59
is_linear=0
shrinkage=0.03


Tree=57
num_leaves=20
num_cat=0
split_feature=1 13 9 6 5 10 15 0 5 8 11 15 15 9 1 9 14 0 8
split_gain=18.3311 9.54358 6.79674 26.3518 16.1461 9.8821 8.55293 7.41083 6.97345 6.66027 4.61359 4.4724 6.59085 4.57337 4.65733 3.80874 3.55108 2.14504 1.82039
threshold=0.67500000000000016 0.31355000000000005 47.500000000000007 14.187500000000002 320.53222800925931 11.500000000000002 0.62825000000000009 51.500000000000007 314.28992476851857 0.36550000000000005 4.0447000000000015 6.1546500000000011 4.0012000000000008 53.500000000000007 0.41195000000000009 95.500000000000014 10.398550000000002 215.50000000000003 0.30315000000000009
decision_type=2 2 2 2 2 2 2 2 2 2 2 2 2 2 2 2 2 2 2
left_child=1 2 3 4 7 8 -6 -1 -4 -7 -3 12 13 -10 16 -16 -15 -18 -19
right_child=-2 10 5 -5 6 9 -8 -9 11 -11 -12 -13 -14 14 15 -17 17 18 -20
leaf_value=0.025313453117385504 -0.029408209931105374 0.004295569042173715 -0.010856988762804705 -0.039039424527436493 0.0016954878754913806 -0.0028523042021053177 -0.023991031749173997 0.0010232070489571644 0.018105647003926011 -0.02455429038405418 0.023201295350279125 0.018557281617075202 -0.011441111663437406 0.00017108000814914702 0.0032225737057160584 -0.012992636947469277 0.0044792463798075909 0.0087991920858621602 0.021054072284605353
leaf_weight=20 20 26 28 20 20 35 28 26 23 20 21 20 23 39 32 22 25 20 24
leaf_count=20 20 26 28 20 20 35 28 26 23 20 21 20 23 39 32 22 25 20 24
internal_value=0 -8.49707e-05 -0.00150357 -0.00776978 -0.00111667 0.000793367 -0.0132883 0.0115842 0.00327208 -0.0107439 0.0127428 0.00500723 0.00370434 0.00558729 0.00381 -0.00338362 0.0074068 0.0114966 0.0154837
internal_weight=0 472 425 114 94 311 48 46 256 55 47 228 208 185 162 54 108 69 44
internal_count=492 472 425 114 94 311 48 46 256 55 47 228 208 185 162 54 108 69 44
is_linear=0
shrinkage=0.03


Tree=58
num_leaves=19
num_cat=0
split_feature=1 13 9 1 10 14 10 11 5 7 11 1 11 7 5 13 9 9
split_gain=17.2477 8.97956 6.39505 15.7839 12.6849 18.8495 9.29807 6.61808 9.73116 6.26665 5.95809 4.36233 4.34093 4.17128 3.91271 3.14484 2.12089 3.96602
threshold=0.67500000000000016 0.31355000000000005 47.500000000000007 0.43695000000000006 4.5000000000000009 11.444450000000002 11.500000000000002 3.7831000000000006 314.28992476851857 0.64370000000000005 3.3819000000000004 0.41195000000000009 4.0447000000000015 0.67805000000000015 328.7134143518519 0.23345000000000002 104.50000000000001 78.500000000000014
decision_type=2 2 2 2 2 2 2 2 2 2 2 2 2 2 2 2 2 2
left_child=1 2 3 4 -1 -6 7 8 -4 -8 11 14 -3 -5 -10 -13 17 -16
right_child=-2 12 6 13 5 -7 9 -9 10 -11 -12 15 -14 -15 16 -17 -18 -19
